{
  "class_weight_positive": 8.0,
  "dataset_path": "/projects/p57098/euijin1/Caver/metadata/stage0/value_proxy/stage0_seed_context_success_dataset.jsonl",
  "feature_spec": {
    "base_feature_dim": 38,
    "family_ids": [
      "block_to_tray_proxy",
      "container_insertion_proxy",
      "drawer_open_proxy",
      "relocate_to_region_proxy",
      "two_object_stack_proxy"
    ],
    "feature_dim": 44,
    "include_base_progress_interaction": false,
    "include_base_progress_sq_interaction": false,
    "include_family_one_hot": true,
    "include_family_progress_interaction": false,
    "include_family_progress_sq_interaction": false,
    "include_policy_query_index": true,
    "include_policy_query_index_sq": false,
    "policy_query_index_scale": 79.0
  },
  "label_key": "chunk_success_label",
  "model_format": "stage0_value_proxy_mlp3head_v2",
  "model_id": "stage0_chunk_success_mlp3head_v2",
  "network": {
    "bootstrap_keep_probability": 0.8,
    "head_count": 3,
    "head_layers": [
      [
        {
          "activation": "identity",
          "bias": [
            0.0011663006152957678
          ],
          "weight": [
            [
              -0.001991966739296913,
              -0.03544844686985016,
              -0.05376817658543587,
              0.0007452793070115149,
              0.05976533144712448,
              0.010234718210995197,
              0.003097543027251959,
              -0.010711492039263248,
              -0.03714881092309952,
              -0.031016569584608078,
              -0.01905377209186554,
              -0.020636215806007385,
              0.007301002740859985,
              -0.034059759229421616,
              -0.051484063267707825,
              0.06548991054296494,
              -0.045604027807712555,
              0.007553017232567072,
              0.015106073580682278,
              -0.015683140605688095,
              0.043637245893478394,
              -0.026330072432756424,
              0.05808207765221596,
              -0.03141997754573822,
              -0.05254681035876274,
              0.043092675507068634,
              0.02694021724164486,
              -0.050822868943214417,
              -0.0020012157037854195,
              -0.01250987034291029,
              0.050527527928352356,
              -0.045512016862630844,
              -0.03653198480606079,
              0.007158791646361351,
              0.02115916833281517,
              -0.03879760205745697,
              0.046863049268722534,
              -0.0011800272623077035,
              -0.015290254727005959,
              -0.005625723861157894,
              -0.05558060482144356,
              0.022003550082445145,
              0.01884794421494007,
              0.02113787829875946,
              0.0015317698707804084,
              -0.005975363776087761,
              -0.00229953252710402,
              0.007427247241139412,
              0.04164361581206322,
              -0.006648696959018707,
              -0.021288929507136345,
              -0.053587302565574646,
              -0.01506962813436985,
              0.020356688648462296,
              -0.04996359348297119,
              -0.005873200483620167,
              0.011633909307420254,
              0.08595694601535797,
              -0.008878645487129688,
              -0.03425479307770729,
              -0.010714597068727016,
              0.015434709377586842,
              -0.01660134643316269,
              -0.02990652434527874,
              0.023997142910957336,
              0.017303872853517532,
              -0.047739334404468536,
              0.05534736067056656,
              0.009838845580816269,
              0.008424739353358746,
              -0.0028691512998193502,
              -0.03506622463464737,
              0.07423245906829834,
              0.011353126727044582,
              -0.04451971873641014,
              0.005981795024126768,
              -0.020421084016561508,
              0.05308185890316963,
              0.04265272989869118,
              0.008775035850703716,
              0.02909935638308525,
              0.04331409931182861,
              0.0626763254404068,
              0.04350923001766205,
              0.015737775713205338,
              0.02440251223742962,
              0.001715748687274754,
              0.008829647675156593,
              -0.019475288689136505,
              0.0519668310880661,
              0.03705161437392235,
              0.03548966348171234,
              -0.026150040328502655,
              -0.049056731164455414,
              -0.013542234897613525,
              0.00651890505105257,
              -0.0016679068794474006,
              -0.008691591210663319,
              -0.03039187751710415,
              0.035348471254110336,
              0.005562989041209221,
              0.00676485151052475,
              -0.01462442334741354,
              0.03442399576306343,
              0.04218604415655136,
              -0.06141379103064537,
              -0.0005643226322717965,
              0.02883574180305004,
              -0.02351965941488743,
              0.0029860606882721186,
              -0.026818793267011642,
              0.02501710131764412,
              0.030964301899075508,
              -0.03818400576710701,
              0.04691319167613983,
              0.03502584621310234,
              0.05099867656826973,
              0.04615447670221329,
              -0.03411344811320305,
              0.016208086162805557,
              0.0066351392306387424,
              0.062011606991291046,
              0.010660826228559017,
              -0.04548981785774231,
              0.023697959259152412,
              -0.004063737578690052,
              -0.037253376096487045,
              0.04309055581688881,
              0.051281850785017014,
              0.014622306451201439,
              -0.04233340919017792,
              -0.06461625546216965,
              -0.0025555777829140425,
              -0.03839898109436035,
              -0.04146512970328331,
              -0.03327131271362305,
              -0.0217673908919096,
              0.03345957025885582,
              0.05391359701752663,
              -0.02802976965904236,
              -0.03270294517278671,
              -0.03416277468204498,
              -0.06559553742408752,
              -0.027940649539232254,
              -0.010176300071179867,
              0.037032000720500946,
              -0.04019487276673317,
              0.03510173037648201,
              -0.03502063453197479,
              0.08026527613401413,
              -0.016558658331632614,
              0.007160731125622988,
              0.03173205256462097,
              -0.004694550298154354,
              -0.05554143339395523,
              0.03927726298570633,
              0.020631032064557076,
              -0.04598511755466461,
              -0.025261014699935913,
              0.03806719183921814,
              -0.027703121304512024,
              0.04865453764796257,
              0.05353698879480362,
              0.033100616186857224,
              -0.02238183468580246,
              0.04134460911154747,
              -0.026705468073487282,
              -0.03684554249048233,
              -0.013406122103333473,
              -0.034504711627960205,
              0.03566150739789009,
              0.044557154178619385,
              0.06391340494155884,
              0.0038778213784098625,
              -0.056248024106025696,
              -0.054141029715538025,
              0.04910118505358696,
              -0.043262504041194916,
              -0.0684230700135231,
              -0.012461635284125805,
              -0.01237998902797699,
              -0.006999936420470476,
              -0.005368428770452738,
              -0.0446273609995842,
              -0.023442190140485764,
              -0.03637973591685295,
              0.02124171145260334,
              -0.044585566967725754,
              0.042443081736564636,
              -0.012305140495300293,
              0.022021235898137093,
              0.0748908519744873,
              0.008564896881580353,
              -0.022232435643672943,
              -0.021272173151373863,
              0.058371905237436295,
              -0.0028972297441214323,
              -0.02265017107129097,
              0.00853246171027422,
              -0.01719169318675995,
              0.04446014016866684,
              0.05980459600687027,
              0.028400026261806488,
              -0.057439446449279785,
              0.03605441376566887,
              0.000857758685015142,
              -0.05536075308918953,
              -0.03256428241729736,
              0.06687114387750626,
              0.021446779370307922,
              -0.027186021208763123,
              -0.04407042637467384,
              0.0068543036468327045,
              -0.015081435441970825,
              -0.01997656375169754,
              0.015724634751677513,
              -0.027636442333459854,
              0.020298227667808533,
              0.02583116665482521,
              0.059998512268066406,
              -0.019068555906414986,
              0.025156764313578606,
              0.058860909193754196,
              -0.05299566313624382,
              0.052653051912784576,
              -0.04307341203093529,
              0.060364365577697754,
              -0.02247500605881214,
              -0.05499875545501709,
              -0.011107281781733036,
              -0.0412115715444088,
              0.016651764512062073,
              -0.0007095485343597829,
              0.016390901058912277,
              -0.05162215232849121,
              0.06291814148426056,
              0.0243099145591259,
              0.0005430714227259159,
              0.04190736263990402,
              0.011349284090101719,
              -0.006462444551289082,
              -0.015984192490577698,
              0.0034387800842523575,
              -0.019626867026090622,
              0.03734133392572403,
              0.05973890796303749,
              -0.06564677506685257,
              0.041978027671575546,
              0.013309082947671413,
              0.0020156295504420996,
              0.06837843358516693,
              -0.048378124833106995,
              0.009094109758734703,
              0.03495028614997864,
              -0.008494675159454346,
              -0.006262070965021849
            ]
          ]
        }
      ],
      [
        {
          "activation": "identity",
          "bias": [
            0.013140726834535599
          ],
          "weight": [
            [
              0.0251872930675745,
              0.03463127836585045,
              -0.035048794001340866,
              -0.03298976644873619,
              0.06599801778793335,
              0.01367575116455555,
              -0.024115731939673424,
              0.015007919631898403,
              -0.059344206005334854,
              0.02985759824514389,
              0.005122405476868153,
              0.0030202283523976803,
              -0.005204939749091864,
              -0.010107741691172123,
              0.026027778163552284,
              -0.012935622595250607,
              -0.05400916561484337,
              0.03620746731758118,
              0.01363808661699295,
              0.03406972438097,
              0.02014514058828354,
              -0.06650319695472717,
              0.06125730648636818,
              -0.053887709975242615,
              0.01171947829425335,
              0.03315900266170502,
              -0.0014312181156128645,
              0.030799007043242455,
              -0.04987327381968498,
              0.0063355956226587296,
              -0.026052234694361687,
              -0.03566146269440651,
              -0.010149753652513027,
              0.013048265129327774,
              0.02260490506887436,
              0.0003513892297632992,
              0.01989736407995224,
              0.03532955050468445,
              -0.05238213762640953,
              0.03673943877220154,
              -0.04204508289694786,
              -0.034850429743528366,
              0.04359184950590134,
              -0.007623183540999889,
              -0.03180842474102974,
              -0.03827649727463722,
              -0.01000470295548439,
              -0.022465631365776062,
              0.06117222458124161,
              -0.013441117480397224,
              -0.012742570601403713,
              -0.0001685801544226706,
              -0.0559391975402832,
              0.007040121126919985,
              -0.003401482477784157,
              -0.034058015793561935,
              0.06553354114294052,
              0.05938838794827461,
              0.07228905707597733,
              -0.05128820613026619,
              -0.03461043909192085,
              0.019064201042056084,
              0.023110318928956985,
              -0.02749655209481716,
              0.054013077169656754,
              -0.0087348073720932,
              -0.018789131194353104,
              0.03679755702614784,
              -0.03697947412729263,
              0.03915731608867645,
              0.03762635216116905,
              -0.04571393132209778,
              0.047530923038721085,
              0.039995063096284866,
              0.002112779999151826,
              0.014646785333752632,
              0.007391618099063635,
              0.03031429834663868,
              0.014810558408498764,
              0.013960812240839005,
              -0.02701040357351303,
              -0.0019934549927711487,
              -0.024721551686525345,
              0.031142491847276688,
              0.018056314438581467,
              0.052259013056755066,
              0.01949523575603962,
              -0.03605814278125763,
              0.016748618334531784,
              -0.020401719957590103,
              -0.014969844371080399,
              -0.024663269519805908,
              0.016711337491869926,
              -0.042855583131313324,
              -0.034609947353601456,
              -0.0502905547618866,
              -0.036908749490976334,
              0.00024346407735720277,
              -0.013395195826888084,
              -0.04353520646691322,
              0.003169204341247678,
              0.03233392909169197,
              -0.02395537868142128,
              0.03858162462711334,
              0.007004489656537771,
              0.04055963456630707,
              0.008734154514968395,
              -0.038955770432949066,
              -0.05642561614513397,
              -0.021935494616627693,
              -0.02505646087229252,
              -0.03909705579280853,
              0.004693551454693079,
              0.004535102751106024,
              -0.015053494833409786,
              0.03140782564878464,
              -0.03755922615528107,
              -0.046876247972249985,
              0.008047826588153839,
              -0.04973423480987549,
              0.0012284431140869856,
              0.02984246239066124,
              0.05354613810777664,
              -0.04205175116658211,
              0.011062439531087875,
              0.0066018677316606045,
              -0.010364563204348087,
              0.023331111297011375,
              0.01976860500872135,
              -0.03599139675498009,
              -0.04396950453519821,
              0.016190040856599808,
              0.01225396990776062,
              0.02375033125281334,
              0.05516694858670235,
              -0.06095464900135994,
              -0.04015500843524933,
              -0.04678923636674881,
              0.049143970012664795,
              0.045473650097846985,
              -0.04094214364886284,
              0.036083754152059555,
              -0.0020097217056900263,
              0.028346069157123566,
              0.027256721630692482,
              -0.05858578532934189,
              -0.03911810368299484,
              0.04173433408141136,
              -0.008421596139669418,
              0.06949371844530106,
              0.008387050591409206,
              -0.008251732215285301,
              0.03484408184885979,
              -0.0002392977912677452,
              -0.0695718303322792,
              0.011438018642365932,
              -0.0013507006224244833,
              0.05424213036894798,
              0.049290191382169724,
              -0.020075036212801933,
              -0.05508088320493698,
              -0.01379933301359415,
              0.03233205899596214,
              0.03258000686764717,
              0.050519078969955444,
              -0.043192822486162186,
              -0.029155293479561806,
              -0.054581109434366226,
              -0.08045707643032074,
              -0.05953942611813545,
              -0.005341636948287487,
              -0.02762356773018837,
              0.03513316437602043,
              0.005897472612559795,
              -0.03304217755794525,
              -0.043510012328624725,
              -0.028493788093328476,
              -0.04750954732298851,
              -0.03890383243560791,
              -0.04386569559574127,
              0.03805643692612648,
              0.039235975593328476,
              -0.0003150844422634691,
              0.016188200563192368,
              -0.03286954015493393,
              -0.011927791871130466,
              0.059883225709199905,
              -0.04139678180217743,
              0.004629368428140879,
              0.042489759624004364,
              0.011670878157019615,
              0.06296976655721664,
              -0.012752207927405834,
              -0.049004748463630676,
              -0.028809580951929092,
              -0.011039291508495808,
              -0.0019487470854073763,
              0.011978994123637676,
              0.04814477264881134,
              -0.04336137697100639,
              -0.042937021702528,
              0.005434580612927675,
              -0.012386133894324303,
              -0.008561890572309494,
              0.019233865663409233,
              -0.0499880351126194,
              -0.007610165514051914,
              0.027520768344402313,
              0.03621887043118477,
              0.05357564985752106,
              -0.029511284083127975,
              0.005415423307567835,
              -0.020771341398358345,
              0.024994242936372757,
              -0.015498435124754906,
              0.05260147154331207,
              -0.006804369390010834,
              -0.016936950385570526,
              0.01054106093943119,
              0.044976163655519485,
              0.0006465940969064832,
              0.046080201864242554,
              0.013475791551172733,
              0.040365226566791534,
              0.05940757691860199,
              0.008234066888689995,
              0.06716669350862503,
              -0.010582191869616508,
              -0.0274601262062788,
              -0.05081433430314064,
              -0.013420355506241322,
              0.05104672163724899,
              -0.02021014131605625,
              -0.05152057111263275,
              -0.028117584064602852,
              0.04483253136277199,
              0.0014033291954547167,
              0.01594717986881733,
              -0.010374213568866253,
              -0.04847288876771927,
              -0.06210686266422272,
              -0.021273057907819748,
              -0.030952857807278633,
              -0.007608632557094097,
              0.07249615341424942,
              0.0628378763794899,
              0.020398546010255814,
              -0.05968045815825462,
              -0.02172676846385002,
              -0.04394286125898361,
              0.03451504558324814,
              -0.04328795149922371,
              0.011686091311275959,
              0.06039987504482269,
              -0.025936339050531387,
              -0.007475930731743574
            ]
          ]
        }
      ],
      [
        {
          "activation": "identity",
          "bias": [
            0.043369028717279434
          ],
          "weight": [
            [
              -0.010321350768208504,
              -0.03314423933625221,
              0.01137340534478426,
              -0.030266935005784035,
              0.0832863375544548,
              -0.0018999879248440266,
              -0.03320880979299545,
              -0.009888916276395321,
              -0.0035356469452381134,
              0.0030326300766319036,
              -0.01672283746302128,
              0.00726480595767498,
              -0.018404757604002953,
              0.020375316962599754,
              -0.01643519103527069,
              0.036146532744169235,
              0.021701594814658165,
              0.032598208636045456,
              -0.02399221621453762,
              -0.027180345728993416,
              -0.03885322064161301,
              -0.036394502967596054,
              0.02757185697555542,
              -0.010525792837142944,
              0.003065799828618765,
              0.049176398664712906,
              -0.012125481851398945,
              0.010619898326694965,
              0.0012738627847284079,
              0.014717178419232368,
              -0.028211042284965515,
              0.018373241648077965,
              0.028918268159031868,
              -0.011385303921997547,
              -0.025724442675709724,
              -0.043250832706689835,
              -0.021842926740646362,
              0.030988311395049095,
              -0.04536426439881325,
              0.06601886451244354,
              -0.04701485484838486,
              0.008914483711123466,
              0.01871187798678875,
              -0.028742842376232147,
              0.05614282563328743,
              0.03984672948718071,
              -0.06477268040180206,
              0.01199299842119217,
              0.0708603635430336,
              -0.02065373957157135,
              -0.007493206765502691,
              0.012140432372689247,
              -0.04538515582680702,
              0.0417492650449276,
              0.03876234218478203,
              0.020295141264796257,
              0.012052945792675018,
              0.041294876486063004,
              0.08536951243877411,
              0.028264490887522697,
              0.050020843744277954,
              -0.03714805096387863,
              -0.012394862249493599,
              -0.062098413705825806,
              0.001401102519594133,
              -0.01074192114174366,
              -0.019531017169356346,
              0.008065273985266685,
              0.001924940850585699,
              0.04175696521997452,
              0.007516490761190653,
              -0.04007110372185707,
              -0.014289488084614277,
              -0.041202362626791,
              0.04980737343430519,
              -0.014823004603385925,
              0.009218137711286545,
              0.006592865567654371,
              -0.049524713307619095,
              -0.008450648747384548,
              0.0028980153147131205,
              -0.021155323833227158,
              0.07150911539793015,
              0.035715531557798386,
              0.058538373559713364,
              0.006813989486545324,
              0.020823881030082703,
              -0.016258234158158302,
              0.02066352590918541,
              0.0378856286406517,
              0.037765584886074066,
              -0.05096816271543503,
              -0.04300926253199577,
              0.008883669041097164,
              -0.0025198759976774454,
              0.030323877930641174,
              0.034001339226961136,
              0.03292402997612953,
              -0.012606003321707249,
              0.006293279118835926,
              -0.02117546834051609,
              -0.04496946930885315,
              0.013610009104013443,
              0.020656559616327286,
              -0.03833714500069618,
              0.014143982902169228,
              -0.009885364212095737,
              -0.0635947659611702,
              0.006284480914473534,
              -0.026026222854852676,
              0.00849639531224966,
              0.028215477243065834,
              -0.029683107510209084,
              -0.0070197368040680885,
              -0.023275988176465034,
              0.035392872989177704,
              -0.02835654653608799,
              0.006276894360780716,
              -0.05164388194680214,
              -0.012765273451805115,
              -0.026817085221409798,
              0.07132712751626968,
              -0.017838485538959503,
              0.04673474282026291,
              -0.004667225759476423,
              -0.03449450805783272,
              0.04964898154139519,
              -0.0502665713429451,
              0.028270313516259193,
              -0.05933114513754845,
              -0.031055286526679993,
              -0.06765758246183395,
              0.06648708134889603,
              -0.049396928399801254,
              -0.016641365364193916,
              -0.04337174817919731,
              0.01204623468220234,
              0.012448891066014767,
              -0.04692792892456055,
              -0.01459153275936842,
              0.014179942198097706,
              0.01092549692839384,
              0.010775203816592693,
              -0.004925057291984558,
              0.03555791825056076,
              -0.04250701516866684,
              -0.039031028747558594,
              0.053243838250637054,
              -0.027841100469231606,
              0.04383300617337227,
              -0.046230949461460114,
              0.0066470252349972725,
              -0.013766605406999588,
              0.012246630154550076,
              -0.06868084520101547,
              0.0109987398609519,
              -0.028148682788014412,
              -0.05092427879571915,
              0.008919102139770985,
              0.0017068925080820918,
              0.014937756583094597,
              0.030605224892497063,
              -0.04851146787405014,
              -0.013939823023974895,
              0.0793549120426178,
              -0.009211654774844646,
              0.028146542608737946,
              -0.04406174644827843,
              -0.01791425421833992,
              -0.08457986265420914,
              0.029190443456172943,
              0.04272560775279999,
              0.07125594466924667,
              -0.005417725536972284,
              0.03747203201055527,
              -0.028187928721308708,
              -0.01419576071202755,
              -0.017981264740228653,
              0.002956056734547019,
              0.00846488680690527,
              0.03590736910700798,
              0.024463308975100517,
              0.04438271000981331,
              0.01661575213074684,
              -0.04150423780083656,
              -0.03892763704061508,
              0.03526618704199791,
              -0.013946222141385078,
              0.03870406746864319,
              -0.03570794686675072,
              -0.04814445599913597,
              0.06920577585697174,
              0.01922091655433178,
              0.0044776806607842445,
              -0.01628207415342331,
              0.042186081409454346,
              -0.008920376189053059,
              0.004218704532831907,
              0.05761595070362091,
              0.0006471038796007633,
              -0.00508567551150918,
              0.04666794091463089,
              0.01458794716745615,
              0.0006670448929071426,
              0.03230832517147064,
              0.002214031293988228,
              -0.0015602309722453356,
              -0.0029738922603428364,
              0.02311333455145359,
              -0.002024848246946931,
              -0.0255240760743618,
              -0.0314677432179451,
              -0.0472039058804512,
              -0.009546035900712013,
              0.015427934005856514,
              0.019394708797335625,
              0.03317679837346077,
              0.031773198395967484,
              -0.02954189106822014,
              -0.016171762719750404,
              0.014404566027224064,
              -0.018433747813105583,
              -0.01097378320991993,
              -0.02590167708694935,
              0.03230717033147812,
              0.014248496852815151,
              0.0468231663107872,
              0.0363638736307621,
              -0.013974467292428017,
              -0.037810973823070526,
              -0.03992953896522522,
              0.03665115311741829,
              0.008737853728234768,
              -0.03365568071603775,
              -0.01460463460534811,
              -0.026255052536725998,
              0.03808022662997246,
              -0.02867642045021057,
              -0.012137099169194698,
              -0.005193461198359728,
              -0.006888147443532944,
              0.019998997449874878,
              0.02525366097688675,
              -0.021610381081700325,
              0.036818746477365494,
              0.0073983874171972275,
              -0.05642673745751381,
              -0.052527911961078644,
              -0.04096614196896553,
              -0.037885479629039764,
              0.011075221002101898,
              -0.029811080545186996,
              0.02587665244936943,
              -0.03430365025997162,
              0.018947364762425423,
              0.0667833462357521
            ]
          ]
        }
      ]
    ],
    "hidden_dim": 256,
    "trunk_layers": [
      {
        "activation": "gelu",
        "bias": [
          -0.1520778387784958,
          -0.025286484509706497,
          -0.1528674215078354,
          -0.09785544872283936,
          0.1324360966682434,
          0.11075827479362488,
          0.07909931242465973,
          0.11659713834524155,
          -0.14422109723091125,
          0.10411775857210159,
          -0.04825027659535408,
          0.08262605965137482,
          0.09191323816776276,
          -0.06782841682434082,
          -0.06989431381225586,
          -0.06167762726545334,
          0.0928354561328888,
          -0.017093580216169357,
          -0.01793401688337326,
          -0.007323934696614742,
          0.09283499419689178,
          -0.15191350877285004,
          0.10537226498126984,
          0.0494101420044899,
          0.05882835015654564,
          0.02591889537870884,
          0.06986972689628601,
          -0.15456801652908325,
          -0.0017515996005386114,
          -0.026829887181520462,
          -0.0674448013305664,
          -0.10483912378549576,
          0.0710580125451088,
          0.09073715656995773,
          0.059431292116642,
          -0.10593944042921066,
          -0.08021199703216553,
          -0.14599654078483582,
          0.1254485547542572,
          -0.014537540264427662,
          0.06901407986879349,
          -0.05065913125872612,
          -0.0887257382273674,
          -0.09727709740400314,
          -0.00798746570944786,
          0.1088520884513855,
          0.03436187282204628,
          -0.08736038953065872,
          0.04414983093738556,
          0.009916752576828003,
          -0.12248282134532928,
          -0.013236269354820251,
          -0.00020067965670023113,
          -0.11301643401384354,
          -0.1119648814201355,
          -0.025399507954716682,
          -0.04537486284971237,
          -0.029353395104408264,
          0.035249367356300354,
          0.019238321110606194,
          -0.03026067651808262,
          0.13091254234313965,
          -0.01254184264689684,
          -0.14606454968452454,
          -0.06458783894777298,
          0.07464083284139633,
          -0.009709512814879417,
          -0.05782485380768776,
          0.014685621485114098,
          0.14403432607650757,
          -0.06822864711284637,
          -0.13104911148548126,
          0.1362362802028656,
          0.044657547026872635,
          0.12970209121704102,
          0.07576210051774979,
          0.1292651742696762,
          -0.025448285043239594,
          -0.049502793699502945,
          -0.0815374106168747,
          -0.11289334297180176,
          0.1216086894273758,
          -0.15707717835903168,
          0.026671485975384712,
          -0.060370031744241714,
          -0.10571979731321335,
          0.0025520515628159046,
          0.03864746913313866,
          -0.0365789569914341,
          0.0592685304582119,
          0.050008852034807205,
          -0.10840696841478348,
          -0.0975741297006607,
          0.03683310002088547,
          0.02683708444237709,
          -0.015570316463708878,
          -0.11360341310501099,
          -0.11769504100084305,
          -0.013284169137477875,
          -0.06472638994455338,
          -0.10386142879724503,
          0.03504360094666481,
          0.10261085629463196,
          -0.14518103003501892,
          -0.1112547442317009,
          0.04937322065234184,
          0.10172446817159653,
          0.12463159114122391,
          -0.05927910655736923,
          0.14764352142810822,
          -0.10931418836116791,
          -0.07681810855865479,
          -0.08014925569295883,
          0.13125696778297424,
          0.013768782839179039,
          -0.08816349506378174,
          0.11960902810096741,
          -0.01270640641450882,
          0.08463045209646225,
          0.14763684570789337,
          -0.06650742143392563,
          0.14075209200382233,
          0.03581022098660469,
          -0.07515846937894821,
          -0.040365833789110184,
          -0.09747479110956192,
          -0.006377710960805416,
          -0.009090762585401535,
          0.010312570258975029,
          -0.03363872319459915,
          -0.15155048668384552,
          0.040645115077495575,
          0.10165613889694214,
          -0.13994485139846802,
          -0.07477333396673203,
          -0.0017551007913425565,
          0.030613388866186142,
          -0.004971825052052736,
          -0.15159234404563904,
          0.061452753841876984,
          0.12025550752878189,
          -0.13163110613822937,
          -0.09086481481790543,
          -0.03659588471055031,
          -0.024464499205350876,
          -0.11447709053754807,
          -0.050806544721126556,
          0.04499761760234833,
          0.02191801182925701,
          0.11515367776155472,
          -0.12633973360061646,
          0.14867036044597626,
          -0.02976823039352894,
          -0.06618312746286392,
          -0.019196435809135437,
          -0.09565748274326324,
          0.033982183784246445,
          -0.06717224419116974,
          -0.08381190896034241,
          -0.13336431980133057,
          0.0963016226887703,
          -0.1550064980983734,
          -0.024888604879379272,
          -0.02777555026113987,
          -0.1265498250722885,
          -0.08693020790815353,
          -0.057103876024484634,
          0.11362183094024658,
          -0.10212459415197372,
          -0.10602890700101852,
          -0.06402626633644104,
          0.08883830159902573,
          0.039175860583782196,
          -0.025255970656871796,
          0.04259777069091797,
          -0.05016060546040535,
          -0.017774775624275208,
          0.10007049888372421,
          0.007415157277137041,
          0.03185252100229263,
          0.04172341153025627,
          -0.0102358628064394,
          0.0860772654414177,
          -0.07774204015731812,
          0.13456258177757263,
          0.042149972170591354,
          -0.0016326801851391792,
          0.010935206897556782,
          -0.05331466719508171,
          0.13781020045280457,
          0.0214362982660532,
          0.006373803596943617,
          -0.007401284761726856,
          0.03678004443645477,
          0.11782106757164001,
          0.0017209076322615147,
          -0.10178003460168839,
          -0.03965049609541893,
          0.01981724239885807,
          0.1142614334821701,
          0.12425527721643448,
          -0.1243763193488121,
          0.14535284042358398,
          -8.822992094792426e-05,
          -0.1544487327337265,
          -0.10497358441352844,
          -0.0643656849861145,
          -0.15477438271045685,
          -0.0025650914758443832,
          -0.03799859434366226,
          0.09090738743543625,
          -0.1370856761932373,
          0.03673158213496208,
          -0.09656045585870743,
          -0.13022255897521973,
          0.11834505200386047,
          -0.040153682231903076,
          0.1303924173116684,
          -0.016354288905858994,
          -0.1450134515762329,
          0.046042684465646744,
          -0.10321066528558731,
          -0.09805004298686981,
          0.09375734627246857,
          0.10908221453428268,
          -0.12341223657131195,
          -0.016020670533180237,
          0.1327105611562729,
          -0.036380790174007416,
          0.14186091721057892,
          0.20830805599689484,
          -0.13426238298416138,
          0.1087244525551796,
          0.11774827539920807,
          0.03538847714662552,
          0.05810462683439255,
          -0.11599282175302505,
          0.067426897585392,
          0.08638714998960495,
          -0.13914372026920319,
          0.05719037726521492,
          0.10122592747211456,
          0.10161431133747101,
          -0.13592620193958282,
          -0.03984470292925835,
          0.0022851855028420687,
          -0.12017013132572174,
          -0.06626523286104202,
          -0.07208635658025742,
          0.13253089785575867,
          -0.09939136356115341,
          0.022375496104359627,
          -0.12344098836183548,
          -0.11547233164310455,
          0.08986672013998032,
          -0.12679564952850342
        ],
        "weight": [
          [
            0.0026789510156959295,
            -0.07584718614816666,
            0.06800460815429688,
            0.039184924215078354,
            -0.09163505584001541,
            -0.006454350892454386,
            -0.07167031615972519,
            0.040167778730392456,
            -0.018387967720627785,
            0.12469964474439621,
            0.11585216969251633,
            0.01502155140042305,
            -0.03955845162272453,
            -0.07284566015005112,
            -0.006336620077490807,
            -0.05185593664646149,
            0.04671255126595497,
            -0.10221745818853378,
            0.13903513550758362,
            -0.11239330470561981,
            0.11318720132112503,
            -0.01292937807738781,
            0.05355048552155495,
            0.02794751524925232,
            0.0040772827342152596,
            0.04081793129444122,
            0.09246931225061417,
            0.027382919564843178,
            0.08314663171768188,
            -0.13664017617702484,
            0.10314447432756424,
            0.035742804408073425,
            0.052083976566791534,
            -0.005843391176313162,
            0.058722708374261856,
            0.13053391873836517,
            -0.03354468569159508,
            -0.1018974706530571,
            -0.05041370168328285,
            -0.0744502916932106,
            0.0915074273943901,
            -0.09724341332912445,
            -0.09925049543380737,
            0.09004464745521545
          ],
          [
            0.1969023048877716,
            0.04546434432268143,
            -0.028060145676136017,
            -0.02015705034136772,
            0.08572316914796829,
            -0.12810620665550232,
            -0.10378149896860123,
            0.10178734362125397,
            0.15866482257843018,
            -0.036390915513038635,
            -0.1078934594988823,
            0.008033914491534233,
            -0.10144855827093124,
            -0.03649307042360306,
            0.053093597292900085,
            0.07688020914793015,
            -0.011488482356071472,
            0.007927085272967815,
            0.027072913944721222,
            -0.13242346048355103,
            -0.07366342097520828,
            0.003567394334822893,
            -0.09507506340742111,
            -0.05698085203766823,
            0.04887336120009422,
            0.08253192901611328,
            0.01657762937247753,
            -0.05968381464481354,
            0.10778137296438217,
            -0.12682417035102844,
            -0.02567487582564354,
            0.1409488171339035,
            0.015128067694604397,
            0.027324724942445755,
            0.07272160798311234,
            -0.020338093861937523,
            0.12898001074790955,
            -0.06832799315452576,
            -0.06478685140609741,
            -0.01674833334982395,
            -0.05981871485710144,
            -0.0529073029756546,
            0.09444263577461243,
            0.0762941837310791
          ],
          [
            0.02309209108352661,
            0.11508990824222565,
            -0.0894017368555069,
            -0.08421476185321808,
            0.04947563260793686,
            0.0014256193535402417,
            -0.12392964959144592,
            -0.12996533513069153,
            -0.09045008569955826,
            0.12630872428417206,
            0.09671493619680405,
            0.12953291833400726,
            -0.11533589661121368,
            -0.15172596275806427,
            -0.1292770951986313,
            0.023833438754081726,
            -0.018022723495960236,
            -0.07357938587665558,
            0.10004213452339172,
            -0.04483368992805481,
            -0.07364368438720703,
            0.05061228200793266,
            -0.04158898815512657,
            0.08930740505456924,
            0.04000242426991463,
            0.010252095758914948,
            0.031628962606191635,
            -0.12080041319131851,
            -0.07580596953630447,
            -0.05669426918029785,
            -0.11623392254114151,
            -0.0023038031067699194,
            0.05077873542904854,
            -0.07137224078178406,
            0.0891527310013771,
            -0.047910429537296295,
            0.030435316264629364,
            -0.02003493905067444,
            -0.06933058798313141,
            -0.10843154788017273,
            0.08092150092124939,
            0.037271831184625626,
            -0.10118122398853302,
            -0.0683126375079155
          ],
          [
            -0.08773604780435562,
            0.10697133094072342,
            0.13807351887226105,
            0.01657654158771038,
            -0.07303571701049805,
            0.08974775671958923,
            0.0955226719379425,
            -0.0803111121058464,
            -0.018910745158791542,
            0.03277955576777458,
            0.033502768725156784,
            0.0014504756545647979,
            -0.12665772438049316,
            -0.11236944794654846,
            -0.01395572442561388,
            -0.031156165525317192,
            0.10539770871400833,
            0.04699286073446274,
            -0.022727858275175095,
            -0.1411788910627365,
            -0.1469009965658188,
            0.023327544331550598,
            0.10559525340795517,
            -0.004955932032316923,
            -0.12253134697675705,
            0.03274008259177208,
            0.11466388404369354,
            -0.09169959276914597,
            -0.032336801290512085,
            0.014647112227976322,
            -0.06575918942689896,
            -0.15108124911785126,
            0.013163622468709946,
            -0.14066842198371887,
            -0.015023496933281422,
            -0.02656007744371891,
            0.11337076127529144,
            0.08340061455965042,
            0.0963626354932785,
            -0.08235065639019012,
            0.15519379079341888,
            -0.03592044487595558,
            -0.12140852212905884,
            -0.05895252898335457
          ],
          [
            -0.08678692579269409,
            0.012666751630604267,
            0.07382359355688095,
            -0.047362878918647766,
            0.161102756857872,
            0.051758527755737305,
            -0.05501335859298706,
            0.038173608481884,
            -0.009457148611545563,
            -0.031855400651693344,
            -0.10607428103685379,
            0.10136678814888,
            0.06169351935386658,
            0.0368441604077816,
            0.07270144671201706,
            0.1436919867992401,
            0.1490524262189865,
            -0.15990838408470154,
            0.04008905962109566,
            -0.015084510669112206,
            0.05751173198223114,
            -0.07247599214315414,
            0.02142532542347908,
            -0.14013904333114624,
            0.053600944578647614,
            0.11880870908498764,
            -0.01457839272916317,
            -0.10086313635110855,
            -0.11629635095596313,
            -0.04960688203573227,
            0.007406942546367645,
            0.017345087602734566,
            -0.03730365261435509,
            0.12243711203336716,
            0.006518632173538208,
            0.07123661041259766,
            -0.08011957257986069,
            0.19846519827842712,
            0.06830032169818878,
            -0.02695287950336933,
            0.08996610343456268,
            0.07785090804100037,
            0.05298125371336937,
            -0.053613707423210144
          ],
          [
            0.03027152270078659,
            0.009967220947146416,
            -0.11317994445562363,
            0.019858641549944878,
            0.057086918503046036,
            -0.09977956861257553,
            0.015651417896151543,
            -0.059347085654735565,
            -0.12187645584344864,
            -0.12480255961418152,
            -0.12070047110319138,
            0.06549297273159027,
            0.04750639200210571,
            0.11360803991556168,
            0.1293729543685913,
            0.04909278452396393,
            0.08476927131414413,
            -0.05659278482198715,
            0.12245027720928192,
            -0.07220815122127533,
            -0.012326090596616268,
            -0.09291472285985947,
            -0.09309318661689758,
            -0.08623982220888138,
            -0.05291473865509033,
            0.1049209013581276,
            -0.037618864327669144,
            -0.11665073782205582,
            -0.03300550580024719,
            0.13062895834445953,
            0.059455711394548416,
            -0.006151549983769655,
            -0.08629802614450455,
            0.17132487893104553,
            -0.14818371832370758,
            0.10698477923870087,
            0.04093177244067192,
            0.11077578365802765,
            -0.09749452024698257,
            -0.07971005141735077,
            -0.04824592545628548,
            0.18549537658691406,
            0.011564577929675579,
            -0.13934996724128723
          ],
          [
            0.07910484820604324,
            0.028394998982548714,
            0.010012466460466385,
            -0.09639780223369598,
            -0.13356204330921173,
            0.15854795277118683,
            -0.12782412767410278,
            -0.03667346388101578,
            -0.024891968816518784,
            0.09287448972463608,
            -0.10563283413648605,
            -0.06628742814064026,
            -0.07332946360111237,
            -0.06633356958627701,
            0.08494094759225845,
            0.0940740555524826,
            0.07349350303411484,
            0.15825717151165009,
            -0.10172213613986969,
            -0.01368302945047617,
            -0.12278453260660172,
            -0.021489281207323074,
            -0.14039082825183868,
            -0.14939002692699432,
            0.08928319066762924,
            -0.06324663013219833,
            -0.013016880489885807,
            -0.0474478080868721,
            -0.12158232927322388,
            -0.007842440158128738,
            0.031591687351465225,
            0.09559442847967148,
            -0.08863901346921921,
            0.12147621810436249,
            -0.05762874707579613,
            0.11029946058988571,
            0.1316765397787094,
            0.02756350114941597,
            -0.02191341668367386,
            0.10102363675832748,
            -0.0252231378108263,
            -0.06563574075698853,
            -0.06439279764890671,
            -0.12634243071079254
          ],
          [
            -0.02367371879518032,
            -0.12054713070392609,
            0.08581247180700302,
            -0.138097882270813,
            -0.10194892436265945,
            0.02940431609749794,
            0.08401970565319061,
            0.13144582509994507,
            -0.11605606228113174,
            0.12097061425447464,
            0.11050566285848618,
            -0.1077161580324173,
            0.044917911291122437,
            -0.05613435432314873,
            0.0194355808198452,
            -0.13824380934238434,
            -0.056828588247299194,
            -0.09843482077121735,
            -0.06497389078140259,
            -0.020313719287514687,
            -0.01194371934980154,
            -0.08517324179410934,
            0.07743870466947556,
            0.09089356660842896,
            -0.13481569290161133,
            -0.14632748067378998,
            -0.004735409282147884,
            0.05850527063012123,
            -0.12695637345314026,
            -0.02031865529716015,
            0.004403087310492992,
            -0.12111438065767288,
            0.14819364249706268,
            0.13401497900485992,
            0.1294887214899063,
            -0.04437592625617981,
            -0.10774365812540054,
            0.0066932188346982,
            0.10740168392658234,
            0.057909805327653885,
            -0.0982491746544838,
            0.13565176725387573,
            -0.05509258434176445,
            -0.009097395464777946
          ],
          [
            0.021588874980807304,
            0.09671446681022644,
            -0.0977158322930336,
            -0.08512869477272034,
            -0.01793139986693859,
            0.14091572165489197,
            0.013573934324085712,
            0.09604308009147644,
            0.1288125216960907,
            0.031962908804416656,
            -0.1031244695186615,
            -0.03756541386246681,
            0.10547049343585968,
            -0.014197607524693012,
            -0.12833653390407562,
            0.11943016946315765,
            -0.0710018202662468,
            -0.08915553987026215,
            0.06286991387605667,
            0.02899945341050625,
            0.07073227316141129,
            -0.04000581055879593,
            0.10441076755523682,
            -0.08399172127246857,
            -0.12309855222702026,
            0.16076424717903137,
            0.11787337064743042,
            0.09047693014144897,
            -0.042874645441770554,
            -0.12301842123270035,
            -0.01494353637099266,
            0.06691081076860428,
            0.04314436763525009,
            0.0033359520602971315,
            -0.03840584680438042,
            0.08780283480882645,
            0.07151643186807632,
            0.16259990632534027,
            -0.046106114983558655,
            -0.1119995191693306,
            -0.06633103638887405,
            -0.10368872433900833,
            0.1239088773727417,
            -0.0365905836224556
          ],
          [
            -0.030588114634156227,
            -0.05361926928162575,
            -0.0034591718576848507,
            0.10141564905643463,
            -0.0007174978964030743,
            0.06959003955125809,
            0.06321336328983307,
            -0.14323733747005463,
            0.05859937146306038,
            0.17042140662670135,
            -0.07321923971176147,
            0.017109056934714317,
            0.009913003072142601,
            0.09687726199626923,
            0.04628234729170799,
            -0.11287763714790344,
            -0.12133433669805527,
            0.17043806612491608,
            -0.047895025461912155,
            -0.14460372924804688,
            -0.14276182651519775,
            -0.13880814611911774,
            0.016864482313394547,
            0.016455452889204025,
            -0.10224482417106628,
            -0.040430810302495956,
            0.0324304923415184,
            0.0812825933098793,
            0.04782729968428612,
            -0.07647204399108887,
            0.1297825127840042,
            0.1275240033864975,
            -0.10846145451068878,
            0.1350807249546051,
            -0.13118328154087067,
            -0.10170476138591766,
            0.02976338006556034,
            0.038249991834163666,
            0.13849127292633057,
            -0.0010470858542248607,
            0.10362888127565384,
            -0.06258586049079895,
            -0.11484527587890625,
            -0.008617592975497246
          ],
          [
            0.089888796210289,
            -0.07504104822874069,
            -0.13111868500709534,
            -0.08639208227396011,
            0.03422671929001808,
            0.1343977302312851,
            -0.010529509745538235,
            -0.1354985386133194,
            -0.07739293575286865,
            0.09991317242383957,
            -0.05014980956912041,
            -0.026356585323810577,
            0.10309828817844391,
            0.059532515704631805,
            0.07506240159273148,
            0.15689723193645477,
            -0.03766627982258797,
            0.02716965414583683,
            -0.11192944645881653,
            0.15107858180999756,
            -0.11131182312965393,
            0.13579034805297852,
            0.13845139741897583,
            0.03974585235118866,
            -0.1437274068593979,
            -0.013117840513586998,
            -0.059669870883226395,
            0.05339543893933296,
            0.1065468117594719,
            0.10370485484600067,
            0.022476380690932274,
            -0.11358337849378586,
            -0.12760457396507263,
            0.0647406280040741,
            -0.014366471208631992,
            0.08082958310842514,
            0.14651857316493988,
            0.06614124774932861,
            -0.05118517205119133,
            -0.034491486847400665,
            0.09885615855455399,
            0.01323808915913105,
            0.09532921016216278,
            -0.17107081413269043
          ],
          [
            -0.01682399958372116,
            -0.05510538071393967,
            0.12074179202318192,
            0.054383475333452225,
            -0.01768340729176998,
            -0.15156956017017365,
            -0.015480749309062958,
            0.1246364489197731,
            0.012070227414369583,
            -0.009330864064395428,
            -0.14984124898910522,
            0.1161530539393425,
            0.13622575998306274,
            -0.13950738310813904,
            -0.11264032125473022,
            0.0022905219811946154,
            -0.098404161632061,
            -0.12515495717525482,
            0.03535144403576851,
            -0.022591521963477135,
            0.03647593781352043,
            0.04804439842700958,
            0.12027580291032791,
            0.09724525362253189,
            -0.13215775787830353,
            -0.13152308762073517,
            0.11047213524580002,
            -0.1182321161031723,
            0.11006318777799606,
            -0.11226962506771088,
            0.1157555878162384,
            0.09819211065769196,
            -0.09515998512506485,
            -0.12252581119537354,
            -0.05558973550796509,
            -0.07200545072555542,
            -0.08555778115987778,
            0.1170489639043808,
            0.005202462896704674,
            -0.04104162007570267,
            -0.005590756889432669,
            0.07715713977813721,
            0.03205046430230141,
            0.012309744022786617
          ],
          [
            0.1399533748626709,
            0.10578440874814987,
            0.003871833672747016,
            0.09324759244918823,
            -0.035611119121313095,
            -0.12392223626375198,
            0.08274968713521957,
            0.05511634051799774,
            0.019729068502783775,
            -0.16085459291934967,
            0.12197664380073547,
            0.05495981127023697,
            -0.09732707589864731,
            -0.17063795030117035,
            -0.08857985585927963,
            0.13122157752513885,
            0.0912843868136406,
            -0.10686234384775162,
            0.11752311885356903,
            0.12333794683218002,
            0.08186357468366623,
            -0.006903443019837141,
            0.13957835733890533,
            -0.014544541016221046,
            -0.06353688985109329,
            0.04479703679680824,
            -0.06431099027395248,
            0.12901949882507324,
            -0.04713907465338707,
            0.0648905411362648,
            -0.10492713749408722,
            -0.08032950758934021,
            -0.0040121255442500114,
            0.1607949435710907,
            -0.09709189832210541,
            -0.029693810269236565,
            0.07012353092432022,
            -0.014303609728813171,
            -0.07806715369224548,
            -0.014541912823915482,
            -0.05546785518527031,
            0.052431896328926086,
            0.07239700108766556,
            -0.04921640083193779
          ],
          [
            -0.07622333616018295,
            0.09368990361690521,
            -0.13550299406051636,
            0.07231040298938751,
            0.07083434611558914,
            0.06642051041126251,
            -0.10206689685583115,
            0.055690281093120575,
            -0.11827591806650162,
            0.07240470498800278,
            -0.09116563200950623,
            0.03682076185941696,
            0.01664070412516594,
            -0.09102252870798111,
            -0.13511140644550323,
            -0.00596835371106863,
            0.08541832119226456,
            -0.04378269240260124,
            -0.03034556843340397,
            -0.10300049930810928,
            -0.1216932088136673,
            -0.027687162160873413,
            -0.014993364922702312,
            0.07513368874788284,
            0.16423673927783966,
            -0.11414245516061783,
            -0.03460696339607239,
            0.0669630765914917,
            -0.10791262984275818,
            -0.029938993975520134,
            -0.09127134829759598,
            0.10770990699529648,
            -0.03692375496029854,
            -0.0037989551201462746,
            0.07643581926822662,
            -0.08713561296463013,
            -0.08142352849245071,
            0.11523553729057312,
            0.049809616059064865,
            -0.04132477939128876,
            0.1402442455291748,
            0.1596093475818634,
            -0.034316908568143845,
            -0.03635053336620331
          ],
          [
            0.051052480936050415,
            -0.06487273424863815,
            -0.1781371384859085,
            -0.061440691351890564,
            -0.10310757160186768,
            0.11801446229219437,
            0.017117353156208992,
            -0.14556729793548584,
            -0.0029981404077261686,
            0.11025548726320267,
            -0.07677698135375977,
            -0.04396319389343262,
            0.033209554851055145,
            -0.14076873660087585,
            -0.17181791365146637,
            0.11045081168413162,
            0.001338912989012897,
            0.0998687744140625,
            -0.03904661536216736,
            0.1081107035279274,
            -0.05811234936118126,
            0.12528619170188904,
            -0.0822187140583992,
            -0.02227761596441269,
            0.11445147544145584,
            0.02861829660832882,
            -0.07867389172315598,
            0.02047712728381157,
            0.07256881147623062,
            -0.16008518636226654,
            0.03458431735634804,
            0.07230937480926514,
            -0.16480213403701782,
            0.07537141442298889,
            -0.12449911236763,
            -0.11967376619577408,
            0.003315520705655217,
            -0.1624772697687149,
            -0.052992381155490875,
            0.07245099544525146,
            -0.02737676538527012,
            -0.09152233600616455,
            0.1482730209827423,
            -0.12147164344787598
          ],
          [
            0.05335526168346405,
            -0.1099272146821022,
            -0.06349019706249237,
            -0.009615179151296616,
            0.1330447942018509,
            -0.06510981917381287,
            -0.12929584085941315,
            0.04389488324522972,
            -0.050924841314554214,
            -0.06891581416130066,
            0.024265939369797707,
            0.028886085376143456,
            -0.0630902349948883,
            0.019464071840047836,
            0.04050947725772858,
            0.019413745030760765,
            -0.03551732376217842,
            -0.11184275895357132,
            0.09617052227258682,
            0.14412353932857513,
            0.1022186204791069,
            0.10726110637187958,
            -0.00692498404532671,
            -0.011058536358177662,
            -0.03325653821229935,
            -0.010772941634058952,
            0.031835589557886124,
            -0.012087380513548851,
            -0.10380575060844421,
            -0.10891043394804001,
            0.03799905627965927,
            0.1582517772912979,
            0.16817103326320648,
            0.10837452858686447,
            0.07762332260608673,
            0.039542194455862045,
            0.10161691159009933,
            -0.009920002892613411,
            -0.027558639645576477,
            0.04891562461853027,
            0.015339604578912258,
            0.017765594646334648,
            -0.051653843373060226,
            -0.09246160835027695
          ],
          [
            -0.08483130484819412,
            0.031051015481352806,
            0.14051610231399536,
            -0.06565676629543304,
            -0.12536385655403137,
            -0.13740864396095276,
            0.0668133795261383,
            0.07049328088760376,
            -0.0817689448595047,
            -0.06872450560331345,
            0.11277566850185394,
            -0.11634838581085205,
            0.10383836925029755,
            0.005463839508593082,
            -0.06200826168060303,
            0.1356041133403778,
            -0.12304197251796722,
            0.13285963237285614,
            0.14903458952903748,
            0.040444787591695786,
            0.07299579679965973,
            0.011290865950286388,
            0.10364434868097305,
            0.04297742247581482,
            -0.16311298310756683,
            -0.07973708212375641,
            0.01324402540922165,
            0.11350242793560028,
            -0.026935681700706482,
            0.058169424533843994,
            0.07244481146335602,
            0.02982492186129093,
            -0.12822414934635162,
            0.15330035984516144,
            -0.07232102006673813,
            0.013557135127484798,
            -0.05864711105823517,
            0.047125719487667084,
            0.09852928668260574,
            0.03018501214683056,
            -0.06681491434574127,
            0.029783328995108604,
            -0.11976326256990433,
            0.12969636917114258
          ],
          [
            0.11071885377168655,
            0.10368694365024567,
            0.05449429899454117,
            -0.13114380836486816,
            -0.10348491370677948,
            -0.12145926803350449,
            0.11304248124361038,
            0.1577199548482895,
            0.0913013219833374,
            -0.03231498599052429,
            -0.10722645372152328,
            -0.12222660332918167,
            0.1511964499950409,
            -0.12456922978162766,
            -0.14588436484336853,
            0.08985591679811478,
            0.01676044799387455,
            -0.07475642114877701,
            -0.10129591822624207,
            -0.15975452959537506,
            0.031528256833553314,
            -0.09377807378768921,
            -0.01444865483790636,
            0.07154084742069244,
            -0.1262194663286209,
            0.14956460893154144,
            -0.0547710582613945,
            0.08932532370090485,
            -0.038346223533153534,
            0.08342359960079193,
            -0.11668936163187027,
            -0.03925890475511551,
            -0.04763671010732651,
            0.08371391147375107,
            -0.16191750764846802,
            0.11772525310516357,
            0.00013961699733044952,
            -0.09041160345077515,
            -0.08853986114263535,
            -0.00865853764116764,
            -0.030735468491911888,
            -0.07318934798240662,
            -0.051803089678287506,
            3.885140176862478e-05
          ],
          [
            0.07216675579547882,
            0.028148256242275238,
            0.10511225461959839,
            -0.0024807823356240988,
            0.12632212042808533,
            0.06580144166946411,
            -0.1073448434472084,
            0.07269574701786041,
            0.0669965073466301,
            0.10848011076450348,
            -0.11445052921772003,
            -0.00199832278303802,
            -0.11986897885799408,
            -0.021155130118131638,
            -0.05175512656569481,
            -0.10533996671438217,
            -0.10492713004350662,
            0.140804722905159,
            0.07090003043413162,
            0.05654852092266083,
            0.01155134104192257,
            0.03416196256875992,
            -0.018839875236153603,
            -0.145280659198761,
            -0.0406760573387146,
            0.09021132439374924,
            -0.04368966817855835,
            0.015298651531338692,
            0.08417270332574844,
            0.08649258315563202,
            -0.015035300515592098,
            0.08761060982942581,
            -0.057898130267858505,
            -0.02520054765045643,
            0.1309097707271576,
            -0.05480719730257988,
            0.14934031665325165,
            -0.0611153207719326,
            -0.05174944922327995,
            0.11321987211704254,
            0.12963445484638214,
            -0.11165059357881546,
            0.0492698960006237,
            -0.015795482322573662
          ],
          [
            -0.10729555785655975,
            -0.052357885986566544,
            0.0003195690514985472,
            -0.16437366604804993,
            -0.0040288446471095085,
            0.03697391599416733,
            0.10697190463542938,
            0.0945737436413765,
            -0.05970679968595505,
            0.06363452225923538,
            0.02398456633090973,
            0.01639985293149948,
            -0.1270945519208908,
            0.04397602751851082,
            0.1399008333683014,
            -0.14092081785202026,
            0.0025003235787153244,
            0.09843309968709946,
            0.0033402335830032825,
            0.10416087508201599,
            -0.0245392844080925,
            -0.0716455951333046,
            -0.12161292135715485,
            -0.07817234843969345,
            -0.011446245014667511,
            0.08438298106193542,
            0.021333228796720505,
            0.01738276146352291,
            0.11935899406671524,
            0.0486581027507782,
            -0.055350031703710556,
            -0.0459081307053566,
            0.06580116599798203,
            -0.05476363003253937,
            0.0474192351102829,
            0.07542892545461655,
            0.0063247173093259335,
            -0.09510491788387299,
            -0.05520946532487869,
            -0.15632443130016327,
            0.053264155983924866,
            -0.13429559767246246,
            -0.08904694765806198,
            0.15333408117294312
          ],
          [
            0.013177494518458843,
            0.08288590610027313,
            -0.07164663821458817,
            -0.03648313879966736,
            -0.07077520340681076,
            0.06290940940380096,
            -0.10610751807689667,
            -0.06857528537511826,
            0.029760558158159256,
            0.011107828468084335,
            -0.08568315953016281,
            0.01459500566124916,
            -0.0069800205528736115,
            -0.16877225041389465,
            0.15774264931678772,
            -0.12512491643428802,
            0.027589047327637672,
            0.07432226091623306,
            -0.003032759530469775,
            -0.04753268510103226,
            0.09643274545669556,
            0.11761028319597244,
            -0.03264407813549042,
            -0.04645869508385658,
            -0.08325061947107315,
            0.115312859416008,
            -0.10508888214826584,
            0.0666949674487114,
            0.04213160276412964,
            0.10651876777410507,
            0.0004484530072659254,
            0.08613760769367218,
            -0.09787935763597488,
            -0.06372446566820145,
            -0.010276624001562595,
            -0.15126396715641022,
            -0.1354636400938034,
            0.11602869629859924,
            0.05445389449596405,
            -0.05232952535152435,
            -0.17445892095565796,
            0.14045408368110657,
            0.18591442704200745,
            0.15757013857364655
          ],
          [
            -0.04173491522669792,
            -0.12280363589525223,
            0.08757219463586807,
            0.10244279354810715,
            0.12349244952201843,
            0.05383247137069702,
            0.09775568544864655,
            -0.08933867514133453,
            -0.10967115312814713,
            0.014705886133015156,
            0.14856265485286713,
            -0.07665842026472092,
            0.0854620561003685,
            -0.06310306489467621,
            -0.10428902506828308,
            -0.0265008807182312,
            0.15820859372615814,
            0.10623955726623535,
            0.12960883975028992,
            0.13799886405467987,
            0.010414662770926952,
            0.07030471414327621,
            0.03140212222933769,
            -0.05082622170448303,
            0.07219991087913513,
            -0.028477881103754044,
            -0.07142812013626099,
            0.0840572714805603,
            0.15106646716594696,
            0.10155142098665237,
            0.014279746450483799,
            -0.1034996435046196,
            0.12025415152311325,
            0.049853041768074036,
            0.11811701208353043,
            -0.023632097989320755,
            0.0895596295595169,
            0.02263193018734455,
            0.09631675481796265,
            0.05249743163585663,
            -0.05167879909276962,
            0.04222460091114044,
            0.1176728755235672,
            -0.1327412873506546
          ],
          [
            0.14367729425430298,
            0.137418732047081,
            0.10234719514846802,
            0.022599853575229645,
            -0.02289775386452675,
            -0.036402180790901184,
            -0.04581558704376221,
            -0.08224884420633316,
            0.055739305913448334,
            0.05728289857506752,
            -0.0450267419219017,
            0.1549597978591919,
            0.04563736915588379,
            0.13118213415145874,
            0.1279732882976532,
            -0.026765547692775726,
            -0.11468102782964706,
            -0.099533811211586,
            0.14572212100028992,
            -0.10813494771718979,
            0.02280806563794613,
            0.08925018459558487,
            -0.061581045389175415,
            0.11373180896043777,
            -0.07864813506603241,
            0.005926092620939016,
            0.058850884437561035,
            -0.10877951234579086,
            -0.06930054724216461,
            -0.0786343589425087,
            -0.011424100957810879,
            0.15319280326366425,
            0.09592793881893158,
            0.08027281612157822,
            -0.054836515337228775,
            -0.023651938885450363,
            0.014129620045423508,
            0.1662745475769043,
            -0.14258193969726562,
            -0.05662697181105614,
            -0.13663612306118011,
            0.08992570638656616,
            -0.0023090471513569355,
            -0.06249082088470459
          ],
          [
            -0.14714562892913818,
            -0.04766685143113136,
            -0.13930189609527588,
            0.05122190713882446,
            -0.12055682390928268,
            -0.07194335013628006,
            0.14847682416439056,
            -0.14929789304733276,
            -0.12259191274642944,
            -0.1216897964477539,
            -0.09998855739831924,
            0.11315199732780457,
            -0.061432696878910065,
            -0.11986628919839859,
            0.09045793116092682,
            0.13238391280174255,
            0.07456543296575546,
            0.028938762843608856,
            0.015286089852452278,
            0.05056986212730408,
            0.14072315394878387,
            0.07657456398010254,
            -0.11527939885854721,
            -0.11203509569168091,
            -0.0867014080286026,
            -0.07175362855195999,
            0.14337848126888275,
            -0.14358118176460266,
            -0.03506553918123245,
            0.1087685227394104,
            0.06982698291540146,
            -0.08131466805934906,
            -0.017191728577017784,
            -0.11979003250598907,
            -0.10279761254787445,
            -0.12027382105588913,
            -0.11014436185359955,
            0.13696439564228058,
            -0.021412761881947517,
            -0.10053608566522598,
            -0.06891345232725143,
            -0.11032526195049286,
            -0.07131610065698624,
            0.04481297731399536
          ],
          [
            -0.12657590210437775,
            0.014057918451726437,
            0.02479752153158188,
            0.12479106336832047,
            -0.05769021436572075,
            -0.03221525624394417,
            0.1295100301504135,
            -0.047828562557697296,
            -0.13291192054748535,
            -0.04663920775055885,
            0.04539797455072403,
            -0.03143338859081268,
            0.05077690631151199,
            -0.11873672902584076,
            0.07577800005674362,
            -0.05235351249575615,
            -0.03459527716040611,
            0.010908727534115314,
            0.11692217737436295,
            0.11390070617198944,
            0.12183379381895065,
            -0.008766795508563519,
            0.11906185001134872,
            0.02071322314441204,
            0.07765872776508331,
            -0.0764976292848587,
            -0.07662971317768097,
            -0.083164744079113,
            0.00942261517047882,
            -0.07652740925550461,
            0.12281548231840134,
            -0.08449508994817734,
            0.07071251422166824,
            -0.07463998347520828,
            0.07985728234052658,
            0.012205660343170166,
            -0.089978888630867,
            -0.0333792082965374,
            -0.16507774591445923,
            -0.036884598433971405,
            -0.06878247112035751,
            -0.1360899657011032,
            0.1520516276359558,
            0.11802499741315842
          ],
          [
            0.03061932511627674,
            0.09082089364528656,
            -0.11196516454219818,
            -0.06493520736694336,
            -0.07660824060440063,
            -0.08058587461709976,
            -0.045278050005435944,
            0.08952059596776962,
            -0.09637579321861267,
            0.03728102147579193,
            0.09300334006547928,
            -0.05897295102477074,
            0.06248294562101364,
            -0.047738365828990936,
            0.05255505442619324,
            0.13121233880519867,
            0.034586478024721146,
            -0.07715942710638046,
            -0.08496497571468353,
            0.11075104027986526,
            -0.04676694795489311,
            0.12976790964603424,
            -0.13167119026184082,
            -0.08925748616456985,
            0.13503716886043549,
            0.011709248647093773,
            -0.08404769003391266,
            0.008411314338445663,
            0.001653948682360351,
            -0.11616182327270508,
            0.041159290820360184,
            0.05485224723815918,
            -0.012477759271860123,
            -0.12820705771446228,
            -0.027826998382806778,
            0.0746532529592514,
            -0.050419893115758896,
            0.12571759521961212,
            -0.029819803312420845,
            -0.018985452130436897,
            0.0906093642115593,
            0.008955840952694416,
            0.06184585019946098,
            -0.12803326547145844
          ],
          [
            0.11269867420196533,
            -0.007877829484641552,
            0.002933590905740857,
            0.10527145117521286,
            0.056958869099617004,
            -0.04140004888176918,
            0.08177462220191956,
            0.0013392324326559901,
            0.08558329194784164,
            -0.05626552179455757,
            0.03640533983707428,
            -0.03897397220134735,
            0.09459880739450455,
            0.09499769657850266,
            0.013546287082135677,
            0.13740506768226624,
            0.04570872336626053,
            -0.13002680242061615,
            -0.09808842837810516,
            -0.010953191667795181,
            -0.1187078133225441,
            0.018995577469468117,
            0.1201818510890007,
            -0.09866078197956085,
            -0.0693616271018982,
            -0.13023093342781067,
            0.031103257089853287,
            0.012089073657989502,
            0.08778250217437744,
            -0.10434633493423462,
            -0.115559421479702,
            0.11110434681177139,
            0.13684166967868805,
            -0.12724193930625916,
            -0.039771031588315964,
            -0.012776903808116913,
            -0.09700735658407211,
            -0.16005700826644897,
            0.11818210035562515,
            0.09323643893003464,
            0.07802070677280426,
            -0.14434123039245605,
            -0.03580807149410248,
            0.07842633873224258
          ],
          [
            0.06423089653253555,
            -0.03738946467638016,
            0.001371870399452746,
            0.08285990357398987,
            0.12363564223051071,
            0.13779114186763763,
            0.12360170483589172,
            0.11570821702480316,
            -0.08703789860010147,
            0.15977731347084045,
            -0.011112237349152565,
            -0.08595722913742065,
            0.1435835212469101,
            -0.02088858187198639,
            0.012655507773160934,
            0.029809728264808655,
            -0.12677380442619324,
            -0.11970733106136322,
            0.1478949785232544,
            0.1496458351612091,
            -0.025930296629667282,
            -0.07075869292020798,
            0.1469709277153015,
            0.041871655732393265,
            0.06413896381855011,
            -0.12340882420539856,
            0.0383874885737896,
            0.01709442213177681,
            0.16717547178268433,
            0.11678194999694824,
            0.08976484835147858,
            0.03603942319750786,
            0.07995656877756119,
            0.048329245299100876,
            0.17500032484531403,
            0.07320517301559448,
            -0.0036449378821998835,
            0.03396670147776604,
            -0.06592810899019241,
            0.12886376678943634,
            -0.05988981947302818,
            0.11456038802862167,
            0.1036798357963562,
            -0.14393439888954163
          ],
          [
            -0.14718669652938843,
            -0.0025254252832382917,
            0.07013341784477234,
            0.14173448085784912,
            -0.12335766851902008,
            -0.04619302600622177,
            0.030200602486729622,
            -0.058041974902153015,
            -0.1343190222978592,
            0.03393224999308586,
            0.0703483298420906,
            -0.019320182502269745,
            0.07655535638332367,
            0.005608698353171349,
            0.11937183886766434,
            0.036074649542570114,
            0.03511980175971985,
            -0.019084589555859566,
            -0.06994098424911499,
            0.0702623501420021,
            0.11469242721796036,
            0.02502831444144249,
            -0.10967592895030975,
            0.1009678915143013,
            0.1288774013519287,
            -0.011907633394002914,
            -0.09216117858886719,
            -0.024788862094283104,
            0.11146191507577896,
            0.06702051311731339,
            -0.011060765944421291,
            0.009249327704310417,
            -0.009262340143322945,
            -0.13332560658454895,
            0.12337788194417953,
            0.005635215900838375,
            -0.12487991154193878,
            0.012073355726897717,
            0.09185522794723511,
            -0.15041053295135498,
            0.012218980118632317,
            -0.14224906265735626,
            0.04260679706931114,
            0.02913513593375683
          ],
          [
            0.06188908591866493,
            -0.025641370564699173,
            0.13963934779167175,
            -0.1469394713640213,
            -0.050856754183769226,
            -0.10924135148525238,
            -0.1220906674861908,
            0.11614316701889038,
            0.10615648329257965,
            0.12692855298519135,
            0.09128659963607788,
            -0.0632849857211113,
            -0.017866158857941628,
            -0.12146084755659103,
            0.1335824877023697,
            -0.04683452844619751,
            -0.023343170061707497,
            0.08604101836681366,
            0.004725493025034666,
            -0.09312502294778824,
            0.005384422838687897,
            0.0934421494603157,
            0.06868629902601242,
            -0.1422094702720642,
            0.1276567131280899,
            0.07720914483070374,
            -0.14696282148361206,
            -0.03315432742238045,
            -0.09763637185096741,
            0.024942129850387573,
            -0.11952362209558487,
            -0.0528666228055954,
            0.10432702302932739,
            -0.036070991307497025,
            0.04474936053156853,
            -0.07592243701219559,
            0.10533188283443451,
            0.11206917464733124,
            0.015585377812385559,
            0.0157847311347723,
            0.14296194911003113,
            -0.16690276563167572,
            0.05277691408991814,
            -0.11506714671850204
          ],
          [
            -0.04508044943213463,
            -0.13484010100364685,
            0.034300148487091064,
            0.11388763785362244,
            -0.024004654958844185,
            0.0830693319439888,
            -0.03144644573330879,
            -0.12301645427942276,
            -0.12685443460941315,
            -0.012420654296875,
            0.10851045697927475,
            0.1366148740053177,
            -0.05542286857962608,
            0.022061383351683617,
            0.1305374801158905,
            -0.11830278486013412,
            -0.15423458814620972,
            -0.13520574569702148,
            0.09846929460763931,
            -0.12229780852794647,
            -0.11352839320898056,
            0.04095560312271118,
            0.07107352465391159,
            0.07721271365880966,
            -0.11552204191684723,
            0.12422864884138107,
            0.09479110687971115,
            -0.04901488497853279,
            -0.09314137697219849,
            -0.0891796126961708,
            -0.07692620158195496,
            -0.13183921575546265,
            0.0582963190972805,
            0.08460614830255508,
            0.05268867313861847,
            0.069640152156353,
            -0.08682079613208771,
            0.10917245596647263,
            0.12823761999607086,
            0.11217597126960754,
            0.10865519940853119,
            -0.07555876672267914,
            0.038478195667266846,
            -0.07605062425136566
          ],
          [
            -0.03485273942351341,
            0.1579417884349823,
            -0.018780646845698357,
            0.041655033826828,
            0.024213744327425957,
            0.019167939200997353,
            -0.06781347841024399,
            0.10092205554246902,
            0.11219645291566849,
            -0.07952667027711868,
            -0.13728077709674835,
            -0.011895401403307915,
            -0.06914936751127243,
            0.09513730555772781,
            -0.07080021500587463,
            0.13563208281993866,
            0.04670273885130882,
            -0.07881032675504684,
            -0.08867018669843674,
            0.01783119887113571,
            -0.14638370275497437,
            -0.014181172475218773,
            -0.13085122406482697,
            -0.11650223284959793,
            -0.11541720479726791,
            0.05642107129096985,
            -0.11685368418693542,
            0.15687523782253265,
            -0.17063838243484497,
            -0.16467097401618958,
            0.05476812645792961,
            0.0025861377362161875,
            0.11446939408779144,
            -0.030086316168308258,
            0.06772875040769577,
            0.1387328803539276,
            -0.10389253497123718,
            -0.132610023021698,
            0.1601652204990387,
            0.12309841811656952,
            0.015093465335667133,
            0.0728064551949501,
            -0.11467122286558151,
            0.10495024174451828
          ],
          [
            -0.056988250464200974,
            0.08818688243627548,
            -0.0563238188624382,
            -0.09180603921413422,
            -0.02817131206393242,
            -0.03563414514064789,
            -0.018389752134680748,
            0.007955782115459442,
            -0.13369198143482208,
            -0.07852506637573242,
            -0.06385502219200134,
            0.036791130900382996,
            -0.11803223937749863,
            0.1110917329788208,
            -0.07950378954410553,
            0.13937096297740936,
            0.03878524526953697,
            0.04603803530335426,
            -0.054091230034828186,
            0.06531604379415512,
            -0.07315953075885773,
            0.014152869582176208,
            0.0843600258231163,
            -0.0034195149783045053,
            -0.03055974841117859,
            -0.016540754586458206,
            -0.0948905423283577,
            -0.09574192017316818,
            -0.016033144667744637,
            0.01897365413606167,
            0.1368076354265213,
            -0.014282886870205402,
            -0.04141741618514061,
            0.06488154828548431,
            0.0697038397192955,
            0.010958805680274963,
            0.06578140705823898,
            0.15374496579170227,
            -0.06015826389193535,
            -0.06614142656326294,
            -0.017050597816705704,
            0.15375380218029022,
            0.07334639877080917,
            -0.14861232042312622
          ],
          [
            0.12353477627038956,
            0.12542566657066345,
            0.13031458854675293,
            0.03521070256829262,
            -0.12316221743822098,
            0.023766394704580307,
            0.004004424437880516,
            -0.07909758388996124,
            -0.09730751067399979,
            -0.013587151654064655,
            0.11879513412714005,
            0.04297984391450882,
            0.007513924967497587,
            0.060330137610435486,
            -0.12048860639333725,
            0.0739196389913559,
            0.04976748675107956,
            -0.11970916390419006,
            -0.15613219141960144,
            -0.12261606007814407,
            0.059956055134534836,
            0.05722975358366966,
            0.0206285547465086,
            -0.034149449318647385,
            0.07128710299730301,
            -0.10828831046819687,
            0.08195456117391586,
            -0.062320854514837265,
            -0.06281544268131256,
            -0.1166120246052742,
            0.03776011988520622,
            -0.05512579530477524,
            0.08836036920547485,
            0.0852864608168602,
            -0.026442769914865494,
            0.0673682913184166,
            0.08779323101043701,
            0.07420220971107483,
            -0.10097094625234604,
            -0.03960094600915909,
            -0.04779182747006416,
            0.12256261706352234,
            -0.046676572412252426,
            0.057659514248371124
          ],
          [
            0.05502570420503616,
            0.11350345611572266,
            0.1473822295665741,
            -0.010722563602030277,
            -0.12274837493896484,
            -0.1334301233291626,
            -0.022268282249569893,
            0.10461845248937607,
            -0.03014146164059639,
            -0.13870380818843842,
            -0.10384394228458405,
            -0.09257093816995621,
            -0.04118722677230835,
            -0.008146125823259354,
            -0.02854239009320736,
            -0.053627267479896545,
            -0.03736558556556702,
            -0.11431678384542465,
            0.01354492362588644,
            0.08570393919944763,
            -0.03694001957774162,
            -0.015752166509628296,
            0.030369393527507782,
            0.12612208724021912,
            0.10425226390361786,
            -0.08119100332260132,
            -0.1740988790988922,
            0.03956529125571251,
            0.07211222499608994,
            -0.0024936036206781864,
            0.13798700273036957,
            0.07560554146766663,
            0.022653525695204735,
            0.08785798400640488,
            0.1081976592540741,
            -0.09717457741498947,
            -0.11214981228113174,
            -0.006038608495146036,
            -0.08972188830375671,
            -0.09404931217432022,
            -0.12617146968841553,
            0.09386637061834335,
            -0.04864233359694481,
            -0.09366927295923233
          ],
          [
            0.10299261659383774,
            0.005158439744263887,
            0.032777879387140274,
            -0.041541893035173416,
            0.018347326666116714,
            0.09102559834718704,
            -0.11523881554603577,
            -0.038668517023324966,
            0.007542389445006847,
            0.12104417383670807,
            0.1384325623512268,
            0.12187079340219498,
            -0.04583370313048363,
            -0.013000833801925182,
            -0.012893211096525192,
            -0.10581611841917038,
            -0.11822205781936646,
            -0.017185179516673088,
            0.005123665556311607,
            0.07482412457466125,
            -0.13072322309017181,
            -0.07060421258211136,
            0.11809321492910385,
            0.02355727180838585,
            -0.11189288645982742,
            0.0787162259221077,
            -0.05616069212555885,
            -0.08420709520578384,
            -0.05626663565635681,
            -0.06600748002529144,
            -0.07559625059366226,
            0.010618188418447971,
            0.06836305558681488,
            0.06797288358211517,
            0.16953979432582855,
            0.12447268515825272,
            -0.07975245267152786,
            0.13756303489208221,
            -0.022539671510457993,
            0.10131285339593887,
            -0.04455127939581871,
            0.09891422837972641,
            -0.04971528425812721,
            0.01016458310186863
          ],
          [
            0.19789820909500122,
            0.0009755780338309705,
            0.10711528360843658,
            0.08166245371103287,
            -0.05407629534602165,
            0.013821674510836601,
            0.16582880914211273,
            0.05526339262723923,
            0.09128662943840027,
            0.06826748698949814,
            0.08719141036272049,
            -0.09591734409332275,
            -0.01011800765991211,
            0.07032044231891632,
            0.04048888012766838,
            0.10294865816831589,
            0.0799059197306633,
            0.04261254891753197,
            0.0357092022895813,
            -0.0749010294675827,
            0.012910325080156326,
            -0.0223590936511755,
            0.10675112903118134,
            0.028476852923631668,
            -0.14596311748027802,
            0.09340270608663559,
            -0.047137029469013214,
            0.05041198804974556,
            -0.056909337639808655,
            -0.17089594900608063,
            0.051472701132297516,
            0.0668007880449295,
            0.15053102374076843,
            0.08116433769464493,
            0.06138176470994949,
            0.07098260521888733,
            0.04022849351167679,
            -0.015520778484642506,
            0.019374024122953415,
            -0.10674041509628296,
            -0.10387600213289261,
            0.1597846895456314,
            0.08233470469713211,
            0.05976373702287674
          ],
          [
            -0.008404955267906189,
            -0.15670359134674072,
            -0.06126264110207558,
            -0.04190923273563385,
            -0.04396101459860802,
            0.026377564296126366,
            -0.10847225785255432,
            -0.11112915724515915,
            -0.0242112185806036,
            -0.12517991662025452,
            -0.013538132421672344,
            0.009090553037822247,
            -0.04439246654510498,
            -0.0710827186703682,
            -0.04789215326309204,
            0.12240266054868698,
            0.12769930064678192,
            0.000543896690942347,
            -0.1301754266023636,
            -0.1145240068435669,
            0.08346488326787949,
            0.032328296452760696,
            -0.0021215202286839485,
            -0.037941738963127136,
            -0.11819238215684891,
            -0.0934549942612648,
            0.11863401532173157,
            0.150536447763443,
            0.08633267134428024,
            -0.09394562989473343,
            -0.01873105950653553,
            -0.12325833737850189,
            -0.098743736743927,
            -0.09415602684020996,
            0.04195302352309227,
            -0.11680686473846436,
            0.10967370122671127,
            0.11779938638210297,
            0.024121059104800224,
            0.03473838418722153,
            0.05583958327770233,
            0.14521221816539764,
            -0.014857914298772812,
            0.13603447377681732
          ],
          [
            0.05701857805252075,
            -0.048832692205905914,
            0.11129766702651978,
            0.04256797954440117,
            0.05187622457742691,
            0.0073582082986831665,
            -0.08450363576412201,
            0.1097741425037384,
            0.023616451770067215,
            -0.02925715781748295,
            0.04759088158607483,
            -0.05669896677136421,
            0.05387094244360924,
            -0.14938674867153168,
            0.07835517823696136,
            0.08705709874629974,
            -0.10844273865222931,
            0.07040559500455856,
            0.03839891031384468,
            -0.02834518440067768,
            0.1323709636926651,
            0.009480180218815804,
            -0.11116104573011398,
            -0.14381322264671326,
            0.00469292001798749,
            -0.07535860687494278,
            -0.1470320224761963,
            -0.12333403527736664,
            0.13196133077144623,
            -0.04927419126033783,
            -0.07232142239809036,
            -0.0891546905040741,
            -0.0009025989565998316,
            -0.035291172564029694,
            -0.1000262051820755,
            -0.08125873655080795,
            -0.10435864329338074,
            0.03993750736117363,
            -0.02060135267674923,
            0.14217723906040192,
            0.07540663331747055,
            0.011415105313062668,
            0.0932937040925026,
            -0.010266019962728024
          ],
          [
            -0.05255978927016258,
            0.1394268423318863,
            -0.07542301714420319,
            -0.09863307327032089,
            0.1383894383907318,
            0.12823250889778137,
            0.10466005653142929,
            -0.021455224603414536,
            0.13079047203063965,
            0.07693924009799957,
            0.00019844943017233163,
            0.021325474604964256,
            0.07875201106071472,
            -0.07594013959169388,
            -0.05930882692337036,
            0.14289477467536926,
            0.02758432738482952,
            -0.02593676745891571,
            -0.019834263250231743,
            0.004054687451571226,
            0.10550310462713242,
            0.12504707276821136,
            -0.11905770003795624,
            -0.09949658811092377,
            -0.11383936554193497,
            -0.032621338963508606,
            0.030326390638947487,
            -0.08408576995134354,
            0.08080795407295227,
            -0.19860117137432098,
            0.09485103189945221,
            0.016468506306409836,
            0.035504065454006195,
            0.1117406114935875,
            0.02239508554339409,
            -0.0801340788602829,
            -0.04211880639195442,
            0.15074364840984344,
            -0.04245801270008087,
            -0.02466173656284809,
            -0.14279408752918243,
            -0.07047764956951141,
            0.031690388917922974,
            0.0812283605337143
          ],
          [
            -0.08053220063447952,
            -0.006074833683669567,
            0.14582711458206177,
            0.1681532859802246,
            0.005107961129397154,
            0.14414885640144348,
            0.16301229596138,
            0.07282344996929169,
            0.11002226918935776,
            0.04647289961576462,
            -0.0458582304418087,
            0.10829615592956543,
            0.045271068811416626,
            0.026737030595541,
            -0.02407812885940075,
            0.019750341773033142,
            -0.10074704140424728,
            -0.07189232110977173,
            -0.12023472040891647,
            -0.03026743046939373,
            0.04671374708414078,
            -0.07176157087087631,
            0.03391234949231148,
            -0.06070154532790184,
            -0.08322711288928986,
            0.04466930031776428,
            0.06191118806600571,
            0.13123661279678345,
            -0.0361776202917099,
            0.11068689823150635,
            -0.1588716357946396,
            0.0013720733113586903,
            0.028522340580821037,
            0.1551303118467331,
            0.07735946029424667,
            -0.05772945284843445,
            0.07432477921247482,
            0.012005342170596123,
            -0.11532106250524521,
            -0.10264620184898376,
            -0.09826797246932983,
            0.13866879045963287,
            0.13991715013980865,
            -0.1031857281923294
          ],
          [
            0.10120382159948349,
            0.14817969501018524,
            -0.017957886680960655,
            0.11299079656600952,
            0.11588051915168762,
            0.10297343134880066,
            -0.03278205171227455,
            0.15107524394989014,
            0.027308255434036255,
            0.07996834814548492,
            -0.1427450031042099,
            0.030355751514434814,
            0.12407027184963226,
            -0.08873575180768967,
            -0.0998353511095047,
            -0.04165896400809288,
            0.08832931518554688,
            -0.0714438334107399,
            -0.032425690442323685,
            -0.15989620983600616,
            -0.0550096370279789,
            -0.03687387704849243,
            -0.13802117109298706,
            0.06075871363282204,
            0.014024804346263409,
