{
  "class_weight_positive": 8.0,
  "dataset_path": "/projects/p57098/euijin1/Caver/metadata/stage0/value_proxy/stage0_seed_context_success_dataset.jsonl",
  "feature_spec": {
    "base_feature_dim": 38,
    "family_ids": [
      "block_to_tray_proxy",
      "container_insertion_proxy",
      "drawer_open_proxy",
      "relocate_to_region_proxy",
      "two_object_stack_proxy"
    ],
    "feature_dim": 44,
    "include_base_progress_interaction": false,
    "include_base_progress_sq_interaction": false,
    "include_family_one_hot": true,
    "include_family_progress_interaction": false,
    "include_family_progress_sq_interaction": false,
    "include_policy_query_index": true,
    "include_policy_query_index_sq": false,
    "policy_query_index_scale": 79.0
  },
  "label_key": "context_success_label",
  "model_format": "stage0_value_proxy_mlp3head_v2",
  "model_id": "stage0_context_success_progress_sq_mlp3head_v2",
  "network": {
    "bootstrap_keep_probability": 0.8,
    "head_count": 3,
    "head_layers": [
      [
        {
          "activation": "identity",
          "bias": [
            0.00912541151046753
          ],
          "weight": [
            [
              -0.0011423146352171898,
              -0.017007414251565933,
              -0.068461574614048,
              0.01527303084731102,
              0.08277963846921921,
              0.0003885556652676314,
              0.000885138229932636,
              -0.00011377504415577278,
              -0.03296034410595894,
              -0.01923554390668869,
              -0.049163978546857834,
              -0.005862934049218893,
              -0.03890440613031387,
              -0.0400608666241169,
              -0.06141259893774986,
              0.0406900979578495,
              -0.04667114466428757,
              0.02639041095972061,
              0.012493168003857136,
              -0.04977870360016823,
              0.04799940809607506,
              -0.05049164593219757,
              0.06911749392747879,
              -0.042620088905096054,
              -0.07617998123168945,
              0.047017112374305725,
              0.027955926954746246,
              -0.0651990994811058,
              -0.008215936832129955,
              -0.030195148661732674,
              0.043631117790937424,
              -0.02960173971951008,
              -0.002881696680560708,
              0.012260008603334427,
              0.018954133614897728,
              -0.06393666565418243,
              0.041361209005117416,
              0.007853593677282333,
              -0.02597796730697155,
              -0.014949087053537369,
              -0.03593636304140091,
              0.013067532330751419,
              0.0067186118103563786,
              0.009866615757346153,
              0.005275815725326538,
              -0.005838494747877121,
              -0.03460390120744705,
              0.026122670620679855,
              0.033050164580345154,
              -0.0227767676115036,
              -0.008932349272072315,
              -0.04031579941511154,
              -0.11282750964164734,
              0.043842509388923645,
              -0.031850673258304596,
              -0.005194127559661865,
              0.02495197020471096,
              0.10845400393009186,
              0.011663319543004036,
              -0.01809624768793583,
              0.004053219687193632,
              0.0017612853553146124,
              0.023514464497566223,
              -0.02324884571135044,
              0.03844349831342697,
              0.013063784688711166,
              -0.0461142435669899,
              0.05884388089179993,
              0.00697328383103013,
              0.021772947162389755,
              0.03165598213672638,
              -0.09366172552108765,
              0.05528118461370468,
              0.010259261354804039,
              0.025538381189107895,
              -0.005937987472862005,
              0.06572545319795609,
              0.061028432101011276,
              0.0335201770067215,
              0.012998275458812714,
              -0.00566745875403285,
              0.050231318920850754,
              0.07333638519048691,
              0.02967929095029831,
              0.014268490485846996,
              0.02223861776292324,
              0.003538898890838027,
              0.014045923948287964,
              -0.00852093193680048,
              0.026710014790296555,
              0.030511772260069847,
              0.01874488592147827,
              -0.08782616257667542,
              -0.06430651992559433,
              -0.024446511641144753,
              -0.007287745364010334,
              -0.0003953675914090127,
              0.013816876336932182,
              -0.005100674461573362,
              0.020664295181632042,
              0.027782967314124107,
              0.006922669243067503,
              -0.03462753817439079,
              0.0665234848856926,
              0.027226459234952927,
              -0.03633958846330643,
              0.032314419746398926,
              -0.0032870713621377945,
              -0.03647195175290108,
              0.004338706377893686,
              -0.006379257421940565,
              0.011165604926645756,
              0.039713069796562195,
              -0.09716270864009857,
              0.05317056179046631,
              0.02829429879784584,
              0.041608814150094986,
              0.0370585061609745,
              -0.008388773538172245,
              -0.019200555980205536,
              -0.0038142914418131113,
              0.059987738728523254,
              0.01876741275191307,
              -0.03752405568957329,
              0.01660710573196411,
              -0.03894738852977753,
              -0.027814293280243874,
              0.033753879368305206,
              0.06890444457530975,
              -0.0340256430208683,
              -0.028878144919872284,
              -0.09307195246219635,
              -0.008046946488320827,
              -0.042555440217256546,
              -0.030606094747781754,
              -0.0857343003153801,
              -0.044156987220048904,
              0.03373250737786293,
              0.0788387805223465,
              -0.03430334851145744,
              -0.05100703239440918,
              -0.02354738861322403,
              -0.061877112835645676,
              -0.023075226694345474,
              0.0004583202244248241,
              0.043764155358076096,
              -0.061830516904592514,
              0.036231596022844315,
              -0.03184756636619568,
              0.06791877001523972,
              -0.0057017141953110695,
              0.007134219165891409,
              0.03852628171443939,
              0.0003823777078650892,
              -0.05711810663342476,
              0.049332648515701294,
              0.006929079536348581,
              -0.09372399747371674,
              -0.017713993787765503,
              0.029512476176023483,
              -0.041600391268730164,
              0.0846298411488533,
              0.057885318994522095,
              0.009270810522139072,
              -0.009222461842000484,
              0.023088019341230392,
              -0.01992364414036274,
              -0.06919022649526596,
              -0.05868076905608177,
              -0.04506835341453552,
              0.05136578902602196,
              0.05120602995157242,
              0.06666121631860733,
              -0.0010661182459443808,
              -0.052160609513521194,
              -0.07806645333766937,
              0.021988313645124435,
              -0.05938856676220894,
              -0.06373924762010574,
              -0.004897536244243383,
              -0.018046464771032333,
              0.004315070807933807,
              -0.015094850212335587,
              -0.011478258296847343,
              -0.04633248969912529,
              -0.0386572927236557,
              0.04109591245651245,
              -0.05356897786259651,
              0.05169473588466644,
              -0.019424738362431526,
              0.02258559688925743,
              0.06302645057439804,
              0.016280941665172577,
              -0.01876142807304859,
              -0.06235349550843239,
              0.06136126443743706,
              0.002077004872262478,
              0.0021581307519227266,
              0.0106666199862957,
              -0.04783846437931061,
              0.0364362969994545,
              0.04614030569791794,
              0.04851635545492172,
              -0.0466732420027256,
              0.02827059105038643,
              -0.011743544600903988,
              -0.0727841779589653,
              -0.0270927045494318,
              0.06001177430152893,
              0.03498250991106033,
              -0.045639242976903915,
              -0.0243807565420866,
              -0.0214871596544981,
              0.0023611397482454777,
              -0.02659166045486927,
              0.019811129197478294,
              -0.030411474406719208,
              0.02452067844569683,
              0.009602506645023823,
              0.050578005611896515,
              -0.017983706668019295,
              0.03866167739033699,
              0.06424598395824432,
              -0.023498645052313805,
              0.04369373619556427,
              -0.04348212480545044,
              0.07193605601787567,
              -0.016425348818302155,
              -0.07727041095495224,
              -0.08024442940950394,
              -0.06474847346544266,
              0.0004358729347586632,
              -0.008641178719699383,
              -0.0048939818516373634,
              -0.06633318960666656,
              0.05113626644015312,
              -0.0001386038347845897,
              0.004807505290955305,
              0.022566884756088257,
              -0.025535786524415016,
              -0.027560561895370483,
              -0.012869619764387608,
              0.005838786251842976,
              -0.03537129610776901,
              0.031255513429641724,
              0.0632919892668724,
              -0.05821390450000763,
              0.02356504276394844,
              -0.0417928472161293,
              -0.03848923742771149,
              0.05777869373559952,
              -0.11880192160606384,
              -0.004649613052606583,
              -0.0014462777180597186,
              0.007834313437342644,
              -0.002543822629377246
            ]
          ]
        }
      ],
      [
        {
          "activation": "identity",
          "bias": [
            0.020264457911252975
          ],
          "weight": [
            [
              0.023961687460541725,
              0.04828368499875069,
              -0.04600903019309044,
              -0.00840645283460617,
              0.09013647586107254,
              0.006267749238759279,
              -0.019718822091817856,
              0.018492724746465683,
              -0.0500851608812809,
              0.02548212558031082,
              -0.025845887139439583,
              0.0021080379374325275,
              -0.04916111379861832,
              -0.014886151999235153,
              0.013614777475595474,
              -0.02487988956272602,
              -0.05567687749862671,
              0.04852259159088135,
              0.008318828418850899,
              0.00026085868012160063,
              0.026561250910162926,
              -0.07960490882396698,
              0.06970733404159546,
              -0.06074120104312897,
              -0.008362075313925743,
              0.03329329565167427,
              0.004630428273230791,
              0.016264133155345917,
              -0.04849015176296234,
              -0.004612854681909084,
              -0.020011575892567635,
              -0.019660988822579384,
              0.02024923823773861,
              0.018304945901036263,
              0.021192990243434906,
              -0.028524082154035568,
              0.014115015976130962,
              0.03751319646835327,
              -0.05780024453997612,
              0.02139936573803425,
              -0.019120531156659126,
              -0.029564565047621727,
              0.023703111335635185,
              -0.01595963165163994,
              -0.022993359714746475,
              -0.032348908483982086,
              -0.040802251547575,
              -0.004953019320964813,
              0.04687586799263954,
              -0.02598934806883335,
              -0.004070570692420006,
              0.004257712047547102,
              -0.1342543065547943,
              0.030693350359797478,
              0.001095498912036419,
              -0.021533150225877762,
              0.07675229758024216,
              0.08988978713750839,
              0.07800953090190887,
              -0.033801041543483734,
              -0.012926844879984856,
              0.010030962526798248,
              0.05357040464878082,
              -0.021347494795918465,
              0.06256989389657974,
              -0.003779847174882889,
              -0.01716451905667782,
              0.050438251346349716,
              -0.0282155591994524,
              0.051232896745204926,
              0.06997116655111313,
              -0.098055399954319,
              0.03477291762828827,
              0.03598741441965103,
              0.0561462938785553,
              0.009804357774555683,
              0.09210062026977539,
              0.04102376475930214,
              0.009753002785146236,
              0.016045143827795982,
              -0.04941945523023605,
              0.014783475548028946,
              -0.0026832404546439648,
              0.017358219251036644,
              0.018180787563323975,
              0.046571724116802216,
              0.018118660897016525,
              -0.02410590462386608,
              0.007276284974068403,
              -0.029230255633592606,
              -0.01899743638932705,
              -0.02699877880513668,
              -0.03794873505830765,
              -0.04960889741778374,
              -0.039171427488327026,
              -0.05076863244175911,
              -0.027673734351992607,
              0.021116524934768677,
              0.0037349783815443516,
              -0.034855037927627563,
              0.024433206766843796,
              0.024728164076805115,
              -0.04037374258041382,
              0.0707651823759079,
              0.0008036912186071277,
              0.03449023887515068,
              0.03372205048799515,
              -0.06171295419335365,
              -0.06413884460926056,
              -0.016538944095373154,
              -0.007253369316458702,
              -0.04206536337733269,
              0.01755400002002716,
              -0.05990622192621231,
              -0.0005713007994927466,
              0.03223119676113129,
              -0.033512916415929794,
              -0.04602392017841339,
              0.030684441328048706,
              -0.06841913610696793,
              -0.002769602695479989,
              0.032633788883686066,
              0.060555215924978256,
              -0.03822452947497368,
              0.006012533791363239,
              -0.030063917860388756,
              -0.008751829154789448,
              0.016208019107580185,
              0.041739966720342636,
              -0.07186932116746902,
              -0.028487488627433777,
              -0.012037712149322033,
              0.009895707480609417,
              0.020122632384300232,
              0.052910223603248596,
              -0.10064433515071869,
              -0.05262301117181778,
              -0.04094800353050232,
              0.07313897460699081,
              0.030077191069722176,
              -0.048890117555856705,
              0.035991769284009933,
              -0.005142995622009039,
              0.0246994961053133,
              0.032749567180871964,
              -0.04291697219014168,
              -0.05666749179363251,
              0.046854641288518906,
              -0.010280258022248745,
              0.05885551497340202,
              0.015660373494029045,
              -0.004807733930647373,
              0.030322065576910973,
              0.0030486704781651497,
              -0.07008138298988342,
              0.02059430442750454,
              -0.011141682043671608,
              -0.0042442637495696545,
              0.04344818741083145,
              -0.016924649477005005,
              -0.06537067145109177,
              0.023696772754192352,
              0.032639943063259125,
              0.007754700258374214,
              0.05992531776428223,
              -0.04753764718770981,
              -0.024554593488574028,
              -0.0825335755944252,
              -0.10572981089353561,
              -0.06125563383102417,
              0.024603374302387238,
              -0.019966166466474533,
              0.03485623374581337,
              0.0015317172510549426,
              -0.029437676072120667,
              -0.06617148220539093,
              -0.0321330688893795,
              -0.0561014786362648,
              -0.03362254053354263,
              -0.028999846428632736,
              0.02073715440928936,
              0.04785628244280815,
              -0.001759759266860783,
              0.05378265678882599,
              -0.056531064212322235,
              -0.00850678887218237,
              0.0725991353392601,
              -0.05066145583987236,
              0.02661014534533024,
              0.036938637495040894,
              0.012443790212273598,
              0.0625133067369461,
              -0.011501848697662354,
              -0.04427923634648323,
              -0.07153267413377762,
              -0.0015587307279929519,
              -0.0013895492302253842,
              0.01629522629082203,
              0.04714599996805191,
              -0.06512816250324249,
              -0.028809290379285812,
              0.0005787759437225759,
              0.015457941219210625,
              -0.0006554464343935251,
              0.010089126415550709,
              -0.05170665308833122,
              -0.032273370772600174,
              0.03619109094142914,
              0.03562773019075394,
              0.05998345464468002,
              -0.05029262974858284,
              0.019482335075736046,
              -0.047394316643476486,
              0.032259974628686905,
              -0.019595319405198097,
              0.05177519470453262,
              -0.008219226263463497,
              -0.008169635199010372,
              0.0023422318045049906,
              0.036125436425209045,
              -0.002545845229178667,
              0.05825472250580788,
              0.02535107731819153,
              0.05486515164375305,
              0.053894054144620895,
              -0.0008750137640163302,
              0.08446020632982254,
              -0.007603545673191547,
              -0.046617113053798676,
              -0.10631866008043289,
              -0.03613945469260216,
              0.030981631949543953,
              -0.02817695029079914,
              -0.05948692932724953,
              -0.04209152236580849,
              0.032387346029281616,
              -0.010399337857961655,
              0.01666298322379589,
              -0.011649340391159058,
              -0.07513517141342163,
              -0.07824762165546417,
              -0.01425157580524683,
              -0.02099923975765705,
              -0.025097813457250595,
              0.06124786660075188,
              0.06423766165971756,
              0.020709335803985596,
              -0.06970512866973877,
              -0.07105586677789688,
              -0.076058030128479,
              0.034076135605573654,
              -0.1152813658118248,
              0.0038973293267190456,
              0.028729969635605812,
              -0.020671885460615158,
              -0.004493132699280977
            ]
          ]
        }
      ],
      [
        {
          "activation": "identity",
          "bias": [
            0.049359891563653946
          ],
          "weight": [
            [
              -0.005307429004460573,
              -0.006666283588856459,
              -0.004563597030937672,
              -0.017459386959671974,
              0.1010274738073349,
              -0.013256817124783993,
              -0.02580203115940094,
              0.0003840522258542478,
              -0.00023309575044550002,
              0.004293522331863642,
              -0.046265892684459686,
              0.010895070619881153,
              -0.05914889648556709,
              0.009705191478133202,
              -0.028846843168139458,
              0.012730683200061321,
              0.019825099036097527,
              0.05161096528172493,
              -0.015416176989674568,
              -0.060424353927373886,
              -0.02912161871790886,
              -0.059257566928863525,
              0.041452668607234955,
              -0.018376145511865616,
              -0.017471157014369965,
              0.05515643581748009,
              -0.0028867977671325207,
              -0.0034772197250276804,
              -0.00746354041621089,
              -0.007620377466082573,
              -0.025938991457223892,
              0.0248069129884243,
              0.056757885962724686,
              -0.001798907178454101,
              -0.014387911185622215,
              -0.06740752607584,
              -0.029790842905640602,
              0.034399714320898056,
              -0.04356272891163826,
              0.049932584166526794,
              -0.021291006356477737,
              0.0053498088382184505,
              0.007761133834719658,
              -0.041016533970832825,
              0.05073504149913788,
              0.029696935787796974,
              -0.08849681913852692,
              0.030873743817210197,
              0.06337571144104004,
              -0.03417983278632164,
              0.002694277558475733,
              0.01953613944351673,
              -0.11774832010269165,
              0.06121817231178284,
              0.04531187564134598,
              0.016474785283207893,
              0.02161041647195816,
              0.08051155507564545,
              0.0887209102511406,
              0.03658748045563698,
              0.04737948253750801,
              -0.038568295538425446,
              0.0322255939245224,
              -0.053684383630752563,
              0.023390186950564384,
              -0.004378234967589378,
              -0.024473579600453377,
              0.027071408927440643,
              0.0015059751458466053,
              0.05070484057068825,
              0.04167903587222099,
              -0.08850826323032379,
              -0.02213686890900135,
              -0.03741088882088661,
              0.10453048348426819,
              -0.02350286766886711,
              0.10408200323581696,
              0.019733702763915062,
              -0.0457889549434185,
              0.00197363318875432,
              -0.020449576899409294,
              -0.0007862584898248315,
              0.0821671187877655,
              0.02880888804793358,
              0.04891921207308769,
              0.002830678829923272,
              0.017290255054831505,
              -0.004824273753911257,
              0.014382297173142433,
              0.015156758017838001,
              0.03464082255959511,
              -0.05208379030227661,
              -0.10189827531576157,
              -0.0013052221620455384,
              -0.01342014130204916,
              0.013250507414340973,
              0.029876112937927246,
              0.053270984441041946,
              0.01316962018609047,
              0.0013275134842842817,
              0.006947207730263472,
              -0.02773231826722622,
              -0.006394839379936457,
              0.05150395631790161,
              -0.03217777609825134,
              0.017638305202126503,
              0.02844928577542305,
              -0.08006343990564346,
              -0.003963058348745108,
              -0.02329675853252411,
              0.014972234144806862,
              0.0138115668669343,
              -0.0014322504866868258,
              -0.06601203978061676,
              -0.00909444410353899,
              0.034664738923311234,
              -0.015743587166070938,
              0.005369074642658234,
              -0.020039526745676994,
              -0.04602819308638573,
              -0.03415558114647865,
              0.0752415582537651,
              -0.009300906211137772,
              0.04350532218813896,
              -0.008768334053456783,
              -0.061407264322042465,
              0.0325116366147995,
              -0.0383588932454586,
              0.052867669612169266,
              -0.09330818802118301,
              -0.019823038950562477,
              -0.08015002310276031,
              0.054060034453868866,
              -0.04711202532052994,
              -0.011385777033865452,
              -0.09182259440422058,
              -0.013521882705390453,
              0.0146101089194417,
              -0.020387077704072,
              -0.02384692244231701,
              -0.009547759778797626,
              0.014185993000864983,
              0.007095014676451683,
              -0.005979563109576702,
              0.03975936025381088,
              -0.02171744592487812,
              -0.058068156242370605,
              0.0535319559276104,
              -0.024202071130275726,
              0.03634372353553772,
              -0.034282345324754715,
              0.012878875248134136,
              -0.011452198028564453,
              0.012195684015750885,
              -0.0684698075056076,
              0.030790170654654503,
              -0.03268696740269661,
              -0.09470516443252563,
              0.008531003259122372,
              -0.0014455384807661176,
              0.0036724242381751537,
              0.06288477033376694,
              -0.0336652435362339,
              -0.01842706836760044,
              0.08176891505718231,
              -0.025898883119225502,
              0.027937129139900208,
              -0.07401758432388306,
              -0.06222575902938843,
              -0.0839867815375328,
              0.05184726044535637,
              0.05471561849117279,
              0.06561492383480072,
              -0.01030453760176897,
              0.029070444405078888,
              -0.050919752568006516,
              -0.029535919427871704,
              -0.03377941623330116,
              0.005808118265122175,
              0.007010410074144602,
              0.025605618953704834,
              0.031855009496212006,
              0.023013995960354805,
              0.04506929963827133,
              -0.06152574345469475,
              -0.03918018937110901,
              0.05397036299109459,
              -0.018718579784035683,
              0.06230982020497322,
              -0.04718558117747307,
              -0.030650965869426727,
              0.05772606283426285,
              0.023317838087677956,
              0.006659206934273243,
              -0.04882960394024849,
              0.04746861010789871,
              -0.0020015325862914324,
              0.022227315232157707,
              0.053488973528146744,
              -0.025296200066804886,
              0.003977000713348389,
              0.034586332738399506,
              0.03512200340628624,
              0.012581566348671913,
              0.021869726479053497,
              -0.006392642855644226,
              -0.02656545117497444,
              0.0016007432714104652,
              0.023856904357671738,
              0.010531350038945675,
              -0.04578623175621033,
              -0.014746662229299545,
              -0.0638611912727356,
              0.005575660616159439,
              -0.001205459819175303,
              0.021501347422599792,
              0.02918252907693386,
              0.03856968507170677,
              -0.026499496772885323,
              -0.019363461062312126,
              0.006765372585505247,
              -0.002586500719189644,
              0.0009219635394401848,
              -0.0002546753967180848,
              0.0198505986481905,
              0.004254724830389023,
              0.06487391144037247,
              0.027108438313007355,
              -0.031724099069833755,
              -0.1018398329615593,
              -0.06278380751609802,
              0.01486165076494217,
              0.00017163465963676572,
              -0.04353427514433861,
              -0.028483664616942406,
              -0.030450187623500824,
              0.010316167026758194,
              -0.01418460626155138,
              -0.020644403994083405,
              -0.03582723066210747,
              -0.022009732201695442,
              0.01838877610862255,
              0.023708602413535118,
              -0.03655972704291344,
              0.034926511347293854,
              0.01386322919279337,
              -0.053116604685783386,
              -0.06465272605419159,
              -0.0833323523402214,
              -0.06612581014633179,
              0.007393327075988054,
              -0.10387285053730011,
              0.010751357302069664,
              -0.06819631904363632,
              0.030297953635454178,
              0.06408167630434036
            ]
          ]
        }
      ]
    ],
    "hidden_dim": 256,
    "trunk_layers": [
      {
        "activation": "gelu",
        "bias": [
          -0.1618342250585556,
          -0.014620829373598099,
          -0.15480729937553406,
          -0.07344304770231247,
          0.11071109026670456,
          0.2181117981672287,
          0.0724242553114891,
          0.1294625848531723,
          -0.13163486123085022,
          0.11936522275209427,
          -0.0458739772439003,
          0.046443577855825424,
          0.0963713750243187,
          -0.07845877856016159,
          -0.031989000737667084,
          -0.06477515399456024,
          0.09620718657970428,
          -0.033817108720541,
          -0.010912040248513222,
          -0.01272210106253624,
          0.07609555125236511,
          -0.08966418355703354,
          0.098021000623703,
          0.02926098369061947,
          0.06189790740609169,
          0.022110844030976295,
          0.06276321411132812,
          -0.1894712746143341,
          -0.04423778876662254,
          -0.022300560027360916,
          -0.06472904235124588,
          -0.09287140518426895,
          0.07159518450498581,
          0.11049865186214447,
          0.03198068216443062,
          -0.11269373446702957,
          -0.06447367370128632,
          -0.13985835015773773,
          0.12179511785507202,
          -0.007317258045077324,
          0.08267275243997574,
          -0.05697644501924515,
          -0.11144787073135376,
          -0.09579289704561234,
          -0.03161408379673958,
          0.09982042014598846,
          -0.014419256709516048,
          -0.01637600176036358,
          0.04425995051860809,
          -0.001269819913432002,
          -0.13024136424064636,
          -0.03446514531970024,
          0.008982080966234207,
          -0.10593628138303757,
          -0.12730787694454193,
          -0.021168861538171768,
          -0.06725876033306122,
          -0.012537075206637383,
          0.042686693370342255,
          -0.009448431432247162,
          -0.07360561192035675,
          0.1070513129234314,
          0.006250875070691109,
          -0.16451415419578552,
          -0.09163448214530945,
          0.08518552780151367,
          -0.002764262491837144,
          -0.05058703571557999,
          0.017784785479307175,
          0.1341806799173355,
          -0.10029564052820206,
          -0.1265789270401001,
          0.14729724824428558,
          0.04230299964547157,
          0.12253005802631378,
          0.0754345953464508,
          0.125253826379776,
          -0.031702831387519836,
          -0.06199344992637634,
          -0.10603465139865875,
          -0.09289474785327911,
          0.11074623465538025,
          -0.19176726043224335,
          0.048285000026226044,
          -0.06067913398146629,
          -0.09586331248283386,
          0.003216777928173542,
          0.0396270714700222,
          -0.023586077615618706,
          0.06746142357587814,
          0.03592844679951668,
          -0.15261037647724152,
          -0.1037040501832962,
          0.04230561479926109,
          0.026577668264508247,
          -0.02621474117040634,
          -0.10952252894639969,
          -0.1117749884724617,
          -0.020822303369641304,
          -0.06741746515035629,
          -0.1141517385840416,
          0.053342338651418686,
          0.14359964430332184,
          -0.163041889667511,
          -0.0745096281170845,
          0.02989359200000763,
          0.10328511893749237,
          0.10907316952943802,
          -0.07835154235363007,
          0.12365157157182693,
          -0.11196441948413849,
          -0.09472493827342987,
          -0.07054868340492249,
          0.15086275339126587,
          0.013689829967916012,
          -0.09494099020957947,
          0.12249498069286346,
          -0.017439071089029312,
          0.07589400559663773,
          0.13507893681526184,
          -0.08028773963451385,
          0.11319684982299805,
          0.039280857890844345,
          -0.08520675450563431,
          -0.08482593297958374,
          -0.09019159525632858,
          0.011597946286201477,
          -0.012000046670436859,
          0.0204569511115551,
          -0.05527203902602196,
          -0.13159304857254028,
          0.06321760267019272,
          0.11359212547540665,
          -0.12240761518478394,
          -0.07432139664888382,
          -0.008832192048430443,
          0.057799696922302246,
          -0.016953611746430397,
          -0.20126914978027344,
          0.02799990214407444,
          0.16985063254833221,
          -0.11562580615282059,
          -0.07955169677734375,
          -0.03124462626874447,
          -0.01441862527281046,
          -0.11359861493110657,
          -0.0667395070195198,
          0.037752192467451096,
          0.0420229397714138,
          0.09156837314367294,
          -0.12160728871822357,
          0.1253242939710617,
          -0.012789095751941204,
          -0.05658642575144768,
          -0.030921481549739838,
          -0.1352568119764328,
          0.07526402175426483,
          -0.0669323280453682,
          -0.09785649925470352,
          -0.14824213087558746,
          0.07130210846662521,
          -0.17639468610286713,
          -0.03988164663314819,
          -0.030636245384812355,
          -0.14342322945594788,
          -0.10638093948364258,
          -0.026874763891100883,
          0.11136318743228912,
          -0.0847226083278656,
          -0.10829980671405792,
          -0.06341518461704254,
          0.1134503036737442,
          0.06682314723730087,
          -0.0355927012860775,
          0.03180868551135063,
          -0.021785639226436615,
          0.0008853708277456462,
          0.10617362707853317,
          0.007018576841801405,
          0.019284939393401146,
          0.04617031663656235,
          -0.008328982628881931,
          0.08525403589010239,
          -0.07818886637687683,
          0.10427260398864746,
          0.04974687471985817,
          -0.013105183839797974,
          -0.07075820863246918,
          -0.08153565227985382,
          0.11995361745357513,
          0.014562202617526054,
          0.00036487053148448467,
          -0.02824486419558525,
          0.03511033579707146,
          0.1052182987332344,
          0.002839198336005211,
          -0.11196084320545197,
          -0.03416408598423004,
          0.0018313059117645025,
          0.10575448721647263,
          0.13239139318466187,
          -0.1363375037908554,
          0.12088625133037567,
          -0.011390887200832367,
          -0.13728158175945282,
          -0.0868782103061676,
          -0.07692669332027435,
          -0.13833484053611755,
          -0.003042793134227395,
          -0.05813800171017647,
          0.0732843205332756,
          -0.16092203557491302,
          0.050691843032836914,
          -0.06522930413484573,
          -0.14376845955848694,
          0.09458505362272263,
          -0.047386977821588516,
          0.11455611139535904,
          0.04628720507025719,
          -0.13804534077644348,
          0.09355670213699341,
          -0.09719711542129517,
          -0.06849094480276108,
          0.11565592885017395,
          0.09050703048706055,
          -0.1164773553609848,
          0.0017695071874186397,
          0.11483162641525269,
          -0.05898499861359596,
          0.13391432166099548,
          0.11605331301689148,
          -0.10481005162000656,
          0.1061190739274025,
          0.11806868016719818,
          0.028741301968693733,
          0.05432067811489105,
          -0.11094155162572861,
          0.039324041455984116,
          0.1130671501159668,
          -0.14989088475704193,
          0.050808630883693695,
          0.11218291521072388,
          0.16298678517341614,
          -0.12599386274814606,
          -0.04144471883773804,
          0.018123919144272804,
          -0.05045078322291374,
          -0.10943663120269775,
          -0.0885050892829895,
          0.12949897348880768,
          -0.10590039193630219,
          0.038302745670080185,
          -0.14955410361289978,
          -0.1091240644454956,
          0.09140439331531525,
          -0.12582045793533325
        ],
        "weight": [
          [
            0.08268935978412628,
            -0.11433803290128708,
            0.028400300070643425,
            0.03938952460885048,
            -0.09592586010694504,
            0.00399803975597024,
            -0.10044883191585541,
            0.03530040383338928,
            -0.020321937277913094,
            0.09438858181238174,
            0.06602891534566879,
            0.1519286036491394,
            -0.06234204024076462,
            -0.11953987926244736,
            0.002387040527537465,
            -0.07156804203987122,
            0.0107273506000638,
            -0.205644890666008,
            0.1638292521238327,
            -0.12850172817707062,
            0.15416039526462555,
            -0.00980882253497839,
            0.0799076110124588,
            0.06964712589979172,
            -0.002075929194688797,
            0.00855353381484747,
            0.02926703914999962,
            0.08870130032300949,
            0.09839338064193726,
            -0.09174910187721252,
            0.1541178971529007,
            0.11316467821598053,
            -0.03208652138710022,
            0.04719489812850952,
            0.06321191042661667,
            0.09510552138090134,
            -0.03354332968592644,
            -0.05180538073182106,
            0.13257503509521484,
            -0.14687015116214752,
            0.04816800355911255,
            -0.08761491626501083,
            -0.07150202989578247,
            0.20859000086784363
          ],
          [
            0.18002066016197205,
            0.034784041345119476,
            -0.014121905900537968,
            -0.09938994795084,
            0.08310920000076294,
            -0.13995589315891266,
            -0.07555610686540604,
            0.11339282989501953,
            0.18222683668136597,
            -0.04336684197187424,
            -0.16552487015724182,
            0.022450275719165802,
            -0.05410818010568619,
            -0.03237268328666687,
            0.04027119651436806,
            0.040838468819856644,
            -0.0813017189502716,
            0.05065738782286644,
            0.06336284428834915,
            -0.11965786665678024,
            -0.09228653460741043,
            0.05877366662025452,
            -0.06859492510557175,
            -0.05814749747514725,
            0.15090540051460266,
            0.07244697213172913,
            0.026812274008989334,
            -0.0827975645661354,
            0.10320504754781723,
            -0.12281223386526108,
            -0.006445200182497501,
            0.1798229217529297,
            0.0012442984152585268,
            -0.010432825423777103,
            0.05619587004184723,
            -0.052943792194128036,
            0.12897458672523499,
            -0.11687088757753372,
            -0.26413097977638245,
            -0.047230515629053116,
            -0.031212307512760162,
            -0.06199061498045921,
            0.1414366364479065,
            0.04706130549311638
          ],
          [
            0.06742290407419205,
            0.11467868834733963,
            -0.0792478546500206,
            -0.12465300410985947,
            0.05179294943809509,
            -0.010005978867411613,
            -0.10694682598114014,
            -0.0850771963596344,
            -0.08066760748624802,
            0.06690151989459991,
            0.07238016277551651,
            0.11096569895744324,
            -0.1666993796825409,
            -0.11762665212154388,
            -0.11780046671628952,
            -0.010663812980055809,
            -0.0637904554605484,
            -0.039207302033901215,
            0.09887966513633728,
            -0.08866289258003235,
            -0.10459275543689728,
            0.06299352645874023,
            -0.018062476068735123,
            0.10867860913276672,
            0.055681876838207245,
            0.0006355304503813386,
            0.04936126619577408,
            -0.16568775475025177,
            -0.08303147554397583,
            -0.0603116974234581,
            -0.08230268210172653,
            0.03072463534772396,
            0.06490576267242432,
            -0.028076330199837685,
            0.090220607817173,
            -0.08427531272172928,
            0.030433960258960724,
            -0.02720232494175434,
            -0.3323477804660797,
            -0.0490562878549099,
            0.08993412554264069,
            -0.02384156920015812,
            -0.13720504939556122,
            -0.06898339837789536
          ],
          [
            -0.0860263928771019,
            0.05760014429688454,
            0.11781805008649826,
            0.044282443821430206,
            -0.10269045829772949,
            0.11911150068044662,
            0.1575833559036255,
            -0.021694138646125793,
            -0.0555308572947979,
            0.006363055668771267,
            0.00638867961242795,
            0.002129289787262678,
            -0.11831469088792801,
            -0.12307702004909515,
            -0.01941319927573204,
            -0.04623233899474144,
            0.142466202378273,
            0.013351352885365486,
            -0.03390815481543541,
            -0.1718016117811203,
            -0.14034441113471985,
            0.023993417620658875,
            0.1616908758878708,
            0.029207294806838036,
            -0.11736227571964264,
            0.02761022187769413,
            0.12836292386054993,
            -0.11127547919750214,
            -0.03478686884045601,
            0.05659308657050133,
            -0.07431181520223618,
            -0.13916872441768646,
            0.061512891203165054,
            -0.16435609757900238,
            -0.048102330416440964,
            -0.04045483469963074,
            0.11336533725261688,
            0.05259039252996445,
            0.15160511434078217,
            -0.11197276413440704,
            0.12755325436592102,
            -0.02524365298449993,
            -0.14184515178203583,
            0.06014135107398033
          ],
          [
            -0.12299342453479767,
            0.008118047378957272,
            0.06729204207658768,
            -0.056018177419900894,
            0.15459832549095154,
            0.05810735747218132,
            -0.045553769916296005,
            0.05902771279215813,
            -0.0537370890378952,
            -0.03822912648320198,
            -0.1059272512793541,
            0.0740746334195137,
            0.0917847529053688,
            0.06758834421634674,
            0.051281239837408066,
            0.15107496082782745,
            0.16886968910694122,
            -0.15481342375278473,
            0.015126930549740791,
            -0.020356956869363785,
            0.05697721242904663,
            -0.03504906967282295,
            0.03506726026535034,
            -0.11908005177974701,
            0.07185523957014084,
            0.14268244802951813,
            -0.02631097100675106,
            -0.119542196393013,
            -0.139236718416214,
            -0.025643473491072655,
            -0.004740373697131872,
            0.008039730601012707,
            0.006596466526389122,
            0.09977200627326965,
            -0.016742462292313576,
            0.07666686922311783,
            -0.08011686056852341,
            0.14186330139636993,
            0.10212639719247818,
            -0.022147169336676598,
            0.11369340866804123,
            0.04801686480641365,
            0.020465390756726265,
            -0.06353061646223068
          ],
          [
            0.021856816485524178,
            0.030505729839205742,
            -0.14048896729946136,
            0.08150710165500641,
            -0.002737823175266385,
            -0.12075014412403107,
            0.07205895334482193,
            -0.13113947212696075,
            -0.09858836978673935,
            -0.06794518977403641,
            -0.029331428930163383,
            0.02969994954764843,
            0.08867302536964417,
            0.144499272108078,
            0.16439709067344666,
            0.06109141185879707,
            0.16455283761024475,
            -0.015874069184064865,
            0.11440214514732361,
            -0.09342648088932037,
            -0.05901394039392471,
            -0.1456763595342636,
            -0.07809437811374664,
            -0.06070512905716896,
            -0.10139461606740952,
            0.12627354264259338,
            -0.04184950515627861,
            -0.15271221101284027,
            0.03385917469859123,
            0.08288568258285522,
            0.006227224599570036,
            -0.09695085138082504,
            -0.0003640191862359643,
            0.16864924132823944,
            -0.1795269250869751,
            0.15631288290023804,
            0.04093041643500328,
            0.09459298104047775,
            -0.10561371594667435,
            -0.19128099083900452,
            -0.1059633195400238,
            0.3171161413192749,
            0.0687495544552803,
            -0.016000302508473396
          ],
          [
            0.026492586359381676,
            0.024218717589974403,
            -0.0013874858850613236,
            -0.08939404040575027,
            -0.1277921199798584,
            0.12531998753547668,
            -0.1439857929944992,
            -0.029407942667603493,
            -0.03895781189203262,
            0.08107452094554901,
            -0.11291096359491348,
            -0.10083885490894318,
            -0.09104650467634201,
            -0.06113331392407417,
            0.08455147594213486,
            0.09010251611471176,
            0.04109262675046921,
            0.1302919238805771,
            -0.09044484794139862,
            0.004104464314877987,
            -0.1296408623456955,
            0.009769787080585957,
            -0.1407390832901001,
            -0.14398571848869324,
            0.08942166715860367,
            -0.05922035500407219,
            0.009137798100709915,
            -0.04118018597364426,
            -0.16191311180591583,
            0.003607236547395587,
            0.060195308178663254,
            0.10274697095155716,
            -0.08268220722675323,
            0.1484886109828949,
            -0.04597356170415878,
            0.12299598008394241,
            0.13167111575603485,
            -0.014552191831171513,
            0.06734863668680191,
            0.10266446322202682,
            -0.05848997086286545,
            -0.03960595279932022,
            -0.03968648239970207,
            -0.11132372170686722
          ],
          [
            -0.0008036827202886343,
            -0.12156316637992859,
            0.07087133079767227,
            -0.11827106028795242,
            -0.09939765930175781,
            0.03261905536055565,
            0.13406077027320862,
            0.21829453110694885,
            -0.1236012727022171,
            0.1489865481853485,
            0.1302414834499359,
            -0.10205788910388947,
            -0.01528460718691349,
            -0.04723823815584183,
            0.08002524822950363,
            -0.17006166279315948,
            -0.10055939853191376,
            -0.12349493056535721,
            -0.045780230313539505,
            -0.03844605013728142,
            0.016839612275362015,
            -0.15834876894950867,
            0.11244206130504608,
            0.09976339340209961,
            -0.15182752907276154,
            -0.17016242444515228,
            -0.016007065773010254,
            0.026755524799227715,
            -0.15484218299388885,
            -0.021450037136673927,
            0.021639078855514526,
            -0.13698318600654602,
            0.15438522398471832,
            0.17277267575263977,
            0.07565921545028687,
            -0.10630913823843002,
            -0.10773823410272598,
            0.03615967184305191,
            0.2455304116010666,
            0.09957396984100342,
            -0.08538161963224411,
            0.11593988537788391,
            -0.07724262028932571,
            -0.0763033777475357
          ],
          [
            -0.01769072748720646,
            0.11840905249118805,
            -0.11393263936042786,
            -0.10381379723548889,
            -0.051212724298238754,
            0.0941096842288971,
            -0.020274294540286064,
            0.09638068825006485,
            0.11232157796621323,
            0.016588976606726646,
            -0.10058439522981644,
            -0.008806771598756313,
            0.07058693468570709,
            -0.03472981974482536,
            -0.16221767663955688,
            0.0782732293009758,
            -0.060665812343358994,
            -0.07189258933067322,
            0.07852660119533539,
            0.045382410287857056,
            0.08198994398117065,
            -0.036614999175071716,
            0.0900951474905014,
            -0.07231355458498001,
            -0.08226243406534195,
            0.16903837025165558,
            0.1639946848154068,
            0.09035136550664902,
            -0.05469677969813347,
            -0.0919380709528923,
            0.0034564812667667866,
            0.06307339668273926,
            0.04649875685572624,
            0.052501872181892395,
            -0.002213733736425638,
            0.11183604598045349,
            0.07151371985673904,
            0.12867029011249542,
            -0.016035420820116997,
            -0.08837299793958664,
            -0.1436283141374588,
            -0.06919367611408234,
            0.1439579427242279,
            0.010743750259280205
          ],
          [
            -0.013012991286814213,
            -0.05453949421644211,
            -0.01758972927927971,
            0.10811188817024231,
            -0.014797168783843517,
            0.04779945686459541,
            0.06827627122402191,
            -0.10467250645160675,
            0.05491343140602112,
            0.1485884040594101,
            -0.07348824292421341,
            0.005858113523572683,
            -0.011111481115221977,
            0.10394406318664551,
            0.029467297717928886,
            -0.11293594539165497,
            -0.10669698566198349,
            0.14989253878593445,
            -0.06058945506811142,
            -0.11710941046476364,
            -0.1211114451289177,
            -0.1420278698205948,
            0.02369338646531105,
            0.037288375198841095,
            -0.11110442131757736,
            -0.016994774341583252,
            0.027622682973742485,
            0.06726553291082382,
            0.040983639657497406,
            -0.08259554207324982,
            0.14337009191513062,
            0.1390455663204193,
            -0.09203054010868073,
            0.16424234211444855,
            -0.13228154182434082,
            -0.11401030421257019,
            0.0297620240598917,
            0.04251937195658684,
            0.2514994144439697,
            -0.002001845045015216,
            0.1294986754655838,
            -0.10695240646600723,
            -0.14551840722560883,
            0.0012882810551673174
          ],
          [
            0.07739872485399246,
            -0.03533627837896347,
            -0.14273332059383392,
            -0.0790235623717308,
            0.02925804629921913,
            0.14383132755756378,
            -0.03740298002958298,
            -0.12683013081550598,
            -0.09662343561649323,
            0.11441436409950256,
            -0.06966026872396469,
            -0.014392002485692501,
            0.09563182294368744,
            0.06807933002710342,
            0.06759368628263474,
            0.134088933467865,
            -0.010356484912335873,
            0.009207924827933311,
            -0.08693130314350128,
            0.17614561319351196,
            -0.06790430098772049,
            0.1376594454050064,
            0.13878437876701355,
            0.06555452942848206,
            -0.13383206725120544,
            -0.0179449375718832,
            -0.05846491456031799,
            0.08122102916240692,
            0.10984112322330475,
            0.07387998700141907,
            0.0018467963673174381,
            -0.11217087507247925,
            -0.14025263488292694,
            0.03917226195335388,
            -0.026105176657438278,
            0.0824614092707634,
            0.14651314914226532,
            0.041542623192071915,
            -0.0415848046541214,
            -0.037932515144348145,
            0.10503684729337692,
            0.012725300155580044,
            0.10035455971956253,
            -0.17019277811050415
          ],
          [
            -0.020704681053757668,
            -0.08468438684940338,
            0.059071578085422516,
            0.09848600625991821,
            0.05272936820983887,
            -0.14187036454677582,
            -0.03302028030157089,
            0.11576167494058609,
            0.023433132097125053,
            0.007054934743791819,
            -0.14023764431476593,
            0.10728716105222702,
            0.13345983624458313,
            -0.13799752295017242,
            -0.1310572475194931,
            -0.036443743854761124,
            -0.11142831295728683,
            -0.09534748643636703,
            0.006554875057190657,
            -0.04216259345412254,
            0.10073814541101456,
            0.035045165568590164,
            0.13019618391990662,
            0.07547745853662491,
            -0.15928150713443756,
            -0.17277206480503082,
            0.13202917575836182,
            -0.0990106388926506,
            0.07353296875953674,
            -0.08044206351041794,
            0.19113372266292572,
            0.057047709822654724,
            -0.13456664979457855,
            -0.12776590883731842,
            -0.08097131550312042,
            -0.031120704486966133,
            -0.0855550691485405,
            0.1318093240261078,
            0.21150097250938416,
            -0.021753303706645966,
            -0.030721716582775116,
            0.10904432833194733,
            0.04540889337658882,
            -0.04259113967418671
          ],
          [
            0.1453263759613037,
            0.08041993528604507,
            -0.02018963173031807,
            0.10720041394233704,
            -0.011081534437835217,
            -0.13755981624126434,
            0.08375316858291626,
            0.06123889237642288,
            0.02744000218808651,
            -0.15177331864833832,
            0.09799555689096451,
            0.0603179968893528,
            -0.07196888327598572,
            -0.14474113285541534,
            -0.0974116325378418,
            0.15539686381816864,
            0.11800812929868698,
            -0.09540031850337982,
            0.09803414344787598,
            0.13063833117485046,
            0.08004824072122574,
            -0.010066152550280094,
            0.15765126049518585,
            0.01655697077512741,
            -0.06404850631952286,
            0.05790786072611809,
            -0.06265175342559814,
            0.10917854309082031,
            -0.02854006364941597,
            0.06064235046505928,
            -0.11268796771764755,
            -0.0910840854048729,
            -0.03268083557486534,
            0.13964539766311646,
            -0.11048796027898788,
            -0.04305128753185272,
            0.07012081891298294,
            -0.036481548100709915,
            -0.11004433780908585,
            0.010525275021791458,
            -0.06778305768966675,
            0.02486567758023739,
            0.05922355502843857,
            -0.025509200990200043
          ],
          [
            -0.08405562490224838,
            0.10744315385818481,
            -0.14302097260951996,
            0.08080687373876572,
            0.09190186858177185,
            0.07873963564634323,
            -0.10332269221544266,
            0.02752603217959404,
            -0.1317329853773117,
            0.054336875677108765,
            -0.09581223130226135,
            0.02085745520889759,
            0.02345256321132183,
            -0.06102745607495308,
            -0.11341501772403717,
            -0.004894178360700607,
            0.10600759834051132,
            -0.07256241887807846,
            -0.04693252220749855,
            -0.08055698871612549,
            -0.09877345710992813,
            -0.01189301535487175,
            -0.046470243483781815,
            0.07875289022922516,
            0.13870269060134888,
            -0.11262435466051102,
            -0.07865196466445923,
            0.063360795378685,
            -0.1014607697725296,
            -0.02050808072090149,
            -0.07154577225446701,
            0.11949557811021805,
            -0.042606983333826065,
            -0.0028532848227769136,
            0.051363591104745865,
            -0.09570778906345367,
            -0.08142081648111343,
            0.11834625154733658,
            0.15131238102912903,
            -0.04222128912806511,
            0.16543465852737427,
            0.13762378692626953,
            -0.06171600520610809,
            -0.04205236956477165
          ],
          [
            0.02819008193910122,
            -0.10774534940719604,
            -0.1680193990468979,
            -0.1106681302189827,
            -0.14645671844482422,
            0.10255454480648041,
            0.04951337352395058,
            -0.14075973629951477,
            0.03226338326931,
            0.1733953207731247,
            -0.1158461794257164,
            -0.11787663400173187,
            0.0184794794768095,
            -0.14315791428089142,
            -0.14425118267536163,
            0.08090028911828995,
            -0.08834429085254669,
            0.0830354392528534,
            -0.11853902786970139,
            0.05881863459944725,
            -0.03613248094916344,
            0.1334884762763977,
            -0.037878502160310745,
            -0.10149526596069336,
            0.18275190889835358,
            0.06294689327478409,
            -0.09194783121347427,
            0.015343137085437775,
            0.10259178280830383,
            -0.15323679149150848,
            0.06986666470766068,
            0.10880297422409058,
            -0.05607641860842705,
            0.11057210713624954,
            -0.16019350290298462,
            -0.14691781997680664,
            0.003315351204946637,
            -0.20676425099372864,
            -0.018732825294137,
            0.06606588512659073,
            -0.07535868138074875,
            -0.048076480627059937,
            0.21472367644309998,
            -0.11915778368711472
          ],
          [
            0.07171418517827988,
            -0.10556843876838684,
            -0.06766186654567719,
            0.014032358303666115,
            0.19314879179000854,
            -0.06372386962175369,
            -0.17665395140647888,
            0.03317241370677948,
            -0.07310778647661209,
            -0.05848240479826927,
            0.016031254082918167,
            0.04901791363954544,
            -0.08009473979473114,
            0.010065751150250435,
            0.01439245231449604,
            0.04392344877123833,
            -0.0030094506219029427,
            -0.13744749128818512,
            0.05284121632575989,
            0.15258415043354034,
            0.14408427476882935,
            0.1395414173603058,
            -0.02571827359497547,
            0.008852362632751465,
            -0.05765906721353531,
            -0.049437303096055984,
            0.0006417185068130493,
            0.043824706226587296,
            -0.10725876688957214,
            -0.10359404981136322,
            0.012759886682033539,
            0.15576501190662384,
            0.1096736490726471,
            0.13098835945129395,
            0.08766912668943405,
            0.05892758071422577,
            0.10161148756742477,
            0.004959191661328077,
            -0.00028678771923296154,
            0.07864960283041,
            0.036569949239492416,
            -0.05117402225732803,
            -0.10076335072517395,
            -0.09922901540994644
          ],
          [
            -0.06362726539373398,
            0.024575335904955864,
            0.17711009085178375,
            -0.042526211589574814,
            -0.13034586608409882,
            -0.16110959649085999,
            0.0631701648235321,
            0.11612774431705475,
            -0.10671466588973999,
            -0.0802561342716217,
            0.10557042062282562,
            -0.11724533140659332,
            0.09637697786092758,
            0.019224919378757477,
            -0.0792449414730072,
            0.11378990858793259,
            -0.12102321535348892,
            0.1431766301393509,
            0.13216479122638702,
            0.08547737449407578,
            0.1047402173280716,
            -0.007542345207184553,
            0.11945556849241257,
            0.04156948998570442,
            -0.16474391520023346,
            -0.05400170013308525,
            0.03288872539997101,
            0.10072259604930878,
            -0.036346517503261566,
            0.07678299397230148,
            0.038413792848587036,
            0.010275009088218212,
            -0.13119105994701385,
            0.15368513762950897,
            -0.08432792872190475,
            0.002393569564446807,
            -0.05864439904689789,
            0.051192592829465866,
            0.13663530349731445,
            0.07429511100053787,
            -0.07535457611083984,
            -0.042336996644735336,
            -0.16933979094028473,
            0.16140320897102356
          ],
          [
            0.12246907502412796,
            0.12569504976272583,
            0.07716962695121765,
            -0.17597296833992004,
            -0.08108988404273987,
            -0.11146684736013412,
            0.11637163907289505,
            0.11433390527963638,
            0.07346025109291077,
            -0.07651083916425705,
            -0.10106901079416275,
            -0.02061854489147663,
            0.1805397868156433,
            -0.15603387355804443,
            -0.12855520844459534,
            0.04305354505777359,
            0.030309012159705162,
            -0.04411421716213226,
            -0.09716562181711197,
            -0.1560201197862625,
            0.0418056845664978,
            -0.047320716083049774,
            -0.04423846676945686,
            0.0890752524137497,
            -0.09252076596021652,
            0.09175163507461548,
            -0.07227259874343872,
            0.11829012632369995,
            -0.023714395239949226,
            0.11370298266410828,
            -0.12990088760852814,
            -0.024591540917754173,
            -0.10127855092287064,
            0.06736373156309128,
            -0.17294186353683472,
            0.09883636981248856,
            0.0001396117004333064,
            -0.07792399823665619,
            -0.2726239562034607,
            -0.00539829907938838,
            -0.008753830567002296,
            -0.08846072852611542,
            -0.08282656222581863,
            -0.035231687128543854
          ],
          [
            0.06511753052473068,
            0.05716719850897789,
            0.09737177193164825,
            -0.026608223095536232,
            0.16482281684875488,
            0.06197275593876839,
            -0.1313050240278244,
            0.1202872171998024,
            0.05467447638511658,
            0.09485851228237152,
            -0.14737960696220398,
            -0.012215860188007355,
            -0.1335780769586563,
            -0.0033578621223568916,
            -0.013053645379841328,
            -0.0790952518582344,
            -0.09889070689678192,
            0.1268034130334854,
            0.06403671950101852,
            0.06301260739564896,
            0.03293922543525696,
            0.024857720360159874,
            -0.03580693155527115,
            -0.12349599599838257,
            -0.02415851131081581,
            0.06767687201499939,
            -0.05970282480120659,
            0.027407199144363403,
            0.07225143164396286,
            0.06451261043548584,
            -0.023302139714360237,
            0.12378162890672684,
            -0.08334549516439438,
            0.0035259167198091745,
            0.1241515576839447,
            -0.10607586801052094,
            0.1493348926305771,
            -0.06146932765841484,
            -0.05547288432717323,
            0.14573657512664795,
            0.11912109702825546,
            -0.12800003588199615,
            0.0488395094871521,
            -0.04215260222554207
          ],
          [
            -0.13704657554626465,
            -0.06823928654193878,
            -0.009077174589037895,
            -0.18411901593208313,
            -0.02748182602226734,
            0.01308485772460699,
            0.10423900932073593,
            0.0916261300444603,
            -0.07725626230239868,
            0.05076475068926811,
            0.0012744194827973843,
            0.01483219675719738,
            -0.16610929369926453,
            0.06801114231348038,
            0.12307035177946091,
            -0.0921785905957222,
            0.017690002918243408,
            0.067798912525177,
            -0.00729335518553853,
            0.13050682842731476,
            0.00712214782834053,
            -0.05385419726371765,
            -0.08952655643224716,
            -0.0626087561249733,
            0.006857379339635372,
            0.07613007724285126,
            0.029540425166487694,
            0.010917787440121174,
            0.16849637031555176,
            0.035578493028879166,
            -0.06045925244688988,
            0.00242047943174839,
            0.10687007755041122,
            -0.024278471246361732,
            0.027760248631238937,
            0.035419393330812454,
            0.006324378307908773,
            -0.166189044713974,
            -0.37831777334213257,
            -0.1562868356704712,
            0.06282588094472885,
            -0.1652611643075943,
            -0.12224652618169785,
            0.18601135909557343
          ],
          [
            0.008863373659551144,
            0.008796109817922115,
            -0.0583711713552475,
            -0.08571114391088486,
            -0.051735375076532364,
            0.03764583170413971,
            -0.0650322288274765,
            -0.08038820326328278,
            0.010004093870520592,
            0.003592490451410413,
            -0.1341615468263626,
            -0.007489139214158058,
            -0.025681937113404274,
            -0.1523207277059555,
            0.11561492085456848,
            -0.11405914276838303,
            0.049431025981903076,
            0.132692351937294,
            -0.03428144380450249,
            -0.031557075679302216,
            0.15033502876758575,
            0.12360271066427231,
            0.019767211750149727,
            -0.05030723288655281,
            0.0014048591256141663,
            0.13309533894062042,
            -0.08115968853235245,
            0.05854547768831253,
            0.0743456482887268,
            0.1663762778043747,
            -0.019888857379555702,
            0.10533778369426727,
            -0.09653202444314957,
            -0.04545678198337555,
            -0.09525119513273239,
            -0.14264890551567078,
            -0.13545821607112885,
            0.11290717869997025,
            0.141733318567276,
            -0.04468417167663574,
            -0.1485786736011505,
            0.14640094339847565,
            0.1856984943151474,
            0.13188090920448303
          ],
          [
            -0.18679514527320862,
            -0.10561396926641464,
            0.054172661155462265,
            0.10744353383779526,
            0.23525358736515045,
            0.13123300671577454,
            0.0226893350481987,
            -0.1400962918996811,
            -0.1606372743844986,
            0.11153803765773773,
            0.12086048722267151,
            0.013946369290351868,
            0.16938641667366028,
            -0.06894144415855408,
            -0.030029766261577606,
            -0.04472670704126358,
            0.25843510031700134,
            0.02615608647465706,
            0.05152741074562073,
            0.14828990399837494,
            0.12035683542490005,
            -0.033324744552373886,
            0.07688199728727341,
            -0.04792819172143936,
            0.0980735719203949,
            -0.16251184046268463,
            -0.13175520300865173,
            0.14319424331188202,
            0.113650381565094,
            0.1037813127040863,
            -0.055588167160749435,
            -0.08463679999113083,
            0.0477440170943737,
            -0.04890492931008339,
            0.11647479981184006,
            0.08304154872894287,
            0.08955691754817963,
            -0.11680655181407928,
            0.20082733035087585,
            0.16212491691112518,
            -0.07771015167236328,
            0.05155062675476074,
            0.13307498395442963,
            -0.3255375325679779
          ],
          [
            0.10213255882263184,
            0.14645877480506897,
            0.13277682662010193,
            0.06807080656290054,
            -0.07920569181442261,
            -0.018140340223908424,
            -0.05235394462943077,
            -0.1388065665960312,
            0.09385417401790619,
            0.09636589139699936,
            -0.026386616751551628,
            0.14999635517597198,
            0.07296927273273468,
            0.1304493397474289,
            0.10924416035413742,
            -0.039888378232717514,
            -0.14248928427696228,
            -0.10633772611618042,
            0.17011110484600067,
            -0.08152232319116592,
            0.03574419394135475,
            0.12233810871839523,
            -0.10329501330852509,
            0.07683133333921432,
            -0.1436649113893509,
            0.03730542212724686,
            0.0104434909299016,
            -0.11024181544780731,
            -0.01734740287065506,
            -0.08360815793275833,
            -0.029147693887352943,
            0.1333499550819397,
            0.1463465690612793,
            0.06236331909894943,
            -0.0417775884270668,
            -0.012959922663867474,
            0.014128942042589188,
            0.1129157766699791,
            -0.1049254760146141,
            -0.03087950497865677,
            -0.12146500498056412,
            0.07432625442743301,
            -0.022568978369235992,
            -0.08588413894176483
          ],
          [
            -0.19104823470115662,
            -0.05735829845070839,
            -0.17709282040596008,
            0.0369565449655056,
            -0.113468237221241,
            -0.07688035070896149,
            0.13779301941394806,
            -0.16939815878868103,
            -0.08663824945688248,
            -0.10879557579755783,
            -0.09762623906135559,
            0.0950881838798523,
            -0.08534498512744904,
            -0.1156451627612114,
            0.10499265044927597,
            0.15663795173168182,
            0.07350549846887589,
            0.043170150369405746,
            -0.013006189838051796,
            0.0653187483549118,
            0.15718723833560944,
            0.07076558470726013,
            -0.09075753390789032,
            -0.12886613607406616,
            -0.08885257691144943,
            -0.09385472536087036,
            0.15114204585552216,
            -0.12016605585813522,
            -0.0020366283133625984,
            0.07355049252510071,
            0.10001253336668015,
            -0.07357382029294968,
            0.016397133469581604,
            -0.11527931690216064,
            -0.11021718382835388,
            -0.12483631819486618,
            -0.11013893783092499,
            0.12393249571323395,
            -0.045891158282756805,
            -0.111186683177948,
            -0.10132212936878204,
            -0.08515080064535141,
            -0.059852853417396545,
            0.054143812507390976
          ],
          [
            -0.14160339534282684,
            -0.013757331296801567,
            0.009734014980494976,
            0.07877814024686813,
            -0.05607924237847328,
            -0.06904146075248718,
            0.1325031816959381,
            -0.037632036954164505,
            -0.10986428707838058,
            -0.05944390594959259,
            0.052110105752944946,
            -0.045771174132823944,
            0.010169314220547676,
            -0.10921027511358261,
            0.07522657513618469,
            -0.005278118420392275,
            -0.017125442624092102,
            0.017146438360214233,
            0.11399821192026138,
            0.1121663972735405,
            0.09189345687627792,
            -0.004214494954794645,
            0.13239115476608276,
            0.0175979845225811,
            0.10539358854293823,
            -0.09297315031290054,
            -0.04792506620287895,
            -0.09684737771749496,
            0.007805628702044487,
            -0.08798378705978394,
            0.13943472504615784,
            -0.06822375953197479,
            0.096621572971344,
            -0.03164481744170189,
            0.100052610039711,
            0.00015617968165315688,
            -0.08997617661952972,
            -0.041059184819459915,
            -0.3609215319156647,
            -0.052579253911972046,
            -0.0430944599211216,
            -0.16956426203250885,
            0.11694038659334183,
            0.1332375556230545
          ],
          [
            0.01886460930109024,
            0.10904086381196976,
            -0.11657574027776718,
            -0.09856022894382477,
            -0.057824671268463135,
            -0.09122823923826218,
            -0.035647761076688766,
            0.11811602860689163,
            -0.10616251826286316,
            0.020327048376202583,
            0.060241591185331345,
            -0.025745442137122154,
            0.05040599778294563,
            -0.02021048218011856,
            0.05832153186202049,
            0.14241909980773926,
            0.03222428634762764,
            -0.09909767657518387,
            -0.08343371748924255,
            0.12331148982048035,
            -0.04525064304471016,
            0.1416335552930832,
            -0.15073992311954498,
            -0.07359632104635239,
            0.15229403972625732,
            -0.03649337962269783,
            -0.08568909764289856,
            -0.0022150652948766947,
            -0.0038172644563019276,
            -0.13356496393680573,
            0.04785789176821709,
            0.09805436432361603,
            -0.023631704971194267,
            -0.11339497566223145,
            -0.041357096284627914,
            0.050463467836380005,
            -0.050417181104421616,
            0.11029475182294846,
            -0.05909730866551399,
            -0.026656126603484154,
            0.08780581504106522,
            0.010378238745033741,
            0.09011730551719666,
            -0.10420211404561996
          ],
          [
            0.1088031530380249,
            -0.05628093332052231,
            -0.010901314206421375,
            0.07538112998008728,
            0.06474178284406662,
            -0.06875116378068924,
            0.055031709372997284,
            -0.0129121458157897,
            0.06992803514003754,
            -0.06809524446725845,
            -0.02349102683365345,
            -0.042105477303266525,
            0.039700452238321304,
            0.11096891760826111,
            0.0334363617002964,
            0.1515599638223648,
            0.08006608486175537,
            -0.16160054504871368,
            -0.10766103863716125,
            -0.008118346333503723,
            -0.10559415817260742,
            0.07063189893960953,
            0.1275947391986847,
            -0.026903361082077026,
            -0.06548497080802917,
            -0.14655478298664093,
            0.06586796045303345,
            0.03172207623720169,
            0.09304444491863251,
            -0.05079813674092293,
            -0.15061244368553162,
            0.17550304532051086,
            0.1422327607870102,
            -0.07718552649021149,
            -0.040773894637823105,
            -0.04156126081943512,
            -0.09700193256139755,
            -0.1436876505613327,
            0.15388163924217224,
            0.09782636165618896,
            0.08067888766527176,
            -0.16253089904785156,
            -0.07651126384735107,
            0.10319984704256058
          ],
          [
            0.08455337584018707,
            -0.009716847911477089,
            -0.02861444093286991,
            0.08631593734025955,
            0.14760516583919525,
            0.12260372191667557,
            0.1383569985628128,
            0.17859096825122833,
            -0.05024135485291481,
            0.08400285989046097,
            -0.014959433116018772,
            0.014205008745193481,
            0.06501580029726028,
            -0.07408405840396881,
            -0.0035331626422703266,
            0.014596719294786453,
            -0.11222323775291443,
            -0.12740600109100342,
            0.13796637952327728,
            0.1353263556957245,
            -0.06266996264457703,
            -0.1310179978609085,
            0.1435505598783493,
            0.042211439460515976,
            0.08447548002004623,
            -0.18630550801753998,
            0.1205136701464653,
            0.01409379206597805,
            0.09760713577270508,
            0.0705195739865303,
            0.15713655948638916,
            0.030178511515259743,
            0.04299844801425934,
            0.08629843592643738,
            0.20198875665664673,
            0.09720300137996674,
            -0.0036447683814913034,
            0.04744350537657738,
            0.09773138910531998,
            0.12227553874254227,
            -0.11530326306819916,
            0.18691982328891754,
            0.1354863941669464,
            -0.12267953157424927
          ],
          [
            -0.13432380557060242,
            0.017660919576883316,
            0.02620065025985241,
            0.1515280157327652,
            -0.11401554942131042,
            -0.08165719360113144,
            0.053710829466581345,
            0.016531791538000107,
            -0.08171813189983368,
            0.04735663905739784,
            0.07489438354969025,
            0.0033543966710567474,
            0.07268743962049484,
            0.0061820088885724545,
            0.11381085216999054,
            0.058228686451911926,
            0.031552866101264954,
            -0.034458741545677185,
            -0.09325416386127472,
            0.13090860843658447,
            0.11690329015254974,
            0.039664555341005325,
            -0.1647995263338089,
            0.12361963093280792,
            0.12837781012058258,
            -0.0028883416671305895,
            -0.08339887857437134,
            -0.0525989904999733,
            0.06516927480697632,
            0.041527435183525085,
            0.017954127863049507,
            -0.00014431003364734352,
            -0.025622183457016945,
            -0.1346907615661621,
            0.11512769013643265,
            -0.043140195310115814,
            -0.12487448751926422,
            0.05805656313896179,
            0.28045961260795593,
            -0.17367301881313324,
            0.07824616879224777,
            -0.18766449391841888,
            -0.0648382157087326,
            0.03891727328300476
          ],
          [
            0.08089400827884674,
            -0.022922322154045105,
            0.1468784362077713,
            -0.14030088484287262,
            -0.02714516408741474,
            -0.1061948910355568,
            -0.12384120374917984,
            0.12763914465904236,
            0.11261254549026489,
            0.12650160491466522,
            0.0827430710196495,
            -0.06545752286911011,
            -0.02536485716700554,
            -0.11935534328222275,
            0.15453267097473145,
            -0.025150660425424576,
            -0.04116690531373024,
            0.06667552888393402,
            -0.007245383691042662,
            -0.08657136559486389,
            0.0037663085386157036,
            0.08099524676799774,
            0.07420775294303894,
            -0.15490476787090302,
            0.11127088963985443,
            0.05863577499985695,
            -0.14505717158317566,
            -0.02828364260494709,
            -0.09808614104986191,
            0.006740947254002094,
            -0.11440277099609375,
            -0.03760351240634918,
            0.09497182071208954,
            -0.03602064773440361,
            0.04888968914747238,
            -0.08229218423366547,
            0.10532645881175995,
            0.1252039074897766,
            0.05360708385705948,
            0.0226356852799654,
            0.15944288671016693,
            -0.17371995747089386,
            0.03757382556796074,
            -0.12106802314519882
          ],
          [
            -0.030449794605374336,
            -0.14782899618148804,
            0.03151985630393028,
            0.11634816974401474,
            -0.029373925179243088,
            0.08673427253961563,
            -0.013901259750127792,
            -0.1252409964799881,
            -0.12698154151439667,
            -0.0060419789515435696,
            0.07874874025583267,
            0.15242591500282288,
            -0.05417300760746002,
            -0.01227493118494749,
            0.12939171493053436,
            -0.1387319266796112,
            -0.1508157104253769,
            -0.15803320705890656,
            0.07926027476787567,
            -0.1277157962322235,
            -0.11185190081596375,
            0.054188039153814316,
            0.06654810905456543,
            0.06916307657957077,
            -0.10502850264310837,
            0.12254314869642258,
            0.09752930700778961,
            -0.04994945228099823,
            -0.08239612728357315,
            -0.06533431261777878,
            -0.07788679748773575,
            -0.11440540850162506,
            0.06571341305971146,
            0.08990667760372162,
            0.0587940514087677,
            0.0543585866689682,
            -0.08681808412075043,
            0.09713701158761978,
            0.1589210331439972,
            0.07294867187738419,
            0.13233442604541779,
            -0.10957351326942444,
            0.0069763632491230965,
            0.010173815302550793
          ],
          [
            -0.03293442726135254,
            0.14991380274295807,
            -0.004988882690668106,
            0.029708193615078926,
            0.013843679800629616,
            0.03714267909526825,
            -0.109844870865345,
            0.14633993804454803,
            0.16259896755218506,
            -0.1085362657904625,
            -0.14417673647403717,
            -0.014118870720267296,
            -0.09617055207490921,
            0.04219448193907738,
            -0.040433235466480255,
            0.15284156799316406,
            0.042255744338035583,
            -0.06923696398735046,
            -0.0959407389163971,
            -0.01014447957277298,
            -0.14985831081867218,
            -0.03533485159277916,
            -0.1892339587211609,
            -0.13546207547187805,
            -0.12664125859737396,
            0.07422381639480591,
            -0.1504947394132614,
            0.18599337339401245,
            -0.20786957442760468,
            -0.14833742380142212,
            0.07205117493867874,
            0.0072939395904541016,
            0.11387049406766891,
            -0.005548329558223486,
            0.12267570942640305,
            0.1290404200553894,
            -0.10388711094856262,
            -0.10037315636873245,
            0.24027976393699646,
            0.09222158044576645,
            -0.002068585716187954,
            0.05623766779899597,
            -0.13590499758720398,
            0.18726906180381775
          ],
          [
            -0.0830158218741417,
            0.13025642931461334,
            -0.004449370317161083,
            -0.08293735980987549,
            -0.04727803170681,
            -0.03600114956498146,
            0.009113066829741001,
            0.05312522128224373,
            -0.17063318192958832,
            -0.08882005512714386,
            -0.0725371241569519,
            0.06891625374555588,
            -0.12342604994773865,
            0.13979306817054749,
            -0.09906817972660065,
            0.09878510236740112,
            0.06697366386651993,
            0.020270969718694687,
            -0.03961143642663956,
            0.03218839690089226,
            -0.12381172180175781,
            -0.009961357340216637,
            0.07433748245239258,
            -0.008132144808769226,
            -0.024418743327260017,
            -0.004160849377512932,
            -0.07348449528217316,
            -0.12660081684589386,
            -0.04147662967443466,
            0.013401735574007034,
            0.07721331715583801,
            -0.019704634323716164,
            -0.039440907537937164,
            0.06281571835279465,
            0.05774633586406708,
            0.020208977162837982,
            0.0657786950469017,
            0.13242554664611816,
            -0.04617390036582947,
            -0.03924819082021713,
            -0.04159429669380188,
            0.15407401323318481,
            0.09574668854475021,
            -0.14552225172519684
          ],
          [
            0.14633338153362274,
            0.16814297437667847,
            0.04838801547884941,
            0.1248941570520401,
            -0.15533505380153656,
            0.0889616310596466,
            -0.039769209921360016,
            -0.1718282848596573,
            -0.15469138324260712,
            -0.020581573247909546,
            0.1586129069328308,
            0.10124944150447845,
            0.04491771385073662,
            0.019746413454413414,
            -0.17161720991134644,
            0.07621774077415466,
            0.10946141928434372,
            -0.17100928723812103,
            -0.13934043049812317,
            -0.12088759988546371,
            0.13192839920520782,
            0.03365429863333702,
            0.0657721534371376,
            0.014394666068255901,
            0.016544673591852188,
            -0.11956780403852463,
            0.040880486369132996,
            0.01325367484241724,
            -0.08863162994384766,
            -0.15631793439388275,
            0.08982165902853012,
            -0.11336156725883484,
            0.08612904697656631,
            0.024420320987701416,
            -0.044664524495601654,
            0.22250214219093323,
            0.08779051899909973,
            0.06195288896560669,
            -0.0828946903347969,
            -0.06516016274690628,
            -0.050084300339221954,
            0.20496338605880737,
            0.0025921144988387823,
            -0.011139897629618645
          ],
          [
            0.032922182232141495,
            0.12698478996753693,
            0.15435880422592163,
            -0.026780851185321808,
            -0.089145228266716,
            -0.1194273829460144,
            -0.018273459747433662,
            0.10012134909629822,
            -0.022149981930851936,
            -0.20271870493888855,
            -0.1218535304069519,
            -0.11269526183605194,
            -0.053492236882448196,
            0.01969904452562332,
            0.03197474405169487,
            -0.07182440906763077,
            -0.08753416687250137,
            -0.08578422665596008,
            -0.009157402440905571,
            0.054776400327682495,
            -0.06648548692464828,
            -0.05429507791996002,
            -0.01831350289285183,
            0.14302673935890198,
            0.11852728575468063,
            -0.054582629352808,
            -0.1720152199268341,
            0.038994282484054565,
            0.1048169955611229,
            0.010849514976143837,
            0.17927886545658112,
            0.0902523547410965,
            -0.013456975109875202,
            0.11178123950958252,
            0.10142551362514496,
            -0.14361558854579926,
            -0.11214438825845718,
            -0.018664682283997536,
            -0.040735870599746704,
            -0.1009955182671547,
            -0.11463234573602676,
            0.06083882600069046,
            -0.06694295257329941,
            -0.04743148759007454
          ],
          [
            0.10196267813444138,
            0.007439739070832729,
            0.06025584414601326,
            -0.023645352572202682,
            -0.0016684378497302532,
            0.090606190264225,
            -0.13017942011356354,
            -0.02654774859547615,
            0.059717413038015366,
            0.18832281231880188,
            0.14739583432674408,
            0.1354321539402008,
            -0.04643614962697029,
            -0.06647825986146927,
            0.0009485548362135887,
            -0.11578867584466934,
            -0.125899538397789,
            -0.028061386197805405,
            -0.0006822556024417281,
            0.08113383501768112,
            -0.14110258221626282,
            -0.040323786437511444,
            0.09869515150785446,
            -0.035682085901498795,
            -0.13861910998821259,
            0.07601595669984818,
            -0.07523789256811142,
            -0.05341235548257828,
            -0.08616450428962708,
            -0.08662200719118118,
            -0.09765152633190155,
            0.007936922833323479,
            0.08773260563611984,
            0.07725889980792999,
            0.19861797988414764,
            0.10175424814224243,
            -0.07974974066019058,
            0.1286730021238327,
            -0.012404008768498898,
            0.12497186660766602,
            -0.10040461272001266,
            0.1303272694349289,
            -0.055838216096162796,
            0.05287494882941246
          ],
          [
            0.13915392756462097,
            0.007851820439100266,
            0.10399550199508667,
            0.03736769035458565,
            -0.08465700596570969,
            -0.03686576709151268,
            0.19084623456001282,
            0.05875053629279137,
            0.02260843850672245,
            0.09762020409107208,
            0.1072477400302887,
            -0.06927445530891418,
            -0.040737397968769073,
            0.09457381814718246,
            0.05416804924607277,
            0.12635044753551483,
            0.06528162956237793,
            0.08107873797416687,
            0.10211347788572311,
            -0.02900546044111252,
            -0.019717242568731308,
            -0.0246331375092268,
            0.12653160095214844,
            0.008440916426479816,
            -0.0915280357003212,
            0.12969782948493958,
            -0.022891076281666756,
            -0.0011371535947546363,
            -0.09942349791526794,
            -0.15695258975028992,
            0.05082521215081215,
            0.055838074535131454,
            0.11179213225841522,
            0.12047209590673447,
            0.0653795674443245,
            0.08546656370162964,
            0.04022713750600815,
            -0.052566781640052795,
            0.019674016162753105,
            -0.16583366692066193,
            -0.1166154220700264,
            0.23952345550060272,
            0.12770557403564453,
            0.054756972938776016
          ],
          [
            0.04922487214207649,
            -0.15733741223812103,
            -0.04432053118944168,
            -0.06048743799328804,
            -0.060907185077667236,
            0.052430327981710434,
            -0.10342425853013992,
            -0.10301652550697327,
            -0.045680295675992966,
            -0.14070545136928558,
            -0.011299804784357548,
            0.03560260683298111,
            -0.012711921706795692,
            -0.06431523710489273,
            -0.00939281564205885,
            0.13285987079143524,
            0.09001459926366806,
            0.01274812500923872,
            -0.12136996537446976,
            -0.11529768258333206,
            0.0857706069946289,
            0.0016074060695245862,
            0.010591574013233185,
            -0.025627898052334785,
            -0.10173896700143814,
            -0.08354286849498749,
            0.0829286277294159,
            0.14607998728752136,
            0.0783436968922615,
            -0.0921240970492363,
            -0.012406296096742153,
            -0.123261459171772,
            -0.10793577879667282,
            -0.12061859667301178,
            0.030729010701179504,
            -0.13875171542167664,
            0.10966827720403671,
            0.13402093946933746,
            0.05157815292477608,
            0.05048069357872009,
            0.024130042642354965,
            0.1135651171207428,
            -0.00794396921992302,
            0.17626234889030457
          ],
          [
            0.05841423198580742,
            -0.03147056698799133,
            0.11593981087207794,
            0.015527985990047455,
            0.06770367175340652,
            -0.0015119267627596855,
            -0.09464086592197418,
            0.11384515464305878,
            0.02858726494014263,
            -0.03861098736524582,
            0.02676493674516678,
            -0.06346920877695084,
            0.021586330607533455,
            -0.1329825073480606,
            0.10401781648397446,
            0.06477111577987671,
            -0.10263337939977646,
            0.05940142273902893,
            0.006466912571340799,
            -0.029335519298911095,
            0.1753307431936264,
            0.01950627751648426,
            -0.12268540263175964,
            -0.1436774879693985,
            0.004778179805725813,
            -0.09066957235336304,
            -0.12100804597139359,
            -0.11403840035200119,
            0.10433685034513474,
            -0.06302829086780548,
            -0.08258006721735,
            -0.05213894695043564,
            0.007404407951980829,
            -0.016953321173787117,
            -0.1204746887087822,
            -0.0889509841799736,
            -0.10435321927070618,
            0.03346153348684311,
            -0.059900589287281036,
            0.16094475984573364,
            0.07793482393026352,
            -0.007422332651913166,
            0.07501043379306793,
            0.00771759171038866
          ],
          [
            -0.08401183784008026,
            0.10802303999662399,
            -0.12492627650499344,
            -0.08436549454927444,
            0.14804323017597198,
            0.16315826773643494,
            0.09938985854387283,
            -0.022857673466205597,
            0.1098184809088707,
            0.07257969677448273,
            0.005735374521464109,
            -0.004812154453247786,
            0.1088339164853096,
            -0.07163194566965103,
            -0.0643058568239212,
            0.13065604865550995,
            0.028854617848992348,
            -0.02363484725356102,
            -0.02915932796895504,
            -0.036115940660238266,
            0.13221244513988495,
            0.13726629316806793,
            -0.09892813116312027,
            -0.09975548088550568,
            -0.10348699241876602,
            -0.013481531292200089,
            0.025181690230965614,
            -0.0801391750574112,
            0.05890825018286705,
            -0.15559230744838715,
            0.15108533203601837,
            -0.008793178014457226,
            0.03338342532515526,
            0.07919342070817947,
            0.005589433014392853,
            -0.07392223924398422,
            -0.04211745038628578,
            0.13616465032100677,
            -0.0606527216732502,
            -0.039085954427719116,
            -0.17889726161956787,
            -0.0432785302400589,
            0.0564502477645874,
            0.08489804714918137
          ],
          [
            -0.09670484811067581,
            -0.0237668938934803,
            0.14932478964328766,
            0.1342393308877945,
            0.030212901532649994,
            0.16933010518550873,
            0.1522906869649887,
            0.11718075722455978,
            0.12252778559923172,
            0.008420881815254688,
            -0.038551125675439835,
            0.1512451171875,
            0.07260297983884811,
            0.03178681805729866,
            -0.03125382959842682,
            0.011583659797906876,
            -0.07919783145189285,
            -0.0458378791809082,
            -0.14102455973625183,
            -0.028443926945328712,
            0.046577855944633484,
            -0.07478758692741394,
            0.018744584172964096,
            -0.03970680385828018,
            -0.05360149219632149,
            0.006741838529706001,
            0.02737491764128208,
            0.16412341594696045,
            -0.022362880408763885,
            0.1298339068889618,
            -0.1565549075603485,
            0.004391178023070097,
            0.006377768237143755,
            0.1236649751663208,
            0.06428632140159607,
            -0.11045176535844803,
            0.07432206720113754,
            -0.008536170236766338,
            -0.30758723616600037,
            -0.12825697660446167,
            -0.08028455823659897,
            0.1477123200893402,
            0.1505492925643921,
            -0.11261331290006638
          ],
          [
            0.13128511607646942,
            0.14604872465133667,
            0.05523066595196724,
            0.11581827700138092,
            0.1153462678194046,
            0.08087635785341263,
            -0.018566131591796875,
            0.11782287806272507,
            0.06330899894237518,
            0.07053636014461517,
            -0.14462631940841675,
            0.05446133762598038,
            0.06511110067367554,
            -0.10260224342346191,
            -0.09828788042068481,
            -0.024683713912963867,
            0.06065986678004265,
            -0.08794831484556198,
            -0.054861851036548615,
            -0.1664215326309204,
            -0.08657607436180115,
            -0.04656761512160301,
            -0.160725399851799,
            0.032470330595970154,
            -0.011443687602877617,
            -0.1363222748041153,
            0.05959378555417061,
