{
  "bias": -0.7679642131762837,
  "class_weight_positive": 8.0,
  "dataset_path": "/projects/p57098/euijin1/Caver/metadata/stage0/value_proxy/stage0_seed_context_success_dataset.jsonl",
  "feature_spec": {
    "base_feature_dim": 38,
    "family_ids": [
      "block_to_tray_proxy",
      "container_insertion_proxy",
      "drawer_open_proxy",
      "relocate_to_region_proxy",
      "two_object_stack_proxy"
    ],
    "feature_dim": 55,
    "include_family_one_hot": true,
    "include_family_progress_interaction": true,
    "include_family_progress_sq_interaction": true,
    "include_policy_query_index": true,
    "include_policy_query_index_sq": true,
    "policy_query_index_scale": 79.0
  },
  "label_key": "context_success_label",
  "model_format": "stage0_value_proxy_logreg_v1",
  "model_id": "stage0_context_success_progress_sq_family_curve_logreg_v1",
  "raw_positive_class_weight": 11.175436993441776,
  "split": {
    "val_fold": 0,
    "val_modulus": 5
  },
  "standardization": {
    "mean": [
      0.3302131574526238,
      0.01394708345275678,
      0.0510661768685395,
      0.054397740081814,
      -0.00778746591882807,
      0.013578466999022732,
      -0.08483392172003955,
      -0.2400621205249909,
      0.012232133841900866,
      -0.003119073645371429,
      0.009500911068225697,
      0.052833248060621923,
      -0.003432192269974613,
      -0.023185768406729857,
      0.05916547403126133,
      -0.01696241357319396,
      -0.021558484542590524,
      -0.02654491891212272,
      0.0402205383905062,
      0.009278285823886756,
      0.036382905661271336,
      0.07529728669705506,
      -0.024455377851304902,
      -0.00915687987193069,
      -0.037666371635663866,
      -0.004813534023733913,
      -0.0012557640515327196,
      0.05734031265247191,
      0.045664935232155916,
      0.015238574129841394,
      -0.017231738808647045,
      0.00031263939774664896,
      -0.08045278650856633,
      -0.018168796501402233,
      0.014296471813026252,
      0.0599344245645152,
      0.0,
      0.094722786881345,
      0.4707001858900592,
      0.30658426029499347,
      0.16600790513833993,
      0.14198844633627242,
      0.2432350258437215,
      0.21891152325934934,
      0.2298570994223168,
      0.07299744834142192,
      0.05225511967394191,
      0.12161751292186075,
      0.10945576162967467,
      0.11437434332316006,
      0.04647402505883939,
      0.02868629458222822,
      0.08159149601086857,
      0.07343234640978165,
      0.07640009823327702
    ],
    "std": [
      0.32098836139557546,
      1.3896974919744667,
      1.3825291165317926,
      1.4081790542694663,
      1.3562331143544142,
      1.3621396291649448,
      1.3827218889457804,
      1.1524923223068588,
      0.7310278594950362,
      0.7309339362220986,
      0.717192032376041,
      0.7525956450139617,
      0.757594973135043,
      0.7322073677339536,
      0.9350230731007299,
      0.5373387692108978,
      0.5586250248631701,
      0.4592264792744727,
      0.6057798155631959,
      0.6157463181310115,
      0.5419497361054442,
      0.8924561020939311,
      0.7464202986273957,
      0.7622958721590869,
      0.7232982493287081,
      0.769997285186962,
      0.7708663011359392,
      0.753047127909667,
      0.9242270407233251,
      1.2988459435149133,
      1.2875282036285758,
      1.3279477232223775,
      1.2741275529138345,
      1.2635795113140653,
      1.2956128529124002,
      1.0365048503766159,
      1.0,
      0.13746064178651987,
      0.291591487012325,
      0.2963404070455434,
      0.3720877323561254,
      0.3490382893655921,
      0.4290358353873588,
      0.4135084863018024,
      0.4207407910667578,
      0.2028432833358664,
      0.1611077187787672,
      0.2584582685107394,
      0.24789470074176084,
      0.25163188951856597,
      0.1589312813762184,
      0.11536774693233134,
      0.20715885918874727,
      0.1980466085199736,
      0.20058970301871362
    ]
  },
  "target_mode": "context_success_progress_sq_v1",
  "train_metrics": {
    "accuracy": 0.9017565557039426,
    "brier": 0.09943677455797939,
    "count": 6578.0,
    "positive_rate": 0.08213257565528538,
    "weighted_log_loss": 0.4382634845367636
  },
  "val_metrics": {
    "accuracy": 0.8273232563047364,
    "brier": 0.1267711684237659,
    "count": 1878.0,
    "positive_rate": 0.07779905406512014,
    "weighted_log_loss": 0.49374955341343363
  },
  "weights": [
    0.1140692905608406,
    -0.0005944909494397202,
    0.044099590646359856,
    -0.008170835594950208,
    0.02202264307204447,
    -0.006737771403796807,
    -0.0013679609281891394,
    0.05960737331769937,
    -0.0015665691833482377,
    0.005632766810977222,
    0.020089773383793197,
    0.0008663621205619083,
    0.00926525464908814,
    -0.007275165183552142,
    0.019285174423050725,
    0.01148530273866683,
    0.0033206249682507555,
    0.015684712478287042,
    -0.037751800678115705,
    0.03089029208967744,
    -0.030556623175641295,
    -0.01047603128686028,
    -0.013318731794129587,
    -0.014632782713593135,
    -0.01213089865205198,
    -0.007465853126094132,
    -0.019058447445451553,
    -0.007483937317778246,
    -0.030282681627223498,
    0.004420263736789009,
    -0.04332846666981873,
    -0.0010021504394783591,
    -0.0014927019385466245,
    -0.0017178132588455022,
    0.02270304000945115,
    -0.0476521184292825,
    0.0,
    0.1157679423222298,
    0.08101562824177229,
    0.0035138816071051955,
    0.11422227277408896,
    0.07723885121221133,
    -0.0644406059422438,
    -0.06415551845350823,
    -0.036326029608587565,
    0.06413532527552497,
    0.197835120245013,
    -0.05094756070152303,
    -0.053430457484077404,
    0.02048320758824026,
    -0.027354724734114568,
    0.11420094164891356,
    -0.040507720547807345,
    -0.04459128375309759,
    0.04704332663005134
  ]
}
