{
  "bias": -0.7330841460039048,
  "class_weight_positive": 8.0,
  "dataset_path": "/projects/p57098/euijin1/Caver/metadata/stage0/value_proxy/stage0_seed_context_success_dataset.jsonl",
  "feature_spec": {
    "base_feature_dim": 38,
    "family_ids": [
      "block_to_tray_proxy",
      "container_insertion_proxy",
      "drawer_open_proxy",
      "relocate_to_region_proxy",
      "two_object_stack_proxy"
    ],
    "feature_dim": 44,
    "include_family_one_hot": true,
    "include_family_progress_interaction": false,
    "include_family_progress_sq_interaction": false,
    "include_policy_query_index": true,
    "include_policy_query_index_sq": false,
    "policy_query_index_scale": 79.0
  },
  "label_key": "context_success_label",
  "model_format": "stage0_value_proxy_logreg_v1",
  "model_id": "stage0_context_success_progress_sq_logreg_v2",
  "raw_positive_class_weight": 11.175436993441776,
  "split": {
    "val_fold": 0,
    "val_modulus": 5
  },
  "standardization": {
    "mean": [
      0.3302131574526238,
      0.01394708345275678,
      0.0510661768685395,
      0.054397740081814,
      -0.00778746591882807,
      0.013578466999022732,
      -0.08483392172003955,
      -0.2400621205249909,
      0.012232133841900866,
      -0.003119073645371429,
      0.009500911068225697,
      0.052833248060621923,
      -0.003432192269974613,
      -0.023185768406729857,
      0.05916547403126133,
      -0.01696241357319396,
      -0.021558484542590524,
      -0.02654491891212272,
      0.0402205383905062,
      0.009278285823886756,
      0.036382905661271336,
      0.07529728669705506,
      -0.024455377851304902,
      -0.00915687987193069,
      -0.037666371635663866,
      -0.004813534023733913,
      -0.0012557640515327196,
      0.05734031265247191,
      0.045664935232155916,
      0.015238574129841394,
      -0.017231738808647045,
      0.00031263939774664896,
      -0.08045278650856633,
      -0.018168796501402233,
      0.014296471813026252,
      0.0599344245645152,
      0.0,
      0.094722786881345,
      0.4707001858900592,
      0.16600790513833993,
      0.14198844633627242,
      0.2432350258437215,
      0.21891152325934934,
      0.2298570994223168
    ],
    "std": [
      0.32098836139557546,
      1.3896974919744667,
      1.3825291165317926,
      1.4081790542694663,
      1.3562331143544142,
      1.3621396291649448,
      1.3827218889457804,
      1.1524923223068588,
      0.7310278594950362,
      0.7309339362220986,
      0.717192032376041,
      0.7525956450139617,
      0.757594973135043,
      0.7322073677339536,
      0.9350230731007299,
      0.5373387692108978,
      0.5586250248631701,
      0.4592264792744727,
      0.6057798155631959,
      0.6157463181310115,
      0.5419497361054442,
      0.8924561020939311,
      0.7464202986273957,
      0.7622958721590869,
      0.7232982493287081,
      0.769997285186962,
      0.7708663011359392,
      0.753047127909667,
      0.9242270407233251,
      1.2988459435149133,
      1.2875282036285758,
      1.3279477232223775,
      1.2741275529138345,
      1.2635795113140653,
      1.2956128529124002,
      1.0365048503766159,
      1.0,
      0.13746064178651987,
      0.291591487012325,
      0.3720877323561254,
      0.3490382893655921,
      0.4290358353873588,
      0.4135084863018024,
      0.4207407910667578
    ]
  },
  "target_mode": "context_success_progress_sq_v1",
  "train_metrics": {
    "accuracy": 0.9098517776079457,
    "brier": 0.10133156079404024,
    "count": 6578.0,
    "positive_rate": 0.08213257565528538,
    "weighted_log_loss": 0.4441342503637099
  },
  "val_metrics": {
    "accuracy": 0.86059829059829,
    "brier": 0.11916312708771062,
    "count": 1878.0,
    "positive_rate": 0.07779905406512014,
    "weighted_log_loss": 0.47798574571928676
  },
  "weights": [
    0.12277684795653215,
    -0.0007875641714336954,
    0.04036046689147337,
    -0.004455261933112641,
    0.02176538855471813,
    -0.004945669898621929,
    -0.0047676367879677896,
    0.061414415549834754,
    -0.008818703559920742,
    0.0033236253053038887,
    0.01778909979603375,
    0.0018629379120236496,
    0.0097892861408705,
    -0.00539420305681274,
    0.01531937276617974,
    0.009438744780381163,
    0.0048495942977371635,
    0.015216913100830868,
    -0.03716924126215936,
    0.0311020403185798,
    -0.030419545000765925,
    -0.011510457837474316,
    -0.007328704298991206,
    -0.013374792454741215,
    -0.01438362433355103,
    -0.009548932579369531,
    -0.01941940306486406,
    -0.00287841259374351,
    -0.029623847592388963,
    0.006112875917734554,
    -0.03941073032351768,
    -0.0023108991242357315,
    -0.0008256248621666288,
    -0.003846868651594381,
    0.022534073834756797,
    -0.04578065414225047,
    0.0,
    0.12072427458970945,
    0.09719502803896723,
    0.09705412193457495,
    0.20046154284040188,
    -0.10549882960954628,
    -0.10485568473175559,
    -0.041498016228224965
  ]
}
