{
  "bias": -0.8230421393616054,
  "class_weight_positive": 64.0,
  "dataset_path": "/projects/p57098/euijin1/Caver/metadata/stage0/value_proxy/stage0_seed_context_success_dataset.jsonl",
  "feature_spec": {
    "base_feature_dim": 38,
    "family_ids": [
      "block_to_tray_proxy",
      "container_insertion_proxy",
      "drawer_open_proxy",
      "relocate_to_region_proxy",
      "two_object_stack_proxy"
    ],
    "feature_dim": 44,
    "include_base_progress_interaction": false,
    "include_base_progress_sq_interaction": false,
    "include_family_one_hot": true,
    "include_family_progress_interaction": false,
    "include_family_progress_sq_interaction": false,
    "include_policy_query_index": true,
    "include_policy_query_index_sq": false,
    "policy_query_index_scale": 79.0
  },
  "label_key": "chunk_success_label",
  "model_format": "stage0_value_proxy_logreg_v1",
  "model_id": "stage0_chunk_success_logreg_v2",
  "raw_positive_class_weight": 153.00057757994904,
  "split": {
    "val_fold": 0,
    "val_modulus": 5
  },
  "standardization": {
    "mean": [
      0.3302131574526238,
      0.01394708345275678,
      0.0510661768685395,
      0.054397740081814,
      -0.00778746591882807,
      0.013578466999022732,
      -0.08483392172003955,
      -0.2400621205249909,
      0.012232133841900866,
      -0.003119073645371429,
      0.009500911068225697,
      0.052833248060621923,
      -0.003432192269974613,
      -0.023185768406729857,
      0.05916547403126133,
      -0.01696241357319396,
      -0.021558484542590524,
      -0.02654491891212272,
      0.0402205383905062,
      0.009278285823886756,
      0.036382905661271336,
      0.07529728669705506,
      -0.024455377851304902,
      -0.00915687987193069,
      -0.037666371635663866,
      -0.004813534023733913,
      -0.0012557640515327196,
      0.05734031265247191,
      0.045664935232155916,
      0.015238574129841394,
      -0.017231738808647045,
      0.00031263939774664896,
      -0.08045278650856633,
      -0.018168796501402233,
      0.014296471813026252,
      0.0599344245645152,
      0.0,
      0.094722786881345,
      0.4707001858900592,
      0.16600790513833993,
      0.14198844633627242,
      0.2432350258437215,
      0.21891152325934934,
      0.2298570994223168
    ],
    "std": [
      0.32098836139557546,
      1.3896974919744667,
      1.3825291165317926,
      1.4081790542694663,
      1.3562331143544142,
      1.3621396291649448,
      1.3827218889457804,
      1.1524923223068588,
      0.7310278594950362,
      0.7309339362220986,
      0.717192032376041,
      0.7525956450139617,
      0.757594973135043,
      0.7322073677339536,
      0.9350230731007299,
      0.5373387692108978,
      0.5586250248631701,
      0.4592264792744727,
      0.6057798155631959,
      0.6157463181310115,
      0.5419497361054442,
      0.8924561020939311,
      0.7464202986273957,
      0.7622958721590869,
      0.7232982493287081,
      0.769997285186962,
      0.7708663011359392,
      0.753047127909667,
      0.9242270407233251,
      1.2988459435149133,
      1.2875282036285758,
      1.3279477232223775,
      1.2741275529138345,
      1.2635795113140653,
      1.2956128529124002,
      1.0365048503766159,
      1.0,
      0.13746064178651987,
      0.291591487012325,
      0.3720877323561254,
      0.3490382893655921,
      0.4290358353873588,
      0.4135084863018024,
      0.4207407910667578
    ]
  },
  "target_mode": "label_key",
  "train_metrics": {
    "accuracy": 0.8626871250600334,
    "brier": 0.1307636950320474,
    "count": 6578.0,
    "positive_rate": 0.006493482139577598,
    "weighted_log_loss": 0.431849643488949
  },
  "val_metrics": {
    "accuracy": 0.8120668460483268,
    "brier": 0.14865904982474276,
    "count": 1878.0,
    "positive_rate": 0.0073641447715524265,
    "weighted_log_loss": 0.4704667911539005
  },
  "weights": [
    0.22233169592589955,
    -0.04646164547967208,
    0.02804858326081013,
    -0.0021143056045085794,
    -0.050709061240709764,
    0.037416914751357624,
    -0.027194902473156667,
    -0.05225721022973494,
    0.0012153733163994525,
    0.060486517700927785,
    0.16308806100910325,
    0.06814900741334684,
    0.06635458393355093,
    -0.04716078972414822,
    -0.04444838194266967,
    0.023297341236270613,
    -0.001065653504925215,
    0.12810208070161583,
    -0.03231197989546486,
    0.019413280160923495,
    -0.08386010549142328,
    -0.012824877142060126,
    -0.017606373296409687,
    -0.0619494833163648,
    -0.07050584232376034,
    0.021672896258286254,
    -0.027574070298062196,
    0.0020102333295038983,
    0.0504812685290814,
    0.049507295696659785,
    -0.027316291229804793,
    -0.09173497579957743,
    0.015987830853448515,
    -0.07275734925840391,
    0.08958588668388322,
    0.06423103825185017,
    0.0,
    0.26246619087816614,
    0.09531351032863394,
    0.18107562042759986,
    0.1472661621725671,
    -0.10443582498666332,
    -0.11367319199127165,
    -0.06409173038995421
  ]
}
