{
  "bias": -0.3177133519102385,
  "class_weight_positive": 3.2272727272730855,
  "dataset_path": "/projects/p57098/euijin1/Caver/metadata/stage0/value_proxy/stage0_seed_context_success_dataset.jsonl",
  "feature_spec": {
    "base_feature_dim": 38,
    "family_ids": [
      "block_to_tray_proxy",
      "container_insertion_proxy",
      "drawer_open_proxy",
      "relocate_to_region_proxy",
      "two_object_stack_proxy"
    ],
    "feature_dim": 44,
    "include_policy_query_index": true,
    "policy_query_index_scale": 79.0
  },
  "label_key": "context_success_label",
  "model_format": "stage0_value_proxy_logreg_v1",
  "model_id": "stage0_context_success_logreg_v1",
  "split": {
    "val_fold": 0,
    "val_modulus": 5
  },
  "standardization": {
    "mean": [
      0.3302131574526238,
      0.01394708345275678,
      0.0510661768685395,
      0.054397740081814,
      -0.00778746591882807,
      0.013578466999022732,
      -0.08483392172003955,
      -0.2400621205249909,
      0.012232133841900866,
      -0.003119073645371429,
      0.009500911068225697,
      0.052833248060621923,
      -0.003432192269974613,
      -0.023185768406729857,
      0.05916547403126133,
      -0.01696241357319396,
      -0.021558484542590524,
      -0.02654491891212272,
      0.0402205383905062,
      0.009278285823886756,
      0.036382905661271336,
      0.07529728669705506,
      -0.024455377851304902,
      -0.00915687987193069,
      -0.037666371635663866,
      -0.004813534023733913,
      -0.0012557640515327196,
      0.05734031265247191,
      0.045664935232155916,
      0.015238574129841394,
      -0.017231738808647045,
      0.00031263939774664896,
      -0.08045278650856633,
      -0.018168796501402233,
      0.014296471813026252,
      0.0599344245645152,
      0.0,
      0.094722786881345,
      0.4707001858900592,
      0.16600790513833993,
      0.14198844633627242,
      0.2432350258437215,
      0.21891152325934934,
      0.2298570994223168
    ],
    "std": [
      0.32098836139557546,
      1.3896974919744667,
      1.3825291165317926,
      1.4081790542694663,
      1.3562331143544142,
      1.3621396291649448,
      1.3827218889457804,
      1.1524923223068588,
      0.7310278594950362,
      0.7309339362220986,
      0.717192032376041,
      0.7525956450139617,
      0.757594973135043,
      0.7322073677339536,
      0.9350230731007299,
      0.5373387692108978,
      0.5586250248631701,
      0.4592264792744727,
      0.6057798155631959,
      0.6157463181310115,
      0.5419497361054442,
      0.8924561020939311,
      0.7464202986273957,
      0.7622958721590869,
      0.7232982493287081,
      0.769997285186962,
      0.7708663011359392,
      0.753047127909667,
      0.9242270407233251,
      1.2988459435149133,
      1.2875282036285758,
      1.3279477232223775,
      1.2741275529138345,
      1.2635795113140653,
      1.2956128529124002,
      1.0365048503766159,
      1.0,
      0.13746064178651987,
      0.291591487012325,
      0.3720877323561254,
      0.3490382893655921,
      0.4290358353873588,
      0.4135084863018024,
      0.4207407910667578
    ]
  },
  "train_metrics": {
    "accuracy": 0.8132168458781206,
    "brier": 0.15178795907493497,
    "count": 6578.0,
    "positive_rate": 0.23655913978492202,
    "weighted_log_loss": 0.47888454476230924
  },
  "val_metrics": {
    "accuracy": 0.7665123456790123,
    "brier": 0.1867093094135351,
    "count": 1878.0,
    "positive_rate": 0.2222222222222297,
    "weighted_log_loss": 0.5639866299109585
  },
  "weights": [
    0.12242874316651431,
    -0.007180508546998464,
    0.008105447983575513,
    0.03804696213553628,
    -0.005295043619238882,
    -0.046731459740138766,
    0.019798359055681395,
    0.05365592023859348,
    0.009781891389609474,
    -0.015748942322134234,
    0.033299171207114564,
    0.0027313037922404035,
    -0.017628500713713195,
    0.004336775622328339,
    0.0014831215892782384,
    0.015801064784252333,
    0.005030947689116267,
    0.007032473487858277,
    -0.023075541182399743,
    0.025715829398240304,
    -0.042995701723421424,
    -0.021164298111885943,
    0.007751992703499829,
    0.0055758643271294,
    -0.03384079319413242,
    -0.006065809765848457,
    0.03007799839859618,
    -0.0221409678795693,
    -0.009962927242689067,
    -0.008814648014842554,
    -0.005246838908960676,
    -0.042329487837911094,
    0.018659905939871962,
    0.0300649810989165,
    0.0072735138108322,
    -0.033891375670629234,
    0.0,
    0.0570037568685959,
    -0.40568405326995427,
    0.27224300370095283,
    0.646541576552257,
    -0.33681204599151543,
    -0.33531666420178563,
    -0.10411475412932852
  ]
}
