{
  "dataset_paths": [
    "/rdss/p57098/euijin1/caver/runs/stagee__caver-lagged__manifest-t_train_s0-all__seed7__budget50__20260416T222546Z/results/caver_dr_candidate_dataset.jsonl",
    "/rdss/p57098/euijin1/caver/runs/stagee__caver-lagged__manifest-t_train_s0-all__seed13__budget50__20260416T222546Z/results/caver_dr_candidate_dataset.jsonl",
    "/rdss/p57098/euijin1/caver/runs/stagee__caver-lagged__manifest-t_train_s0-all__seed29__budget50__20260416T222547Z/results/caver_dr_candidate_dataset.jsonl"
  ],
  "exploration_floor": 0.1,
  "feature_spec": {
    "family_ids": [
      "block_to_tray_proxy",
      "container_insertion_proxy",
      "drawer_open_proxy",
      "relocate_to_region_proxy",
      "two_object_stack_proxy"
    ],
    "include_base_progress_interaction": false,
    "include_base_progress_sq_interaction": false,
    "include_family_one_hot": true,
    "include_family_progress_interaction": true,
    "include_family_progress_sq_interaction": false,
    "include_policy_query_index": true,
    "include_policy_query_index_sq": true,
    "policy_query_index_scale": 100.0
  },
  "model_format": "stagee_lvd_selector_mlp_v1",
  "model_id": "stagee_lvd_selector_listwise_mlp_v1",
  "network": {
    "hidden_dim": 128,
    "score_head_layers": [
      {
        "activation": "identity",
        "bias": [
          2.034876585006714
        ],
        "weight": [
          [
            0.055814433842897415,
            0.015532777644693851,
            -0.002690409542992711,
            0.01814461313188076,
            0.0516599677503109,
            0.02556498348712921,
            -0.02644708752632141,
            -0.0015272845048457384,
            -0.010682586580514908,
            -0.003169849282130599,
            -0.059744928032159805,
            0.013636174611747265,
            0.031997114419937134,
            -0.015630066394805908,
            0.04382316768169403,
            0.0023200022988021374,
            0.06759686768054962,
            0.0081616947427392,
            0.0753646194934845,
            -0.039291609078645706,
            0.05011159926652908,
            0.012648978270590305,
            0.0552070289850235,
            0.026674868538975716,
            0.016180653125047684,
            0.11526738107204437,
            0.0003251283778809011,
            -0.058819737285375595,
            0.003680534427985549,
            -0.051200080662965775,
            0.037953365594148636,
            -0.047511026263237,
            0.05167413502931595,
            0.02149026282131672,
            0.08009472489356995,
            -0.011315655894577503,
            0.00766200665384531,
            -0.02605816163122654,
            -0.0035543679259717464,
            6.442316953325644e-05,
            0.025991156697273254,
            -0.032475654035806656,
            0.011252030730247498,
            -0.07553309202194214,
            0.019459500908851624,
            -0.030042234808206558,
            0.02574567124247551,
            0.013944271020591259,
            -0.0011980428826063871,
            -0.03418734297156334,
            0.0414775013923645,
            0.030685510486364365,
            -0.07120757550001144,
            -0.010882742702960968,
            -0.014115968719124794,
            -0.015514002181589603,
            -0.04964650794863701,
            -0.01805085502564907,
            0.01994694210588932,
            0.07433314621448517,
            -0.01740357093513012,
            -0.006639161612838507,
            0.038473259657621384,
            0.022122280672192574,
            -0.013745604082942009,
            -0.04192698374390602,
            0.006458380725234747,
            0.04344755411148071,
            -0.011609507724642754,
            9.19925696507562e-06,
            -0.018338771536946297,
            -0.001428704708814621,
            -0.01930401287972927,
            0.018915904685854912,
            -0.006862603593617678,
            0.039081450551748276,
            -0.0014505117433145642,
            0.00981622003018856,
            -0.028676792979240417,
            -0.004020710475742817,
            0.020831342786550522,
            -0.01142331026494503,
            -0.011404501274228096,
            0.010300771333277225,
            0.005773401353508234,
            0.009994538500905037,
            0.0893675833940506,
            0.055175140500068665,
            0.009880037046968937,
            0.0037229438312351704,
            0.01261518057435751,
            -0.01442913431674242,
            -0.006318431347608566,
            0.044889308512210846,
            0.008709307760000229,
            -0.031344715505838394,
            0.039220619946718216,
            0.005006651859730482,
            -0.0049407100304961205,
            -0.016332698985934258,
            0.017792964354157448,
            -0.0014967871829867363,
            0.060376595705747604,
            0.02488384023308754,
            0.016318675130605698,
            0.03321889787912369,
            0.07194409519433975,
            0.029952477663755417,
            0.025499558076262474,
            0.04070529714226723,
            0.07741349935531616,
            0.013411443680524826,
            -0.026342444121837616,
            -0.007877486757934093,
            0.06049082800745964,
            -0.04664047434926033,
            -0.015193057246506214,
            -0.09031768888235092,
            0.004714314825832844,
            -0.014714600518345833,
            -0.004186405334621668,
            -0.037534210830926895,
            -0.013965608552098274,
            -0.11093944311141968,
            -0.0008346016402356327,
            0.02486640401184559,
            0.01957349106669426,
            -0.027662290260195732
          ]
        ]
      }
    ],
    "trunk_layers": [
      {
        "activation": "gelu",
        "bias": [
          -0.10754693299531937,
          -0.06203160807490349,
          -0.21547959744930267,
          0.11737237125635147,
          -0.02181476168334484,
          -0.054642204195261,
          0.044753167778253555,
          0.392265647649765,
          -0.12838174402713776,
          -0.06274649500846863,
          0.26183372735977173,
          -0.37994539737701416,
          0.1985388547182083,
          -0.09425599128007889,
          -0.10027363151311874,
          0.007915904745459557,
          -0.25190356373786926,
          -0.14196966588497162,
          0.06371643394231796,
          -0.11621574312448502,
          -0.1676596701145172,
          -0.3662334978580475,
          -0.07424226403236389,
          0.0444473922252655,
          -0.2762559652328491,
          -0.04489802196621895,
          -0.26758700609207153,
          0.04741695895791054,
          -0.18731889128684998,
          -0.14467459917068481,
          -0.1318637728691101,
          -0.3609808087348938,
          0.45506179332733154,
          -0.26471173763275146,
          0.1825915277004242,
          -0.13239389657974243,
          -0.20930896699428558,
          -0.34596484899520874,
          0.10791067034006119,
          -0.08870092779397964,
          -0.35356205701828003,
          -0.1717357337474823,
          -0.31483471393585205,
          -0.3615928590297699,
          0.03471206873655319,
          0.00287429871968925,
          -0.21473635733127594,
          -0.21769800782203674,
          0.3406822085380554,
          0.24229146540164948,
          -0.07130388170480728,
          0.006121904589235783,
          0.04456907510757446,
          -0.2017906755208969,
          -0.00692682433873415,
          -0.30721139907836914,
          0.2381891906261444,
          0.1349007934331894,
          -0.05713966488838196,
          -0.4191994071006775,
          0.07378982752561569,
          -0.12432564795017242,
          -0.020611004903912544,
          -0.08647362887859344,
          -0.10359492897987366,
          -0.25631609559059143,
          -0.1935659795999527,
          -0.37605711817741394,
          0.2855892479419708,
          -0.28032413125038147,
          0.1426060050725937,
          -0.13867363333702087,
          0.18931226432323456,
          -0.2588255703449249,
          -0.19959411025047302,
          0.08701528608798981,
          -0.3262499272823334,
          -0.10655496269464493,
          0.5465803742408752,
          0.3321559727191925,
          -0.07385104149580002,
          -0.22343672811985016,
          0.07488235086202621,
          0.1492578387260437,
          -0.07322785258293152,
          0.2915250062942505,
          -0.21196052432060242,
          -0.12941817939281464,
          0.13760524988174438,
          0.242476686835289,
          -0.40944626927375793,
          -0.29904887080192566,
          0.192173570394516,
          -0.26141050457954407,
          -0.22552604973316193,
          -0.07891155779361725,
          -0.12146977335214615,
          -0.3138520419597626,
          -0.15082380175590515,
          -0.13742107152938843,
          0.33927738666534424,
          -0.08907674252986908,
          0.06722059845924377,
          -0.11523354798555374,
          0.16349317133426666,
          -0.15444976091384888,
          0.16688397526741028,
          0.13188780844211578,
          -0.0037084901705384254,
          -0.2518645226955414,
          -0.1517549455165863,
          0.21339112520217896,
          0.13214650750160217,
          0.019551284611225128,
          0.10799100250005722,
          -0.016887858510017395,
          -0.2679358124732971,
          0.04049954563379288,
          -0.17845118045806885,
          -0.12836457788944244,
          -0.30573564767837524,
          -0.1911565065383911,
          0.3783089518547058,
          -0.20651985704898834,
          0.253280907869339,
          -0.09782671928405762,
          -0.3506459593772888,
          0.17205046117305756
        ],
        "weight": [
          [
            0.11164908111095428,
            -0.2224852442741394,
            -0.11508780717849731,
            0.272112101316452,
            -0.30879485607147217,
            0.003733437042683363,
            0.2598710358142853,
            0.17276105284690857,
            -0.10386744141578674,
            0.02466966211795807,
            0.05534921586513519,
            0.2359868735074997,
            -0.0357646606862545,
            -0.10933912545442581,
            -0.09299211949110031,
            0.15207193791866302,
            -0.07577188313007355,
            -0.23271676898002625,
            0.2016816884279251,
            -0.3401396572589874,
            -0.19098815321922302,
            0.04574673995375633,
            0.09441255778074265,
            0.37297943234443665,
            -0.058178965002298355,
            -0.02003616839647293,
            0.2807898223400116,
            0.010349440388381481,
            -0.06975140422582626,
            -0.09585082530975342,
            0.24593667685985565,
            0.10027176141738892,
            0.06795915216207504,
            0.19719815254211426,
            0.3186624050140381,
            0.2334032505750656,
            0.12249138206243515,
            0.022906512022018433,
            0.21745871007442474,
            0.05009489506483078,
            0.31778275966644287,
            -0.12794151902198792,
            -0.04223811253905296,
            -0.10737160593271255,
            0.2150207906961441,
            0.04368797689676285,
            -0.022101614624261856,
            0.12089752405881882,
            -0.15201036632061005,
            -0.23279426991939545,
            -0.08133874088525772,
            0.1675284057855606,
            0.2594652771949768
          ],
          [
            0.25155729055404663,
            -0.007952441461384296,
            0.10812338441610336,
            0.007893716916441917,
            -0.05100112035870552,
            0.2313653975725174,
            0.3773873746395111,
            -0.03721391782164574,
            -0.08059784024953842,
            -0.15431538224220276,
            0.007396745961159468,
            0.017455320805311203,
            0.03089672327041626,
            -0.14345160126686096,
            -0.09498806297779083,
            -0.12120528519153595,
            -0.06040541082620621,
            -0.1312669813632965,
            -0.3640730082988739,
            -0.13391803205013275,
            0.08283376693725586,
            0.08170440047979355,
            0.23712369799613953,
            0.19631896913051605,
            -0.09612113237380981,
            0.3599558472633362,
            -0.05269652232527733,
            -0.26481136679649353,
            -0.16300784051418304,
            0.03894973546266556,
            -0.004451701417565346,
            0.03891916945576668,
            0.04637046903371811,
            0.124880850315094,
            0.28843390941619873,
            0.00803975947201252,
            0.21056221425533295,
            -0.06642720848321915,
            0.1316496729850769,
            0.07644040882587433,
            0.20592458546161652,
            -0.1956612914800644,
            -0.12910348176956177,
            -0.2177083045244217,
            -0.1303592473268509,
            0.20029641687870026,
            0.5367587804794312,
            -0.09674759954214096,
            -0.427352637052536,
            -0.38852086663246155,
            0.07316017895936966,
            0.14709094166755676,
            -0.12175042927265167
          ],
          [
            0.19050215184688568,
            0.06274885684251785,
            0.07171895354986191,
            -0.09671884775161743,
            0.12407118082046509,
            -0.00841597281396389,
            -0.06159979850053787,
            -0.02385462448000908,
            0.1272265762090683,
            0.019655635580420494,
            0.12314316630363464,
            -0.0771612897515297,
            0.022612465545535088,
            -0.07781096547842026,
            0.08894778043031693,
            -0.0962287038564682,
            -0.21994413435459137,
            -0.005213516298681498,
            0.06858231127262115,
            -0.031530629843473434,
            0.0814325138926506,
            -0.12332791090011597,
            -0.08373495191335678,
            0.0654827430844307,
            -0.16226595640182495,
            -0.21023382246494293,
            -0.09691071510314941,
            0.027573486790060997,
            0.11390455067157745,
            0.3565253019332886,
            -0.03462294116616249,
            0.12194877117872238,
            0.16113342344760895,
            0.11457672715187073,
            0.08949044346809387,
            0.16322313249111176,
            0.14527210593223572,
            -0.03419221565127373,
            -0.01519415806978941,
            0.030758455395698547,
            0.11933055520057678,
            0.0593370646238327,
            0.1382613331079483,
            0.13863469660282135,
            -0.3280959725379944,
            -0.08637414127588272,
            -0.21025466918945312,
            0.13775493204593658,
            0.1996314525604248,
            -0.22166651487350464,
            -0.04325726628303528,
            0.03490987792611122,
            0.19830605387687683
          ],
          [
            -0.01570269651710987,
            0.10590121150016785,
            -0.19038133323192596,
            -0.27849218249320984,
            -0.0837508887052536,
            -0.13440823554992676,
            -0.21402469277381897,
            0.05242148041725159,
            -0.18835236132144928,
            0.1951528787612915,
            0.07532390207052231,
            -0.05851316824555397,
            -0.1529219001531601,
            -0.001122770830988884,
            -0.1371903121471405,
            -0.1342356652021408,
            -0.08967814594507217,
            -0.03777002543210983,
            0.12298621982336044,
            0.05708389729261398,
            -0.030976872891187668,
            0.049252018332481384,
            0.053537704050540924,
            0.1500520557165146,
            0.1641535460948944,
            -0.08738107234239578,
            0.2441309690475464,
            0.07769487798213959,
            0.14799946546554565,
            0.2450518161058426,
            0.12453798949718475,
            0.34512045979499817,
            0.3198806643486023,
            0.05126170814037323,
            -0.056528497487306595,
            -0.02065763808786869,
            0.07495415210723877,
            0.23082923889160156,
            0.04907893016934395,
            -0.024234149605035782,
            -0.0503678172826767,
            0.0005030250176787376,
            0.08752568811178207,
            -0.3460123836994171,
            -0.40944504737854004,
            -0.052991002798080444,
            0.7505018711090088,
            0.31718066334724426,
            -0.2788166105747223,
            -0.32393744587898254,
            0.16424760222434998,
            0.3995022475719452,
            0.320794016122818
          ],
          [
            0.16568882763385773,
            0.14116540551185608,
            0.049571841955184937,
            0.2103944718837738,
            -0.2703540325164795,
            -0.002694501308724284,
            -0.10396023094654083,
            0.07358261942863464,
            0.1494791954755783,
            0.040743667632341385,
            -0.00023521046387031674,
            0.0016506107058376074,
            0.09873110800981522,
            0.0214377548545599,
            -0.24421505630016327,
            -0.030071018263697624,
            -0.14688238501548767,
            -0.1485721915960312,
            -0.04589305818080902,
            0.03010243922472,
            0.06393732130527496,
            0.16721825301647186,
            0.04989229142665863,
            0.10395513474941254,
            -0.19277188181877136,
            0.23310910165309906,
            0.1298515647649765,
            0.013804770074784756,
            0.02065768837928772,
            -0.06733029335737228,
            -0.07169497013092041,
            0.0919821709394455,
            0.17077931761741638,
            0.37935131788253784,
            0.2734108865261078,
            0.17099998891353607,
            0.28309041261672974,
            0.15791818499565125,
            0.37470805644989014,
            0.2783624529838562,
            0.3025248348712921,
            0.1329403817653656,
            -0.0962362289428711,
            0.02687631919980049,
            -0.0812990590929985,
            0.36321136355400085,
            0.012060700915753841,
            0.0701000839471817,
            -0.18736501038074493,
            0.024500267580151558,
            0.20871247351169586,
            -0.03732339292764664,
            0.14880238473415375
          ],
          [
            -0.11019143462181091,
            -0.01081786584109068,
            -0.44234928488731384,
            0.10197573900222778,
            0.09709270298480988,
            -0.18070556223392487,
            0.011876598000526428,
            0.017491426318883896,
            -0.06713751703500748,
            -0.07857435196638107,
            -0.07044732570648193,
            0.0400548130273819,
            0.0700126364827156,
            -0.08646664768457413,
            0.07238113880157471,
            0.579941987991333,
            0.18187853693962097,
            -0.45009535551071167,
            0.25082385540008545,
            -0.22080251574516296,
            -0.14828626811504364,
            -0.06231090426445007,
            -0.4603058397769928,
            0.35632529854774475,
            0.02015615813434124,
            -0.32891613245010376,
            0.024976184591650963,
            0.20418481528759003,
            -0.0878211036324501,
            0.017392516136169434,
            -0.11001110076904297,
            0.0038366501685231924,
            0.18583618104457855,
            -0.12059811502695084,
            0.008315223269164562,
            0.11615439504384995,
            -0.039909668266773224,
            0.013875412754714489,
            0.02195795439183712,
            -0.06298796087503433,
            -0.1379566639661789,
            -0.12214203178882599,
            -0.13655880093574524,
            -0.1419162005186081,
            -0.09070112556219101,
            0.21967202425003052,
            -0.11825025826692581,
            -0.036391954869031906,
            -0.20539364218711853,
            0.055726878345012665,
            0.2196325957775116,
            -0.06601404398679733,
            0.17383405566215515
          ],
          [
            0.0790388211607933,
            -0.08124499768018723,
            0.2096012681722641,
            0.21070435643196106,
            -0.19607993960380554,
            -0.0858553946018219,
            -0.27037882804870605,
            -0.14197108149528503,
            0.057880647480487823,
            -0.07311385869979858,
            -0.41238754987716675,
            -0.06120464950799942,
            -0.000651261187158525,
            -0.06969478726387024,
            0.11230248957872391,
            -0.4411953091621399,
            -0.04561236500740051,
            0.06736347824335098,
            -0.33720898628234863,
            0.04274371266365051,
            0.3102289140224457,
            -0.2523057162761688,
            0.2900390625,
            0.03762612119317055,
            0.18701480329036713,
            0.3877190947532654,
            -0.15609300136566162,
            0.03499647602438927,
            0.06763708591461182,
            0.06913799792528152,
            -0.0930708572268486,
            0.08535018563270569,
            -0.11112484335899353,
            0.15717630088329315,
            -0.019642680883407593,
            0.15890033543109894,
            -0.26249802112579346,
            -0.12761321663856506,
            0.0021716426126658916,
            0.22048962116241455,
            -0.014226733706891537,
            0.19546906650066376,
            0.15759646892547607,
            0.1352923959493637,
            -0.22015085816383362,
            -0.09308190643787384,
            0.17275086045265198,
            -0.028602438047528267,
            0.11362107843160629,
            0.03635914996266365,
            -0.13495105504989624,
            -0.0711110457777977,
            0.0940362736582756
          ],
          [
            0.1275431513786316,
            0.229758620262146,
            0.2609519064426422,
            0.08261364698410034,
            0.0516638457775116,
            -0.17173652350902557,
            -0.006016672123223543,
            0.02890179678797722,
            0.23773959279060364,
            0.10763561725616455,
            0.28786587715148926,
            -0.16416223347187042,
            0.10163185000419617,
            -0.21196532249450684,
            0.10531353950500488,
            0.023869933560490608,
            -0.2701622545719147,
            -0.09409990906715393,
            0.09514573961496353,
            -0.09439166635274887,
            0.0774923786520958,
            -0.03168536350131035,
            -0.34675779938697815,
            0.00277235871180892,
            -0.1822936236858368,
            0.09037719666957855,
            0.09612739831209183,
            0.1427048295736313,
            0.12029055505990982,
            0.25248295068740845,
            0.21231596171855927,
            0.2226472795009613,
            -0.04942554980516434,
            0.08861084282398224,
            0.12581801414489746,
            0.015885422006249428,
            0.14748992025852203,
            0.06348307430744171,
            0.06141079217195511,
            0.10191336274147034,
            -0.11384640634059906,
            -0.14165887236595154,
            0.06322144716978073,
            -0.11480330675840378,
            -0.5383185148239136,
            -0.20809216797351837,
            0.23473981022834778,
            0.26064610481262207,
            0.01432900782674551,
            -0.48604434728622437,
            -0.1914808303117752,
            0.17375308275222778,
            0.16972540318965912
          ],
          [
            -0.06384944915771484,
            0.008531582541763783,
            0.589689314365387,
            -0.08245787769556046,
            -0.34179171919822693,
            0.14594890177249908,
            -0.4115370213985443,
            -0.38490888476371765,
            -0.22993174195289612,
            -0.08120191097259521,
            0.18088679015636444,
            0.05157129466533661,
            0.12542113661766052,
            -0.07894834131002426,
            0.02706822007894516,
            0.16710461676120758,
            0.10294649749994278,
            0.08389261364936829,
            0.06498217582702637,
            -0.25814804434776306,
            0.19138531386852264,
            0.3331409990787506,
            -0.005476255435496569,
            -0.4672505855560303,
            0.012352732010185719,
            0.09566077589988708,
            0.06252091377973557,
            0.13066774606704712,
            0.06797479838132858,
            0.040660493075847626,
            -0.0691814124584198,
            0.13460658490657806,
            -0.010668004862964153,
            -0.08385168015956879,
            -0.1323830634355545,
            0.1273171603679657,
            -0.04028167203068733,
            0.2282695472240448,
            0.09574344754219055,
            -0.013963090255856514,
            -0.1480458378791809,
            0.04400179162621498,
            0.008516810834407806,
            0.06225905194878578,
            0.11752738803625107,
            0.12380024045705795,
            -0.011620517820119858,
            -0.05800708755850792,
            -0.05154203623533249,
            -0.009807061403989792,
            0.06227095425128937,
            0.10155908018350601,
            0.22145873308181763
          ],
          [
            0.026943380013108253,
            0.07018978148698807,
            -0.04168179631233215,
            0.1261117160320282,
            0.010823835618793964,
            0.0063091362826526165,
            -0.45264971256256104,
            -0.02306302823126316,
            0.058600205928087234,
            0.025441231206059456,
            0.11163733154535294,
            0.13680604100227356,
            -0.06056397035717964,
            0.01966417208313942,
            0.18352393805980682,
            -0.14288584887981415,
            0.018756410107016563,
            -0.13990704715251923,
            0.005990771576762199,
            0.007997116073966026,
            0.1131620928645134,
            -0.2327604740858078,
            -0.0935346782207489,
            0.0029327552765607834,
            -0.20554392039775848,
            -0.029861537739634514,
            0.07791594415903091,
            0.1211317926645279,
            0.10169574618339539,
            0.2974945306777954,
            0.036900199949741364,
            -0.010932591743767262,
            0.018777664750814438,
            0.1955629587173462,
            -0.2064732313156128,
            0.18812397122383118,
            -0.11313242465257645,
            0.06603322178125381,
            -0.01273990049958229,
            0.0036043673753738403,
            -0.20334011316299438,
            0.15943467617034912,
            0.08604154735803604,
            -0.1315397024154663,
            0.09357171505689621,
            0.13413335382938385,
            -0.04848577827215195,
            0.061365578323602676,
            0.13738813996315002,
            0.14786304533481598,
            0.09767001867294312,
            0.12319858372211456,
            0.17144884169101715
          ],
          [
            0.01731950044631958,
            0.0365152470767498,
            -0.2783675491809845,
            -0.040239185094833374,
            0.24809466302394867,
            0.08699813485145569,
            0.23953896760940552,
            -0.14253705739974976,
            0.2467736005783081,
            -0.0918021947145462,
            -0.12694314122200012,
            -0.11621423810720444,
            -0.03178688883781433,
            -0.18669073283672333,
            0.1594652235507965,
            -0.1862870305776596,
            0.27726370096206665,
            0.19596032798290253,
            0.1381346732378006,
            0.01948896050453186,
            0.3506034314632416,
            0.02432936057448387,
            -0.047833751887083054,
            0.2493983805179596,
            -0.14502936601638794,
            -0.1742229163646698,
            -0.10700197517871857,
            -0.0605325773358345,
            -0.2523762583732605,
            -0.005636722780764103,
            0.052509523928165436,
            0.16975677013397217,
            -0.04866722226142883,
            -0.2749933898448944,
            -0.16783267259597778,
            -0.216318741440773,
            -0.29486387968063354,
            -0.08006569743156433,
            -0.2795502245426178,
            -0.1769891381263733,
            -0.17518571019172668,
            -0.0686122328042984,
            -0.14359620213508606,
            -0.06796716153621674,
            -0.3341691792011261,
            0.17261826992034912,
            0.7782459855079651,
            -0.027752311900258064,
            -0.18744757771492004,
            -0.1538020670413971,
            -0.08031529933214188,
            0.3735249936580658,
            -0.21874168515205383
          ],
          [
            0.019756902009248734,
            0.20050381124019623,
            -0.06862553209066391,
            -0.16753166913986206,
            -0.024461334571242332,
            0.07796313613653183,
            0.04645005613565445,
            -0.2668127119541168,
            -0.003015045542269945,
            0.05279668793082237,
            -0.0956990048289299,
            -0.08997134864330292,
            0.08088765293359756,
            0.11900004744529724,
            -0.05872431397438049,
            -0.11712746322154999,
            0.1254255473613739,
            0.1643802970647812,
            -0.16634345054626465,
            0.039894815534353256,
            0.07555503398180008,
            0.2831559181213379,
            -0.23861421644687653,
            -0.19470614194869995,
            -0.18082883954048157,
            0.10839784890413284,
            -0.028887668624520302,
            -0.018549200147390366,
            -0.078953318297863,
            0.156240314245224,
            0.0726754441857338,
            0.008205901831388474,
            0.021119356155395508,
            0.24490350484848022,
            0.1238553524017334,
            0.00648097088560462,
            0.02779512293636799,
            0.00036790731246583164,
            0.29581788182258606,
            0.19386453926563263,
            0.09401439130306244,
            0.01609407737851143,
            0.16748902201652527,
            -0.13778281211853027,
            0.04297961667180061,
            0.07932472974061966,
            -0.1875448077917099,
            -0.014198933728039265,
            0.01354789175093174,
            0.04819725081324577,
            0.1525925099849701,
            0.00933267641812563,
            0.22750549018383026
          ],
          [
            -0.19384649395942688,
            0.06511415541172028,
            -0.021155383437871933,
            0.018812939524650574,
            0.12565714120864868,
            -0.020173454657197,
            -0.28967106342315674,
            0.18949276208877563,
            0.026805873960256577,
            -0.3491704761981964,
            -0.20057076215744019,
            0.0998237207531929,
            -0.2880275845527649,
            0.10379408299922943,
            -0.04656006768345833,
            -0.12270576506853104,
            0.15484237670898438,
            -0.11445815116167068,
            -0.29058343172073364,
            0.38005417585372925,
            0.09156648814678192,
            -0.11731278896331787,
            0.22104673087596893,
            -0.13350531458854675,
            0.1558760702610016,
            0.1046726256608963,
            -0.07550863176584244,
            0.0642886683344841,
            -0.08179344236850739,
            -0.21236300468444824,
            -0.27904877066612244,
            0.07486800104379654,
            -0.016051482409238815,
            -0.3796224892139435,
            0.00825966615229845,
            -0.2216373234987259,
            -0.08708135783672333,
            0.03770286217331886,
            -0.025986086577177048,
            -0.2707001268863678,
            -0.06699340045452118,
            0.11482881009578705,
            0.29365864396095276,
            -9.59229510044679e-06,
            0.04534374177455902,
            0.1978197544813156,
            0.21397294104099274,
            0.006318858824670315,
            -0.0013402204494923353,
            -0.03450904041528702,
            0.09683871269226074,
            0.09871210157871246,
            -0.098101407289505
          ],
          [
            -0.08307740092277527,
            0.1076836809515953,
            0.19391591846942902,
            0.0884934738278389,
            0.23245567083358765,
            0.136957049369812,
            -0.032823480665683746,
            -0.008899969048798084,
            0.27887219190597534,
            -0.03780778497457504,
            -0.12671534717082977,
            -0.23013560473918915,
            0.019312309101223946,
            -0.2086387723684311,
            -0.2277587652206421,
            0.02640887349843979,
            0.12778227031230927,
            0.19718757271766663,
            -0.08284684270620346,
            -0.3311430513858795,
            0.2693241238594055,
            0.20321901142597198,
            -0.3263479769229889,
            -0.24279534816741943,
            0.06891342997550964,
            0.24039939045906067,
            -0.04955567792057991,
            -0.09384486824274063,
            0.11616791039705276,
            0.017659978941082954,
            0.07110638171434402,
            -0.040289830416440964,
            0.19765982031822205,
            -0.10957346111536026,
            -0.15025338530540466,
            -0.08981334418058395,
            -0.0806601494550705,
            0.28966784477233887,
            -0.1667671948671341,
            -0.3327029347419739,
            -0.2550700902938843,
            0.036500513553619385,
            0.15218764543533325,
            -0.26657915115356445,
            0.1238180622458458,
            0.1416846364736557,
            0.29762017726898193,
            -0.07583768665790558,
            -0.016579609364271164,
            -0.15237027406692505,
            0.14601373672485352,
            0.21450570225715637,
            0.056288812309503555
          ],
          [
            0.23325900733470917,
            0.2415311336517334,
            -0.10656619071960449,
            0.08470375090837479,
            0.19686540961265564,
            0.45313191413879395,
            0.007373032160103321,
            -0.02098633348941803,
            0.2074403613805771,
            -0.5358563661575317,
            0.01309856865555048,
            -0.37973785400390625,
            0.10132260620594025,
            0.07073492556810379,
            0.22590260207653046,
            -0.4938737154006958,
            0.03012966737151146,
            0.09833673387765884,
            0.24804586172103882,
            -0.03450440987944603,
            -0.024408763274550438,
            -0.0780835896730423,
            0.08696870505809784,
            0.24349617958068848,
            -0.3603687882423401,
            -0.32191944122314453,
            -0.38831040263175964,
            -0.03180350363254547,
            0.06900636106729507,
            0.23883795738220215,
            -0.20180167257785797,
            0.1560225635766983,
            0.022579768672585487,
            0.22917014360427856,
            -0.08204973489046097,
            0.24542734026908875,
            -0.15179714560508728,
            0.04708433151245117,
            -0.12745551764965057,
            0.23733960092067719,
            -0.1920555830001831,
            0.12209043651819229,
            0.019004762172698975,
            -0.20800724625587463,
            0.049677297472953796,
            0.05132391303777695,
            0.10218514502048492,
            -0.060488469898700714,
            -0.27807193994522095,
            0.16905240714550018,
            0.1336144655942917,
            0.19227761030197144,
            0.11934562027454376
          ],
          [
            0.18684838712215424,
            0.015977852046489716,
            -0.12733644247055054,
            -0.1451563835144043,
            -0.1404767781496048,
            0.32318979501724243,
            0.13972637057304382,
            -0.20069874823093414,
            -0.16826637089252472,
            0.2198202759027481,
            -0.3800707757472992,
            -0.18875382840633392,
            -0.16020028293132782,
            -0.32149577140808105,
            0.21966680884361267,
            0.07497857511043549,
            -0.3726077973842621,
            0.17249377071857452,
            0.11027255654335022,
            -0.17644459009170532,
            -0.05207735672593117,
            -0.2822437882423401,
            0.3018558919429779,
            0.2368140071630478,
            0.22991494834423065,
            0.3827606737613678,
            0.062012679874897,
            0.07224830240011215,
            0.34299033880233765,
            -0.006630884483456612,
            0.08113853633403778,
            0.1938091665506363,
            0.02961275354027748,
            0.2260044664144516,
            -0.0069123185239732265,
            0.01622881181538105,
            0.15063254535198212,
            0.17557597160339355,
            -0.037466999143362045,
            0.15276409685611725,
            0.06887027621269226,
            -0.11300241947174072,
            -0.06066572293639183,
            -0.024158889427781105,
            -0.1374184638261795,
            0.11620885878801346,
            0.032653629779815674,
            0.17356149852275848,
            -0.03542372211813927,
            0.024129454046487808,
            0.1364326775074005,
            0.07493556290864944,
            -0.010114286094903946
          ],
          [
            -0.06654351204633713,
            -0.2211553454399109,
            0.2895753085613251,
            -0.19212940335273743,
            0.019872209057211876,
            -0.10662385821342468,
            0.3396766781806946,
            0.4129270613193512,
            0.016324713826179504,
            0.2089015692472458,
            -0.2249334752559662,
            -0.26157328486442566,
            0.05020405724644661,
            0.12138328701257706,
            -0.15248480439186096,
            0.22377696633338928,
            -0.021560927852988243,
            0.015219472348690033,
            0.027017410844564438,
            0.09155795723199844,
            -0.15104080736637115,
            -0.13348421454429626,
            0.03521179035305977,
            -0.22894932329654694,
            0.1948128044605255,
            -0.07003168016672134,
            -0.11167490482330322,
            -0.22211875021457672,
            -0.030339784920215607,
            -0.23716744780540466,
            -0.1283603310585022,
            0.29583925008773804,
            0.15350738167762756,
            -0.09008367359638214,
            0.006834315601736307,
            -0.1432105302810669,
            0.03438936918973923,
            0.04530118405818939,
            -0.012504775077104568,
            -0.18996310234069824,
            0.10840966552495956,
            0.05523627623915672,
            -0.005028070416301489,
            -0.06228647008538246,
            -0.02721574902534485,
            0.05451385676860809,
            0.2057206630706787,
            -0.02686171978712082,
            -0.06305573135614395,
            0.12352162599563599,
            0.12901321053504944,
            0.04763690009713173,
            0.23028936982154846
          ],
          [
            0.006132656242698431,
            -0.23526063561439514,
            -0.20787501335144043,
            -0.02047387883067131,
            0.0012580759357661009,
            -0.10178720951080322,
            0.04732590913772583,
            -0.1441156268119812,
            -0.06357695162296295,
            -0.22684839367866516,
            0.28755930066108704,
            -0.029768627136945724,
            0.018818125128746033,
            -0.24105121195316315,
            -0.22614169120788574,
            -0.041769713163375854,
            0.019878389313817024,
            -0.12563587725162506,
            0.12083914130926132,
            -0.059500522911548615,
            0.24862024188041687,
            0.413566529750824,
            0.4158366918563843,
            0.3246847689151764,
            -0.18304993212223053,
            0.017077220603823662,
            -0.020227475091814995,
            0.15120631456375122,
            0.029854707419872284,
            0.08732146769762039,
            -0.0825963169336319,
            -0.04038665443658829,
            0.10691267251968384,
            -0.055851321667432785,
            -0.2022497057914734,
            -0.09087428450584412,
            -0.15742678940296173,
            0.08481664955615997,
            -0.1546323299407959,
            -0.034012869000434875,
            0.0010809608502313495,
            0.28784605860710144,
            0.2832503020763397,
            -0.013976937159895897,
            0.06155567243695259,
            0.10263075679540634,
            -0.023247715085744858,
            0.20800015330314636,
            0.11152543127536774,
            -0.03834216296672821,
            0.1529371440410614,
            0.199117511510849,
            0.25184309482574463
          ],
          [
            -0.09107339382171631,
            -0.318245530128479,
            0.2401384711265564,
            0.004194248933345079,
            0.10374891012907028,
            -0.23363183438777924,
            0.4235602617263794,
            0.0020140453707426786,
            0.28394439816474915,
            -0.022650757804512978,
            -0.0005559968412853777,
            0.27670279145240784,
            0.20656642317771912,
            -0.4540797770023346,
            -0.029338406398892403,
            0.012276854366064072,
            -0.2240143120288849,
            0.08950202167034149,
            0.11687254905700684,
            0.0092640845105052,
            0.14933854341506958,
            0.2317894548177719,
            0.23423226177692413,
            0.33865290880203247,
            -0.05970713496208191,
            -0.2554083466529846,
            0.1360655128955841,
            0.02510100230574608,
            -0.015477406792342663,
            -0.0697580873966217,
            -0.3009108901023865,
            -0.046311769634485245,
            0.1492079794406891,
            -0.24386481940746307,
            0.01458121556788683,
            -0.11002557724714279,
            -0.10330761224031448,
            0.12205907702445984,
            -0.08701211214065552,
            -0.15859262645244598,
            0.0677299052476883,
            0.0019105265382677317,
            0.04369840398430824,
            0.01646425388753414,
            -0.19306470453739166,
            0.18696746230125427,
            0.31238800287246704,
            0.12230608612298965,
            0.05971776694059372,
            -0.04185754805803299,
            0.049008291214704514,
            0.20569559931755066,
            -0.04276682436466217
          ],
          [
            0.2787247598171234,
            -0.21490012109279633,
            -0.22342979907989502,
            -0.048109736293554306,
            -0.24042366445064545,
            -0.32926100492477417,
            0.0725790411233902,
            -0.02069866843521595,
            0.10920257866382599,
            0.06397059559822083,
            0.12303272634744644,
            -0.032459806650877,
            -0.054943475872278214,
            -0.12376797944307327,
            -0.13191503286361694,
            -0.20103619992733002,
            0.1894436478614807,
            -0.058569781482219696,
            -0.04752720892429352,
            0.3352202773094177,
            -0.06804293394088745,
            -0.09198643267154694,
            0.16931481659412384,
            0.07472694665193558,
            -0.08169718086719513,
            0.38338908553123474,
            0.017196327447891235,
            -0.06731943041086197,
            -0.014831452630460262,
            0.11902086436748505,
            0.26656585931777954,
            0.30548495054244995,
            0.09544430673122406,
            -0.0758528783917427,
            0.20616255700588226,
            -0.020055048167705536,
            0.008919118903577328,
            0.4038389325141907,
            -0.009011403657495975,
            -0.15428303182125092,
            -0.01181699801236391,
            0.31542426347732544,
            0.5107990503311157,
            -0.192837655544281,
            -0.10471340268850327,
            0.13441963493824005,
            0.059270333498716354,
            0.13338415324687958,
            0.0002151654043700546,
            -0.0510573647916317,
            0.24248142540454865,
            0.3494216203689575,
            0.34483596682548523
          ],
          [
            -0.13034921884536743,
            -0.016419783234596252,
            0.29114627838134766,
            -0.1331876516342163,
            -0.23554842174053192,
            0.03169194608926773,
            0.089760422706604,
            -0.04807845130562782,
            -0.2635343074798584,
            0.15378551185131073,
            -0.017490243539214134,
            -0.019669033586978912,
            -0.016333721578121185,
            -0.04324518144130707,
            0.23061570525169373,
            0.34765371680259705,
            0.2898629903793335,
            0.014664271846413612,
            0.04829147830605507,
            -0.1923454850912094,
            0.19899609684944153,
            0.05641389638185501,
            -0.03744643181562424,
            -0.7545772194862366,
            0.1429297775030136,
            0.02049899473786354,
            0.13013756275177002,
            -0.17263655364513397,
            -0.07997935265302658,
            -0.0031643842812627554,
            0.08595980703830719,
            -0.06261885166168213,
            -0.1273110955953598,
            -0.06400597840547562,
            -0.13758736848831177,
            -0.08791756629943848,
            -0.07419981062412262,
            0.05628698319196701,
            0.11276291310787201,
            0.00727824866771698,
            0.022328540682792664,
            0.06169265881180763,
            -0.08220846951007843,
            0.029910098761320114,
            -0.007521934807300568,
            -0.0558382049202919,
            -0.16713698208332062,
            0.08575154840946198,
            -0.07758577913045883,
            0.06863614916801453,
            0.11837022751569748,
            -0.10704292356967926,
            0.0904022604227066
          ],
          [
            0.20819421112537384,
            -0.051552508026361465,
            -0.09740898758172989,
            0.05691719055175781,
            -0.10633116215467453,
            -0.20749431848526,
            0.2835546135902405,
            0.09364130347967148,
            0.3214264214038849,
            0.19014006853103638,
            0.2980184853076935,
            0.01189828384667635,
            -0.0005413678009063005,
            -0.10089443624019623,
            -0.12667754292488098,
            -0.08641640096902847,
            -0.06159478425979614,
            -0.29552027583122253,
            0.2588309943675995,
            -0.1388283222913742,
            -0.37902557849884033,
            0.02542761154472828,
            0.07404211908578873,
            -0.19865207374095917,
            0.06417913734912872,
            -0.07695452123880386,
            0.25700050592422485,
            0.14897306263446808,
            -0.05754409357905388,
            0.23692907392978668,
            0.2609531879425049,
            0.11553259938955307,
            -0.04722858965396881,
            -0.014175164513289928,
            0.049580663442611694,
            -0.024424800649285316,
            -0.10376479476690292,
            0.03731626644730568,
            -0.031474772840738297,
            0.015097524970769882,
            -0.05944489315152168,
            -0.13971488177776337,
            -0.130753755569458,
            0.024893060326576233,
            0.23341037333011627,
            0.028581658378243446,
            0.05477277562022209,
            0.11152694374322891,
            -0.2783428132534027,
            -0.15467384457588196,
            0.0347243994474411,
            -0.11179902404546738,
            0.11652739346027374
          ],
          [
            0.30373138189315796,
            -0.15766561031341553,
            0.05638531222939491,
            -0.040511660277843475,
            0.03027370013296604,
            0.019135888665914536,
            0.16056594252586365,
            0.11240621656179428,
            -0.06053311377763748,
            0.3770967721939087,
            0.06477107852697372,
            -0.045664310455322266,
            -0.34970033168792725,
            0.05966449901461601,
            -0.20750518143177032,
            -0.522534966468811,
            -0.0640486627817154,
            0.30701911449432373,
            -0.10897228121757507,
            0.15731467306613922,
            -0.2223813533782959,
            0.03542347252368927,
            0.4334827959537506,
            -0.23711375892162323,
            -0.15637046098709106,
            0.1870238333940506,
            0.19948343932628632,
            0.1425723433494568,
            0.11488810926675797,
            0.2063748985528946,
            0.10335076600313187,
            0.17096273601055145,
            0.050096187740564346,
            -0.12250953912734985,
            0.03252400830388069,
            -0.09780772775411606,
            -0.028124861419200897,
            -0.07945138961076736,
            -0.18053357303142548,
            -0.18778954446315765,
            0.03775900974869728,
            0.15916568040847778,
            0.041103117167949677,
            0.001476819277741015,
            0.031569406390190125,
            0.07763083279132843,
            0.1725519746541977,
            -0.10710819810628891,
            0.17328138649463654,
            -0.0850711464881897,
            0.15838979184627533,
            0.12764322757720947,
            0.09674618393182755
          ],
          [
            0.23044009506702423,
            0.0029813270084559917,
            -0.05774340778589249,
            0.2360324114561081,
            0.03507531061768532,
            -0.06102753430604935,
            0.20248426496982574,
            0.17704010009765625,
            0.2597194314002991,
            -0.11427697539329529,
            0.2498040646314621,
            0.2040354460477829,
            -0.08310915529727936,
            -0.17230607569217682,
            -0.16948682069778442,
            -0.02702975831925869,
            0.11326286941766739,
            -0.4730564057826996,
            -0.12524579465389252,
            -0.13771571218967438,
            -0.2850119471549988,
            -0.012667856179177761,
            0.0323769636452198,
            0.1735304296016693,
            0.05854713171720505,
            0.11411886662244797,
            0.214975044131279,
            0.21599029004573822,
            -0.1431605964899063,
            0.12436823546886444,
            0.08391531556844711,
            -0.12314840406179428,
            -0.04216891527175903,
            0.2040058821439743,
            0.252363383769989,
            -0.12528498470783234,
            0.16833476722240448,
            0.13871940970420837,
            0.19860215485095978,
            -0.06571048498153687,
            0.16387195885181427,
            -0.06524619460105896,
            -0.005509238690137863,
            0.012929897755384445,
            -0.023555690422654152,
            -0.04644833505153656,
            -0.006468477193266153,
            0.06021534278988838,
            -0.19488708674907684,
            -0.2142762839794159,
            -0.010604743845760822,
            0.20699173212051392,
            -0.18430161476135254
          ],
          [
            0.2715742588043213,
            -0.12690745294094086,
            -0.12406481802463531,
            0.2971806824207306,
            -0.2340274304151535,
            -0.20630516111850739,
            0.3497490882873535,
            -0.20841866731643677,
            -0.1280163824558258,
            0.05858510360121727,
            -0.14570708572864532,
            0.1347278505563736,
            0.2171640545129776,
            0.12349453568458557,
            -0.17273738980293274,
            -0.33069127798080444,
            -0.21262799203395844,
            -0.2636398375034332,
            0.32074108719825745,
            -0.1959610879421234,
            -0.048276372253894806,
            0.1381944715976715,
            0.3024819791316986,
            0.07927381247282028,
            -0.11547748744487762,
            0.17174848914146423,
            0.2837628126144409,
            -0.337242066860199,
            0.30443689227104187,
            0.05657179653644562,
            0.2597202658653259,
            0.12397770583629608,
            0.06176690757274628,
            0.06258516758680344,
            -0.08575117588043213,
            -0.03461474925279617,
            0.1090424507856369,
            0.08068589866161346,
            0.06333775073289871,
            -0.05824447050690651,
            0.13239333033561707,
            0.09674123674631119,
            0.047121621668338776,
            -0.27265483140945435,
            0.19648443162441254,
            0.02234872430562973,
            0.08388523012399673,
            0.05017789825797081,
            -0.40791165828704834,
            -0.13250263035297394,
            0.19733479619026184,
            0.09468519687652588,
            0.12984567880630493
          ],
          [
            -0.03355615213513374,
            0.0989069938659668,
            -0.2378343939781189,
            -0.21017946302890778,
            -0.044370267540216446,
            0.09824370592832565,
            -0.05967877060174942,
            -0.18713150918483734,
            -0.1192287728190422,
            0.032502710819244385,
            -0.08960230648517609,
            -0.07055731862783432,
            0.02812337502837181,
            0.17188948392868042,
            -0.1226595863699913,
            -0.04881639406085014,
            0.21879743039608002,
            0.21053706109523773,
            0.011841859668493271,
            -0.1597893387079239,
            0.3233427107334137,
            0.16981223225593567,
            -0.11464464664459229,
            -0.0611748993396759,
            -0.1376257687807083,
            -0.029126526787877083,
            -0.26454195380210876,
            -0.0377456434071064,
            0.1769079566001892,
            0.08733737468719482,
            -0.11212863773107529,
            -0.26309919357299805,
            -0.09237423539161682,
            -0.01762661524116993,
            -0.0748954564332962,
            -0.07717261463403702,
            -0.27082112431526184,
            0.17327925562858582,
            -0.20130299031734467,
            -0.20243117213249207,
            -0.016954632475972176,
            -0.2620418965816498,
            -0.16324272751808167,
            0.12945829331874847,
            0.1626925766468048,
            -0.160138800740242,
            -0.18137294054031372,
            0.010234751738607883,
            -0.2729782462120056,
            -0.08248037099838257,
            -0.05729427561163902,
            -0.1517675369977951,
            0.022624071687459946
          ],
          [
            -0.018389521166682243,
            0.4562423825263977,
            -0.11086392402648926,
            -0.04798773676156998,
            -0.18659856915473938,
            0.3266191780567169,
            -0.10941492021083832,
            -0.17617012560367584,
            -0.18484574556350708,
            -0.11255805939435959,
            0.09519100934267044,
            -0.046729329973459244,
            -0.08010678738355637,
            0.033719975501298904,
            -0.11619819700717926,
            -0.3721257746219635,
            0.280077189207077,
            0.09330825507640839,
            0.14459726214408875,
            -0.17596697807312012,
            0.16742557287216187,
            0.1790412813425064,
            -0.13292643427848816,
            -0.18677756190299988,
            -0.15786314010620117,
            0.28650331497192383,
            -0.2306055873632431,
            0.09584950655698776,
            -0.050309643149375916,
            0.04658792167901993,
            -0.21883909404277802,
            0.07828568667173386,
            0.002339642960578203,
            0.06593043357133865,
            -0.02851417474448681,
            0.15172022581100464,
            -0.018711179494857788,
            0.09445890784263611,
            -0.09876226633787155,
            0.10297133028507233,
            -0.03522831201553345,
            -0.0249217227101326,
            -0.11235503852367401,
            0.015146909281611443,
            0.09739494323730469,
            0.18391160666942596,
            -0.08927726000547409,
            0.06292452663183212,
            -0.18182455003261566,
            0.07807399332523346,
            0.041874565184116364,
            0.009365761652588844,
            0.13645727932453156
          ],
          [
            -0.24937975406646729,
            -0.15852774679660797,
            0.043819304555654526,
            0.01633409410715103,
            -0.005132811609655619,
            -0.18208368122577667,
            0.0339704230427742,
            0.42537257075309753,
            0.017069945111870766,
            0.09554115682840347,
            -0.09070952236652374,
            0.1882518231868744,
            -0.0399140901863575,
            0.1658223420381546,
            0.003246560925617814,
            -0.11482071876525879,
            -0.41358375549316406,
            -0.1113765686750412,
            -0.10651905834674835,
            0.21327733993530273,
            -0.14006122946739197,
            0.017497679218649864,
            0.2979027032852173,
            0.3529597818851471,
            0.1388465315103531,
            -0.12964940071105957,
            0.0359782874584198,
            -0.11356683075428009,
            -0.1947888880968094,
            -0.015181989409029484,
            -0.26121261715888977,
            0.2521441578865051,
            0.1768081784248352,
            0.009890074841678143,
            0.17238439619541168,
            -0.021097330376505852,
            0.30820927023887634,
            -0.08813585340976715,
            0.040422167629003525,
            -0.05523957684636116,
            0.029054861515760422,
            0.040231816470623016,
            -0.010715194046497345,
            0.07267799228429794,
            -0.4621571898460388,
            0.2682693302631378,
            0.061534687876701355,
            0.0441368967294693,
            -0.04603377357125282,
            -0.48178812861442566,
            -0.022699857130646706,
            0.10259951651096344,
            -0.05614732950925827
          ],
          [
            0.07392653077840805,
            0.12669852375984192,
            -0.19371429085731506,
            0.0035873681772500277,
            0.18168209493160248,
            -0.015280191786587238,
            -0.011180334724485874,
            -0.12600642442703247,
            -0.014300617389380932,
            -0.061939045786857605,
            -0.029212797060608864,
            -0.11335252225399017,
            0.05444097891449928,
            -0.05727724730968475,
            0.15589433908462524,
            -0.24045507609844208,
            -0.128916397690773,
            0.10138890892267227,
            0.0406670980155468,
            0.1632150113582611,
            -0.019689328968524933,
            -0.05419383943080902,
            0.03731294721364975,
            0.2518558204174042,
            -0.22936171293258667,
            -0.04713045433163643,
            -0.04496374353766441,
            0.009064690209925175,
            -0.04610550403594971,
            -0.12218731641769409,
            -0.12805862724781036,
            0.2027065008878708,
            0.1461428701877594,
            0.021626215428113937,
            0.005138365086168051,
            0.11405514180660248,
            0.05733012035489082,
            0.08093415945768356,
            -0.14159610867500305,
            0.06667999923229218,
            0.029975565150380135,
            0.0973544716835022,
            0.2142428457736969,
            -0.06710468977689743,
            -0.11170148104429245,
            0.2673179805278778,
            0.31557413935661316,
            0.06696461141109467,
            -0.13877052068710327,
            -0.21022950112819672,
            0.14263631403446198,
            0.09372633695602417,
            0.02741185948252678
          ],
          [
            -0.12300169467926025,
            0.09691916406154633,
            0.1013900637626648,
            -0.22976571321487427,
            0.1221974790096283,
            -0.0012124907225370407,
            0.0013002468040212989,
            -0.02770203724503517,
            0.22421683371067047,
            0.0898488312959671,
            0.0515604242682457,
            -0.18157969415187836,
            0.19822940230369568,
            0.2408008873462677,
            -0.0009175038430839777,
            0.02797728031873703,
            -0.2151307612657547,
            0.2663553059101105,
            -0.09833532571792603,
            -0.08469800651073456,
            -0.25807759165763855,
            0.20741266012191772,
            -0.25690320134162903,
            -0.24070660769939423,
            -0.07827490568161011,
            0.17738309502601624,
            -0.04080333188176155,
            -0.032693035900592804,
            -0.003775883000344038,
            -6.687559653073549e-05,
            -0.4040965437889099,
            -0.025725767016410828,
            -0.0052460734732449055,
            -0.15445367991924286,
            0.13410447537899017,
            -0.0022315271198749542,
            0.20708030462265015,
            0.23769453167915344,
            0.22191095352172852,
            -0.1469164490699768,
            0.22592951357364655,
            -0.04244289547204971,
            0.13225896656513214,
            -0.1798872947692871,
            0.2964271008968353,
            0.05905536934733391,
            -0.01136790495365858,
            0.1521110236644745,
            -0.07678678631782532,
            0.09945174306631088,
            0.16160522401332855,
            0.018197258934378624,
            0.07931125909090042
          ],
          [
            0.1801641434431076,
            0.010250172577798367,
            -0.03765922784805298,
            0.30266329646110535,
            -0.0873979777097702,
            -0.06880150735378265,
            -0.06000638008117676,
            0.15147556364536285,
            -0.05602174997329712,
            -0.014528784900903702,
            0.24042244255542755,
            -0.05834200605750084,
            0.07631318271160126,
            -0.03342758119106293,
            -0.04453394189476967,
            -0.04990702494978905,
            0.1759829968214035,
            -0.16447187960147858,
            0.040175773203372955,
            0.06740251928567886,
            -0.06980288028717041,
            -0.04806990921497345,
            0.10414057970046997,
            0.033256519585847855,
            -0.09834198653697968,
            0.23759041726589203,
            0.09939879179000854,
            0.13124686479568481,
            0.13997742533683777,
            -0.18760928511619568,
            0.1270911693572998,
            0.07625412195920944,
            0.14890654385089874,
            0.07985365390777588,
            0.23329249024391174,
            0.33536550402641296,
            0.34139978885650635,
            -0.10257479548454285,
            0.3015652000904083,
            0.07003273814916611,
            0.2759982645511627,
            0.018036596477031708,
            -0.00733747985213995,
            -0.16392682492733002,
            -0.011352111585438251,
            0.01611805520951748,
            0.14495308697223663,
            -0.019525207579135895,
            -0.08419157564640045,
            -0.0026661588344722986,
            0.10614953190088272,
            0.021409545093774796,
            0.056996654719114304
          ],
          [
            -0.000537960440851748,
            0.11653908342123032,
            -0.03226727619767189,
            -0.19938521087169647,
            -0.08367250114679337,
            0.014130855910480022,
            -0.03887060657143593,
            -0.03597588837146759,
            0.19353815913200378,
            0.05721450224518776,
            0.12370677292346954,
            0.11103210598230362,
            0.1532871574163437,
            0.27442172169685364,
            -0.038009922951459885,
            -0.20754869282245636,
            -0.08959328383207321,
            -0.02461189776659012,
            -0.14660876989364624,
            0.09226089715957642,
            -0.23351657390594482,
            0.10017600655555725,
            -0.01906471513211727,
            -0.09351551532745361,
            -0.05031506344676018,
            0.09174900501966476,
            0.09666658192873001,
            -0.04169195517897606,
            0.0887775644659996,
            0.02805391140282154,
            -0.09112469106912613,
            0.322733998298645,
            0.27979278564453125,
            0.08092615753412247,
            0.23277603089809418,
            -0.05285036936402321,
            0.31880074739456177,
            0.11099664121866226,
            0.19613850116729736,
            0.05303095653653145,
            0.14546334743499756,
            0.2014773190021515,
            0.057747747749090195,
            -0.1659879833459854,
            0.13998943567276,
            0.13889111578464508,
            0.14192280173301697,
            0.1883719116449356,
            -0.2225223034620285,
            0.18456527590751648,
            0.2572067081928253,
            0.030601808801293373,
            0.046194080263376236
          ],
          [
            0.13317804038524628,
            -0.0779258981347084,
            -0.17191213369369507,
            0.09275522083044052,
            -0.07317767292261124,
            0.35935553908348083,
            -0.2942696809768677,
            -0.06034195050597191,
            -0.08684571087360382,
            -0.10098399221897125,
            -0.22670559585094452,
            0.3488352298736572,
            -0.23489798605442047,
            0.26736995577812195,
            0.2763262391090393,
            0.255405992269516,
            0.10013031959533691,
            0.09070517867803574,
            0.11023204773664474,
            0.010937308892607689,
            0.11718080937862396,
            0.033289019018411636,
            -0.16839337348937988,
            0.04397572576999664,
            -0.04723885655403137,
            -0.11272158473730087,
            -0.22700273990631104,
            -0.2001447230577469,
            -0.057832613587379456,
            0.08647584915161133,
            0.16500960290431976,
            0.24793089926242828,
            0.2829735577106476,
            -0.20943184196949005,
            -0.2575744390487671,
            0.024500485509634018,
            -0.11891438066959381,
            0.012022032402455807,
            -0.22054213285446167,
            -0.08018968999385834,
            -0.07414080947637558,
            0.06852768361568451,
            -0.23581568896770477,
            -0.4250332713127136,
            -0.20190125703811646,
            0.21375347673892975,
            0.5778217911720276,
            0.013590041548013687,
            -0.07259263098239899,
            -0.15977539122104645,
            0.10613442957401276,
            0.14894415438175201,
            0.0411420613527298
          ],
          [
            0.07533323019742966,
            -0.24606505036354065,
            -0.17538993060588837,
            0.23131434619426727,
            0.018076954409480095,
            0.16020114719867706,
            0.09808795899152756,
            -0.08711231499910355,
            0.1612110137939453,
            0.01128381211310625,
            0.03442791476845741,
            -0.13772830367088318,
            0.14985816180706024,
            -0.027748525142669678,
            0.2077726125717163,
            0.22412128746509552,
            0.28024187684059143,
            0.270824670791626,
            -0.059435054659843445,
            -0.10428623110055923,
            0.07240317016839981,
            -0.10315228998661041,
            -0.07256529480218887,
            0.028027651831507683,
            -0.32193976640701294,
            0.27845001220703125,
            -0.12001922726631165,
            -0.1712454855442047,
            -0.11655541509389877,
            -0.23012690246105194,
            -0.08373691886663437,
            0.23172517120838165,
            0.11642666906118393,
            0.2580420672893524,
            0.181339830160141,
            0.19809524714946747,
            0.22045210003852844,
            0.11277492344379425,
            0.3557933270931244,
            0.22431686520576477,
            0.3374333679676056,
            0.05797002092003822,
            0.13674628734588623,
            -0.04080758988857269,
            0.04937884584069252,
            0.2317194640636444,
            -0.006125561892986298,
            0.21299071609973907,
            0.046161096543073654,
            -0.0980609655380249,
            0.08616321533918381,
            -0.006856441963464022,
            0.23363743722438812
          ],
          [
            0.13954655826091766,
            -0.30406832695007324,
            -0.18046768009662628,
            0.06678583472967148,
            0.1922953873872757,
            0.14497245848178864,
            0.05378834158182144,
            0.19946859776973724,
            0.09611845016479492,
            0.21261867880821228,
            -0.12728989124298096,
            0.021466050297021866,
            -0.2924720346927643,
            -0.004464793484658003,
            0.07642137259244919,
            0.05107708275318146,
            0.12518265843391418,
            0.0069208224304020405,
            0.06381315737962723,
            -0.03648702800273895,
            0.03049233928322792,
            -0.30501997470855713,
            -0.16515187919139862,
            -0.045428913086652756,
            0.015121696516871452,
            -0.12136497348546982,
            0.12452348321676254,
            -0.0969216600060463,
            0.13163690268993378,
            0.09416689723730087,
            -0.05507092550396919,
            0.1004074290394783,
            0.07529693096876144,
            -0.08636238425970078,
            -0.03369463235139847,
            0.19540709257125854,
            0.2508998513221741,
            -0.22629445791244507,
            0.06369712948799133,
            0.05248972028493881,
            -0.1907627433538437,
            -0.06500694900751114,
            -0.03775596246123314,
            -0.22724947333335876,
            -0.4236396551132202,
            0.32357117533683777,
            0.588209331035614,
            -0.14079883694648743,
            -0.20506110787391663,
            -0.34958523511886597,
            0.11340005695819855,
            0.22716104984283447,
            -0.018237093463540077
          ],
          [
            -0.27932706475257874,
            0.1061890497803688,
            0.06056975945830345,
            0.09343748539686203,
            -0.008631710894405842,
            0.02531418390572071,
            -0.09357044100761414,
            0.04522407427430153,
            -0.08459481596946716,
            -0.020337192341685295,
            -0.12717179954051971,
            -0.060894645750522614,
            0.1537179797887802,
            0.1251685470342636,
            0.04848584532737732,
            0.03170088306069374,
            0.009586389176547527,
            -0.051669344305992126,
            0.11566305160522461,
            -0.07003704458475113,
            -0.014488017186522484,
            -0.10152842104434967,
            -0.07342631369829178,
            -0.10447823256254196,
            0.13465024530887604,
            0.007459206040948629,
            0.05003339797258377,
            0.07002478092908859,
            -0.09877846390008926,
            -0.041787467896938324,
            -0.18954746425151825,
            0.28898173570632935,
            0.441728800535202,
            0.056133490055799484,
            0.12448567897081375,
            0.06042173132300377,
            -0.07362528145313263,
            0.13849389553070068,
            0.18394939601421356,
            -0.15725937485694885,
            -0.012367533519864082,
            0.3193919062614441,
            0.1587810069322586,
            -0.3433568477630615,
            0.08626574277877808,
            0.3173224627971649,
            0.046048037707805634,
            0.34735530614852905,
            -0.16059884428977966,
            0.08155687153339386,
            0.3992142975330353,
            -0.061486974358558655,
            0.4302005171775818
          ],
          [
            0.002172727370634675,
            0.4189816117286682,
            -0.3573745787143707,
            0.04186790809035301,
            0.021944859996438026,
            0.12918667495250702,
            0.07792863994836807,
            -0.29957982897758484,
            -0.0033416422083973885,
            0.12279300391674042,
            -0.17712987959384918,
            0.07531511783599854,
            -0.060887306928634644,
            -0.09379854798316956,
            0.025688763707876205,
            -0.2877449095249176,
            0.3439129590988159,
            0.3973654806613922,
            -0.24070827662944794,
            -0.07519757002592087,
            0.06833473592996597,
            0.1566116064786911,
            -0.17484165728092194,
            -0.1168861985206604,
            -0.2325185090303421,
            0.12181365489959717,
            0.0964377298951149,
            -0.11348909884691238,
            -0.17163415253162384,
            -0.016255997121334076,
            -0.3682374656200409,
            0.08817010372877121,
            0.07962813228368759,
            0.2590844929218292,
            0.035413842648267746,
            0.227254256606102,
            0.0389736071228981,
            0.10903869569301605,
            0.04610776528716087,
            0.285755455493927,
            0.0002782228693831712,
            -0.08689326047897339,
            -0.055936235934495926,
            -0.08931583166122437,
            0.02214726433157921,
            -0.07650665193796158,
            -0.13045130670070648,
            0.06827005743980408,
            -0.0014862822135910392,
            -0.09066221863031387,
            0.1432749480009079,
            0.09778007119894028,
            0.020527398213744164
          ],
          [
            0.0470862090587616,
            0.22417476773262024,
            -0.03501984104514122,
            -0.10906349867582321,
            0.05329535901546478,
            -0.028455153107643127,
            -0.010789518244564533,
            -0.236088827252388,
            0.029266471043229103,
            -0.18597650527954102,
            0.11804342269897461,
            -0.23019248247146606,
            0.026054028421640396,
            0.02420925721526146,
            0.1778205931186676,
            0.0012222237419337034,
            0.2257838100194931,
            0.2874350845813751,
            0.01624179817736149,
            -0.00857499148696661,
            -0.20386265218257904,
            -0.20654593408107758,
            -0.10708043724298477,
            -0.11075767129659653,
            -0.31047871708869934,
            0.1386810839176178,
            -0.10839269310235977,
            0.07902023941278458,
            0.15803636610507965,
            -0.1817130595445633,
            -0.1288205087184906,
            0.24008390307426453,
            0.1995689868927002,
            0.19823525846004486,
            0.24671851098537445,
            0.09485619515180588,
            -0.006890556775033474,
            0.1107807531952858,
            0.15224194526672363,
            0.09738703817129135,
            0.1793254315853119,
            0.0761839970946312,
            0.03625484183430672,
            -0.0645311251282692,
            -0.07065557688474655,
            0.15416984260082245,
            0.010809705592691898,
            0.23005814850330353,
            -0.07391790300607681,
            -0.04360326752066612,
            0.11551696807146072,
            0.18755634129047394,
            0.07315429300069809
          ],
          [
            0.17458811402320862,
            -0.11223296821117401,
            -0.23287540674209595,
            0.13594521582126617,
            -0.27439624071121216,
            0.20107249915599823,
            0.09108822047710419,
            0.09203207492828369,
            0.0717841312289238,
            -0.1497637927532196,
            0.06293848901987076,
            0.12009317427873611,
            -0.1170366033911705,
            0.15410038828849792,
            -0.07778224349021912,
            -0.0017870181472972035,
            0.12640488147735596,
            -0.30751359462738037,
            0.01634748838841915,
            -0.09840558469295502,
            -0.27521610260009766,
            -0.1549350917339325,
            -0.07467205822467804,
            0.10397884994745255,
            0.1283884197473526,
            -0.09597545117139816,
            -0.004965027794241905,
            -0.09229779243469238,
            -0.0887739360332489,
            0.008292394690215588,
            0.10552819073200226,
            -0.0601535364985466,
            -0.18564607203006744,
            -0.3217602074146271,
            -0.12883076071739197,
            -0.11696159094572067,
            -0.07025214284658432,
            -0.11756680905818939,
            -0.23816202580928802,
            -0.3555123805999756,
            -0.04802732914686203,
            0.1992587000131607,
            0.12861713767051697,
            -0.29461872577667236,
            -0.07701454311609268,
            -0.12403446435928345,
            0.6940590143203735,
            -0.20568881928920746,
            0.1290408819913864,
            -0.05644303187727928,
            -0.1664987951517105,
            0.33183956146240234,
            -0.028909655287861824
          ],
          [
            0.22937777638435364,
            0.03095371089875698,
            -0.2668648958206177,
            -0.3210461437702179,
            0.16204138100147247,
            0.2884768843650818,
            0.11757416278123856,
            -0.02253178507089615,
            -0.047900617122650146,
            0.3697156310081482,
            0.2127879559993744,
            -0.10101883858442307,
            -0.3184874653816223,
            -0.1342899650335312,
            0.08165038377046585,
            0.14253529906272888,
            -0.2504996359348297,
            0.2496885359287262,
            0.16524432599544525,
            0.1022692620754242,
            -0.46198830008506775,
            0.04197973757982254,
            0.09089978039264679,
            -0.15948247909545898,
            0.05965495854616165,
            -0.25458309054374695,
            0.14520138502120972,
            0.4734414517879486,
            0.06844217330217361,
            0.021973541006445885,
            0.10284256190061569,
            0.15712516009807587,
            0.015835843980312347,
            0.03686903044581413,
            -0.04057995229959488,
            0.010801801458001137,
            -0.05206470936536789,
            0.05813025310635567,
            -0.03423391655087471,
            0.040983691811561584,
            -0.2611619830131531,
            -0.11927156895399094,
            -0.09168054163455963,
            0.0481087788939476,
            -0.27648138999938965,
            0.029051512479782104,
            0.23396196961402893,
            0.035847608000040054,
            -0.4404907822608948,
            0.08265566825866699,
            0.17291727662086487,
            0.24940422177314758,
            -0.11691650748252869
          ],
          [
            -0.03913496062159538,
            0.02141306921839714,
            0.11220371723175049,
            0.05807206407189369,
            -0.06481586396694183,
            -0.02595418132841587,
            0.21277756989002228,
            0.09034855663776398,
            0.1907745599746704,
            -0.11612027883529663,
            0.13577589392662048,
            -0.08186139166355133,
            -0.075959712266922,
            0.035887423902750015,
            0.10054235905408859,
            -0.1886725276708603,
            -0.12304513901472092,
            -0.08340425789356232,
            -0.03694930672645569,
            0.04542515054345131,
            -0.015296642668545246,
            -0.0536804236471653,
            -0.128804549574852,
            -0.2753028869628906,
            0.041979990899562836,
            0.1709316074848175,
            -0.05612170696258545,
            -0.13269279897212982,
            -0.018893519416451454,
            0.030767172574996948,
            -0.0451730340719223,
            0.14273610711097717,
            0.09570199996232986,
            -0.06621140986680984,
            0.09728704392910004,
            -0.12310298532247543,
            -0.21082806587219238,
            0.006157957948744297,
            -0.00449080765247345,
            -0.05739029869437218,
            0.0911092758178711,
            0.1562405377626419,
            0.18148808181285858,
            -0.2238701432943344,
            -0.015202687121927738,
            0.10237036645412445,
            0.14652717113494873,
            0.29703637957572937,
            -0.02884349785745144,
            -0.05567268654704094,
            0.2273642122745514,
            0.018059641122817993,
            0.1345292329788208
          ],
          [
            -0.10653088986873627,
            -0.45588451623916626,
            0.22919966280460358,
            -0.1366676390171051,
            -0.05917170271277428,
            -0.36692172288894653,
            0.11688327044248581,
            -0.019858218729496002,
            0.20901356637477875,
            0.2719326913356781,
            0.15833257138729095,
            0.024256939068436623,
            0.11175134032964706,
            0.45968905091285706,
            0.05236300081014633,
            0.3253735601902008,
            -0.25235578417778015,
            0.15419839322566986,
            -0.15446381270885468,
            0.021322814747691154,
            -0.24364888668060303,
            -0.067670539021492,
            -0.31670665740966797,
            -0.15186211466789246,
            0.16184701025485992,
            0.15918667614459991,
            0.3100234568119049,
            -0.13485820591449738,
            -0.03401368483901024,
            -0.1527901589870453,
            -0.04715347662568092,
            0.07456518709659576,
            -0.033090945333242416,
            -0.00800043810158968,
            0.14723217487335205,
            -0.09746970981359482,
            0.13331490755081177,
            0.0516401045024395,
            0.30228373408317566,
            0.10386337339878082,
            0.32637083530426025,
            -0.13661804795265198,
            0.12108810245990753,
            0.12041857838630676,
            0.10958384722471237,
            0.1544749140739441,
            0.11204269528388977,
            0.14760316908359528,
            -0.11805275082588196,
            0.06403743475675583,
            0.06377211213111877,
            -0.06257179379463196,
            0.17746785283088684
          ],
          [
            0.13377130031585693,
            -0.07114585489034653,
            0.02015744522213936,
            -0.16022664308547974,
            -0.22292916476726532,
            -0.08356973528862,
            -0.026947544887661934,
            0.212132528424263,
            -0.14854346215724945,
            0.1996530145406723,
            0.12034352123737335,
            0.2931898534297943,
            -0.07543795555830002,
            0.02315846085548401,
            -0.051011502742767334,
            0.16242776811122894,
            -0.05330213904380798,
            -0.02726389467716217,
            -0.10300067067146301,
            0.18753309547901154,
            0.03628760203719139,
            -0.06789088249206543,
            0.165145605802536,
            0.028250297531485558,
            0.26093488931655884,
            -0.13443082571029663,
            0.0009110982646234334,
            0.16749298572540283,
            0.08053526282310486,
            -0.21612121164798737,
            0.07464510947465897,
            0.16089361906051636,
            0.12535429000854492,
            -0.016305236145853996,
            0.09971410781145096,
            0.09264824539422989,
            0.1621137410402298,
            -0.04984777793288231,
            0.22907686233520508,
            0.057815179228782654,
            0.20453223586082458,
            -0.1329420804977417,
            0.12344149500131607,
            0.0793447345495224,
            -0.19525492191314697,
            0.15968844294548035,
            -0.006377839483320713,
            0.012945243157446384,
            -0.03866356611251831,
            -0.04227936640381813,
            0.1986982822418213,
            0.09835560619831085,
            0.0792093425989151
          ],
          [
            -0.025199349969625473,
            -0.08262782543897629,
            -0.20063859224319458,
            -0.08831625431776047,
            -0.14935947954654694,
            -0.0971372202038765,
            0.048832014203071594,
            0.10321129113435745,
            0.009511078707873821,
            0.047343477606773376,
            0.0356537401676178,
            0.08457868546247482,
            -0.11106409877538681,
            -0.03991573676466942,
            0.0782114788889885,
            -0.08631153404712677,
            0.09223750978708267,
            -0.15934717655181885,
            0.0859500840306282,
            0.06197119131684303,
            -0.06579141318798065,
            0.05628425255417824,
            0.1075732633471489,
            -0.005800985731184483,
            0.08394357562065125,
            0.07962612062692642,
            0.08849561214447021,
            -0.04214708134531975,
            -0.07250182330608368,
            -0.1799461990594864,
            0.02096889168024063,
            0.09652499854564667,
            0.23891481757164001,
            -0.022946486249566078,
            -0.02736251801252365,
            -0.046951401978731155,
            0.024871332570910454,
            0.5247519612312317,
            0.16279080510139465,
            -0.004622243344783783,
            0.1512584090232849,
            0.13621275126934052,
            0.3214479088783264,
            -0.40398678183555603,
            0.08145088702440262,
            0.288194477558136,
            0.22003862261772156,
            0.2147061824798584,
            -0.31337636709213257,
            -0.12166573107242584,
            0.2118493914604187,
            0.37376534938812256,
            0.36195552349090576
          ],
          [
            -0.019333433359861374,
            0.20860764384269714,
            -0.047997504472732544,
            -0.07057137042284012,
            -0.11985840648412704,
            -0.15824943780899048,
            -0.23849834501743317,
            -0.029805339872837067,
            0.10170252621173859,
            -0.0978698655962944,
            -0.06870200484991074,
            -0.2087298184633255,
            0.03719792142510414,
            -0.023897750303149223,
            0.11315377801656723,
            0.1946750283241272,
            -0.18866364657878876,
            -0.29870253801345825,
            0.08906204253435135,
            0.23507873713970184,
            0.0920918881893158,
            -0.061337076127529144,
            -0.47616904973983765,
            0.36465761065483093,
            0.4245561957359314,
            0.05809640884399414,
            -0.026690777391195297,
            0.21134915947914124,
            -0.027396056801080704,
            0.10512308031320572,
            -0.0814065933227539,
            -0.09895606338977814,
            -0.12579821050167084,
            -0.20673489570617676,
            -0.04548550397157669,
            -0.2077716737985611,
            -0.1407376378774643,
            0.13582317531108856,
            -0.006597780156880617,
            -0.08883211761713028,
            -0.12493962049484253,
            0.21010884642601013,
            0.264761358499527,
            0.1491086333990097,
            -0.3496232032775879,
            -0.11036020517349243,
            0.4860842227935791,
            0.06066448614001274,
            0.2603774070739746,
            -0.2732284367084503,
            -0.17917826771736145,
            0.17306432127952576,
            0.05873243883252144
          ],
          [
            0.1798151731491089,
            0.10771352797746658,
            -0.1552944779396057,
            -0.16508351266384125,
            0.029114821925759315,
            0.07442303746938705,
            -0.06834279745817184,
            -0.021036062389612198,
            -0.06642929464578629,
            0.302612841129303,
            0.13826066255569458,
            -0.3122066557407379,
            0.1355547308921814,
            -0.36452072858810425,
            0.31312763690948486,
            0.355651319026947,
            -0.3880104422569275,
            -0.07612434029579163,
            0.16740722954273224,
            -0.1736496090888977,
            0.015969673171639442,
            -0.20933285355567932,
            -0.5491268038749695,
            0.30398884415626526,
            0.16032452881336212,
            -0.020489882677793503,
            -0.15855570137500763,
            0.13462790846824646,
            -0.03620171174407005,
            0.23796337842941284,
            0.14008885622024536,
            0.030785074457526207,
            -0.122285857796669,
            0.31878092885017395,
            0.15083342790603638,
            0.2518308460712433,
            0.20325064659118652,
            -0.29324477910995483,
            0.03868177533149719,
            0.16775061190128326,
            0.008851508609950542,
            0.010856054723262787,
            -0.03852488100528717,
            0.14252793788909912,
            -0.1805848926305771,
            0.07273247092962265,
            -0.26211294531822205,
            0.015528781339526176,
            -0.28864845633506775,
            0.016804831102490425,
            0.09022387117147446,
            -0.2191360890865326,
            -0.13866174221038818
          ],
          [
            0.013456001877784729,
            -0.06087682396173477,
            -0.035748861730098724,
            -0.03934246301651001,
            -0.28826653957366943,
            -0.043049611151218414,
            0.14352262020111084,
            0.17110827565193176,
            -0.1463991403579712,
            -0.01716596633195877,
            -0.1210983395576477,
            0.23615184426307678,
            0.25504663586616516,
            0.317083477973938,
            0.031332600861787796,
            0.15762700140476227,
            -0.008907649666070938,
            -0.05243124067783356,
            -0.25150346755981445,
            0.08605737239122391,
            -0.31154748797416687,
            -0.3059135675430298,
            0.1256711632013321,
            -0.13781332969665527,
            0.1876491755247116,
            0.07929810136556625,
            -0.1823509782552719,
            0.1165294423699379,
            0.02377803437411785,
            0.07954581081867218,
            -0.01939685270190239,
            -0.04939103126525879,
            -0.08588914573192596,
            -0.13070258498191833,
            -0.08797193318605423,
            -0.08911491930484772,
            0.1956060826778412,
            -0.20062388479709625,
            -0.07776550203561783,
            0.009633996523916721,
            -0.049313243478536606,
            0.10028526186943054,
            0.003633217653259635,
            -0.2154623121023178,
            0.15265637636184692,
            -0.015923773869872093,
            -0.09665899723768234,
            0.11375196278095245,
            -0.060702815651893616,
            0.1652798056602478,
            -0.012335620820522308,
            -0.09595181792974472,
            0.017606761306524277
          ],
          [
            0.011457346379756927,
            0.03294149041175842,
            0.021451404318213463,
            -0.13787870109081268,
            -0.06684406846761703,
            -0.09321633726358414,
            -0.02821609377861023,
            -0.0633639469742775,
            -0.12325924634933472,
            -0.30155548453330994,
            0.09511558711528778,
            -0.05431707575917244,
            -0.1354290097951889,
            0.03299115598201752,
            -0.14802511036396027,
            0.032921984791755676,
            0.2972569763660431,
            0.121741883456707,
            0.0887490063905716,
            0.24043233692646027,
            -0.2362121194601059,
            0.03348102420568466,
            -0.0074624489061534405,
            -0.05630870908498764,
            -0.16974274814128876,
            0.0013131634332239628,
            0.06674666702747345,
            0.013241535052657127,
            0.05530726537108421,
            -0.07673277705907822,
            0.058697909116744995,
            0.2555195689201355,
            0.16697047650814056,
            -0.21334132552146912,
            -0.03660476952791214,
            -0.3366187810897827,
            -0.09969357401132584,
            0.1504739224910736,
            -0.1500667780637741,
            -0.06411910802125931,
            -0.1606060117483139,
            0.029092924669384956,
            0.17248454689979553,
            -0.19905859231948853,
            0.08599933236837387,
            0.18408969044685364,
            0.18822115659713745,
            0.36607131361961365,
            -0.16545860469341278,
            -0.16246837377548218,
            0.10233339667320251,
            0.17590880393981934,
            0.11989361047744751
          ],
          [
            -0.2841961681842804,
            -0.023376809433102608,
            0.444900780916214,
            -0.00280739669688046,
            -0.10243457555770874,
            -0.06667855381965637,
            -0.41074517369270325,
            0.26803407073020935,
            -0.028653491288423538,
            -0.04210247844457626,
            -0.09969214349985123,
            -0.06115422025322914,
            -0.002137928269803524,
            0.19783346354961395,
            -0.07996563613414764,
            0.16973143815994263,
            -0.2366977334022522,
            0.0075814081355929375,
            0.11726444214582443,
            -0.005617785267531872,
            -0.15013857185840607,
            -0.01642322726547718,
            -0.11156024783849716,
            -0.29295042157173157,
            -0.02838769182562828,
            -0.03368854895234108,
            0.18620255589485168,
            0.1381824016571045,
            0.11641059070825577,
            -0.05168386548757553,
            -0.09511879831552505,
            0.305317759513855,
            0.1474297046661377,
            0.18382257223129272,
            0.054202862083911896,
            0.2621837854385376,
            -0.024684220552444458,
            -0.2714700996875763,
            -0.06154487654566765,
            0.3095240592956543,
            0.05966439098119736,
            0.0027981563471257687,
            0.001874688663519919,
            -0.14868998527526855,
            -0.5233944058418274,
            0.12971007823944092,
            0.41342225670814514,
            0.31223928928375244,
            0.10484246164560318,
            -0.5000277161598206,
            0.14513151347637177,
            0.001493685762397945,
            0.0017764801159501076
          ],
          [
            0.05711667984724045,
            0.2508794665336609,
            -0.32538896799087524,
            0.04880025237798691,
            0.0076859090477228165,
            0.020213767886161804,
            -0.2899681329727173,
            -0.19832341372966766,
            -0.17993111908435822,
            0.2256004810333252,
            0.13508275151252747,
            -0.1405169814825058,
            -0.2861292064189911,
            0.25845739245414734,
            -0.07571431994438171,
            0.19765804708003998,
            -0.16809992492198944,
            -0.30417370796203613,
            0.13168112933635712,
            0.047796983271837234,
            0.06469617784023285,
            0.12696455419063568,
            -0.14409111440181732,
            0.2278788834810257,
            0.1175801232457161,
            0.16794145107269287,
            0.17754556238651276,
            -0.046055447310209274,
            0.12042824923992157,
            0.1565408557653427,
            0.17325516045093536,
            0.495939701795578,
            0.48039132356643677,
            0.25725695490837097,
            0.24338726699352264,
            0.15572501718997955,
            0.06830386072397232,
            0.02224723808467388,
            0.09054520726203918,
            0.35346847772598267,
            0.08865997940301895,
            0.13449673354625702,
            0.028578946366906166,
            -0.23001328110694885,
            -0.28080716729164124,
            0.44912514090538025,
            0.48141080141067505,
            0.3162904977798462,
            -0.2660825848579407,
            -0.14071834087371826,
            0.21979832649230957,
            -0.13760846853256226,
            0.3615390658378601
          ],
          [
            -0.1261679232120514,
            0.3165443241596222,
            -0.05932416021823883,
            0.05704426020383835,
            0.10528044402599335,
            -0.03923036903142929,
            0.007058428134769201,
            -0.15575619041919708,
            0.007247747387737036,
            -0.27905771136283875,
            0.11387737840414047,
