{
  "dataset_path": "/projects/p57098/euijin1/Caver/metadata/stage0/calibrator/stage0_seed_dr_candidate_dataset.jsonl",
  "feature_spec": {
    "family_ids": [
      "block_to_tray_proxy",
      "container_insertion_proxy",
      "drawer_open_proxy",
      "relocate_to_region_proxy",
      "two_object_stack_proxy"
    ],
    "include_base_progress_interaction": false,
    "include_base_progress_sq_interaction": false,
    "include_family_one_hot": true,
    "include_family_progress_interaction": false,
    "include_family_progress_sq_interaction": false,
    "include_policy_query_index": true,
    "include_policy_query_index_sq": false,
    "policy_query_index_scale": 79.0
  },
  "model_format": "stagee_dr_calibrator_mlp_v2",
  "model_id": "stage0_seed_dr_calibrator_mlp_v2",
  "network": {
    "hidden_dim": 256,
    "mean_head_layers": [
      {
        "activation": "identity",
        "bias": [
          -0.0011595974210649729
        ],
        "weight": [
          [
            0.013070289045572281,
            -0.02840219996869564,
            -0.03556849807500839,
            -0.004312082659453154,
            0.03196404129266739,
            0.0023978804238140583,
            0.011797159910202026,
            -0.008837762288749218,
            -0.01454723160713911,
            -0.022727951407432556,
            -0.019255075603723526,
            -0.012486708350479603,
            0.004730327986180782,
            -0.017997905611991882,
            -0.046598341315984726,
            0.01905822567641735,
            -0.031654782593250275,
            0.01265182625502348,
            0.01994982361793518,
            -0.018203090876340866,
            0.04077940061688423,
            -0.010672030970454216,
            0.020064642652869225,
            -0.02705971524119377,
            -0.04451899230480194,
            0.029259439557790756,
            0.02006414532661438,
            -0.055082712322473526,
            0.014392740093171597,
            -0.016905782744288445,
            0.04238027706742287,
            -0.024975676089525223,
            -0.016200240701436996,
            0.015683965757489204,
            0.016836995258927345,
            -0.020839886739850044,
            0.05803000554442406,
            -0.006079871207475662,
            -0.001833781716413796,
            -0.01776554062962532,
            -0.041713885962963104,
            0.0177912600338459,
            0.003408357733860612,
            -0.00105036492459476,
            0.006231294944882393,
            -0.013660981319844723,
            0.0028194435872137547,
            0.0006092980038374662,
            0.015296243131160736,
            -0.01243619155138731,
            -0.009605968371033669,
            -0.023278143256902695,
            0.007355953566730022,
            0.022985294461250305,
            -0.030464129522442818,
            0.01337854377925396,
            0.005922422744333744,
            0.04740753769874573,
            -0.02574734017252922,
            -0.009933036752045155,
            -0.0038654787931591272,
            -0.001043328084051609,
            -0.0058046369813382626,
            -0.0028026748914271593,
            0.02208740822970867,
            0.017197107896208763,
            -0.01367213111370802,
            0.039099931716918945,
            0.016037778928875923,
            0.010340469889342785,
            -0.0059610530734062195,
            -0.014249878004193306,
            0.05731356143951416,
            -0.01035553403198719,
            -0.02295149676501751,
            0.004728944040834904,
            -0.01423227321356535,
            0.02837407775223255,
            0.031711142510175705,
            -0.0008273234125226736,
            0.016140446066856384,
            0.03702940046787262,
            0.05145932734012604,
            0.026044191792607307,
            0.0031636967323720455,
            0.006257164757698774,
            0.005179678089916706,
            0.017809024080634117,
            -0.007538147270679474,
            0.02503104880452156,
            0.02333858236670494,
            0.02636970579624176,
            -0.01712225005030632,
            -0.01574569009244442,
            -0.004160632845014334,
            0.015634434297680855,
            0.01926935464143753,
            -0.0012981017353013158,
            -0.007998437620699406,
            0.016958771273493767,
            0.01808048225939274,
            0.0023185317404568195,
            -0.006298810709267855,
            0.028059815987944603,
            0.020683342590928078,
            -0.053453776985406876,
            -0.004220347851514816,
            0.02259030193090439,
            -0.007241394836455584,
            0.011865220963954926,
            0.0014875016640871763,
            0.021634254604578018,
            0.02628055028617382,
            -0.022582093253731728,
            0.010085892863571644,
            0.02079409919679165,
            0.03520217910408974,
            0.04837425425648689,
            -0.01184883527457714,
            0.01660907082259655,
            -0.002542938804253936,
            0.03079904057085514,
            0.016052978113293648,
            -0.03769112005829811,
            0.026162683963775635,
            -0.0035482037346810102,
            -0.029142387211322784,
            0.029598085209727287,
            0.05508340522646904,
            0.012387948110699654,
            -0.03745643049478531,
            -0.040216684341430664,
            -0.0004543220275081694,
            -0.022875631228089333,
            -0.04045987129211426,
            -0.015697812661528587,
            -0.003332932945340872,
            0.028225427493453026,
            0.06051342561841011,
            -0.030327074229717255,
            -0.005877161398530006,
            -0.02395843341946602,
            -0.03822663798928261,
            -0.030567793175578117,
            0.006155506707727909,
            0.036840178072452545,
            -0.02180474065244198,
            0.030960949137806892,
            -0.00787329487502575,
            0.032563332468271255,
            0.000878314720466733,
            -0.003594591747969389,
            0.03212393447756767,
            0.015419185161590576,
            -0.02185690402984619,
            0.02658131532371044,
            0.0026651073712855577,
            -0.05349099636077881,
            -0.023083273321390152,
            0.028303004801273346,
            -0.013953235000371933,
            0.048564258962869644,
            0.06244871765375137,
            0.006601317785680294,
            -0.02895735204219818,
            0.024244800209999084,
            -0.01539365854114294,
            -0.030102377757430077,
            0.006935580633580685,
            0.019220193848013878,
            0.0265074260532856,
            0.03961822763085365,
            0.03167024627327919,
            -0.0004670291964430362,
            -0.035072267055511475,
            -0.0388314351439476,
            0.03370072692632675,
            -0.03015808016061783,
            -0.01779702864587307,
            0.0021160568576306105,
            -0.011595402844250202,
            -0.002399672055616975,
            -9.092167601920664e-05,
            -0.03628605231642723,
            -0.012968760915100574,
            -0.026786617934703827,
            0.019786501303315163,
            -0.033839061856269836,
            0.05568157508969307,
            -0.023305298760533333,
            0.022638987749814987,
            0.03686841204762459,
            0.014831204898655415,
            0.0006796405068598688,
            -0.00843061227351427,
            0.031421344727277756,
            -0.005530556198209524,
            -0.0003861209552269429,
            -0.0006846294854767621,
            -0.00031237053917720914,
            0.041633132845163345,
            0.03767731413245201,
            0.032166555523872375,
            -0.027033548802137375,
            0.03186091408133507,
            0.004917663522064686,
            -0.029204703867435455,
            -0.02109924703836441,
            0.03843008354306221,
            0.004434344358742237,
            -0.004852937534451485,
            -0.0298916082829237,
            0.010837164707481861,
            -0.006922608707100153,
            -0.01259693969041109,
            0.005168361589312553,
            -0.030643373727798462,
            0.0004003647482022643,
            0.022340212017297745,
            0.034454699605703354,
            -0.013009476475417614,
            0.013555187731981277,
            0.04228953644633293,
            -0.03863976523280144,
            0.028095446527004242,
            -0.030367659404873848,
            0.02918967418372631,
            0.0003005215257871896,
            -0.03896182402968407,
            0.018577424809336662,
            -0.01704620011150837,
            0.0011389371939003468,
            0.01481447834521532,
            0.015050687827169895,
            -0.03477098047733307,
            0.046428363770246506,
            0.0039213839918375015,
            0.007575846742838621,
            0.016339972615242004,
            0.016010452061891556,
            0.009522104635834694,
            -0.0021784387063235044,
            0.012275838293135166,
            -0.019648896530270576,
            0.007172381039708853,
            0.040899842977523804,
            -0.040923167020082474,
            0.03138265013694763,
            0.006349291652441025,
            0.016390426084399223,
            0.04333221912384033,
            -0.015276985242962837,
            -0.006099948659539223,
            0.02062607929110527,
            0.012236110866069794,
            0.0029357282910495996
          ]
        ]
      }
    ],
    "scale_head_layers": [
      {
        "activation": "identity",
        "bias": [
          -0.011346102692186832
        ],
        "weight": [
          [
            0.13212700188159943,
            0.070206418633461,
            -0.03869201987981796,
            -0.10082804411649704,
            0.08386486768722534,
            0.07185612618923187,
            -0.1239423006772995,
            0.04353920742869377,
            -0.1512167751789093,
            0.08721979707479477,
            0.02970626950263977,
            -0.02119547128677368,
            0.03128886967897415,
            -0.053058866411447525,
            0.09257332980632782,
            -0.012870133854448795,
            -0.13547101616859436,
            0.10174476355314255,
            0.06338334828615189,
            0.009837097488343716,
            0.044761259108781815,
            -0.1550215184688568,
            0.0813499465584755,
            -0.10712222754955292,
            0.014515620656311512,
            0.08926255255937576,
            0.048876602202653885,
            0.033398717641830444,
            -0.15975844860076904,
            -0.09053567796945572,
            -0.03583718463778496,
            -0.06189845874905586,
            0.024652918800711632,
            0.11968973278999329,
            0.09722545742988586,
            -0.05345519632101059,
            0.07021255791187286,
            0.10105161368846893,
            -0.16631902754306793,
            0.08461347967386246,
            -0.05953191593289375,
            -0.08946546167135239,
            0.11588506400585175,
            -0.01496895495802164,
            -0.07180370390415192,
            -0.1553031951189041,
            0.04320240020751953,
            -0.009816193953156471,
            0.09568583220243454,
            -0.1369042992591858,
            -0.12053011357784271,
            -0.01634221337735653,
            -0.12457545101642609,
            0.08827618509531021,
            -0.03911757096648216,
            -0.13365280628204346,
            0.1424386352300644,
            0.05607611685991287,
            0.08290692418813705,
            -0.11301566660404205,
            -0.13016502559185028,
            0.0733116865158081,
            0.09868665039539337,
            -0.08925028890371323,
            0.1370076984167099,
            0.057972267270088196,
            -0.002160688629373908,
            0.10989221930503845,
            -0.12640893459320068,
            0.07793408632278442,
            0.12050236016511917,
            -0.07183770835399628,
            0.0764181911945343,
            0.034034986048936844,
            0.0242085549980402,
            0.09950946271419525,
            0.07773876190185547,
            0.07022691518068314,
            0.041362009942531586,
            0.07425344735383987,
            -0.05062417313456535,
            0.06083622947335243,
            -0.002747710095718503,
            0.07993188500404358,
            0.013328872621059418,
            0.13007906079292297,
            0.07748403400182724,
            -0.10910408198833466,
            0.017371907830238342,
            -0.08336975425481796,
            -0.021318186074495316,
            0.05739020183682442,
            0.028966756537556648,
            -0.06510971486568451,
            -0.045127738267183304,
            -0.13614292442798615,
            -0.16686399281024933,
            -0.06481045484542847,
            -0.0003854951064568013,
            0.012721620500087738,
            0.08100878447294235,
            0.08976609259843826,
            -0.10833847522735596,
            0.08019734919071198,
            0.05678897723555565,
            0.08887732774019241,
            0.002022197935730219,
            -0.012521927244961262,
            -0.11215631663799286,
            -0.09569563716650009,
            -0.09069417417049408,
            -0.06815329194068909,
            0.0437493771314621,
            0.01491524651646614,
            0.02000422403216362,
            0.06276648491621017,
            -0.04492170736193657,
            -0.05090900883078575,
            0.020002786070108414,
            -0.14372964203357697,
            -0.1111866757273674,
            0.07740288227796555,
            0.10395756363868713,
            -0.08855155855417252,
            0.07699412107467651,
            0.03156623616814613,
            -0.11220420151948929,
            0.10101225972175598,
            0.0718202143907547,
            -0.10189773887395859,
            -0.14015483856201172,
            0.06466615200042725,
            0.03714495152235031,
            0.0141762038692832,
            0.10467086732387543,
            -0.1409989297389984,
            -0.15769709646701813,
            -0.04457784444093704,
            0.1145702674984932,
            0.056746549904346466,
            -0.129062220454216,
            0.09237616509199142,
            -0.0048483689315617085,
            0.05300077795982361,
            0.12279561161994934,
            -0.010968976654112339,
            -0.034265920519828796,
            0.13244016468524933,
            -0.019117102026939392,
            0.10231809318065643,
            -0.07955797016620636,
            0.04163477569818497,
            0.09901846200227737,
            0.08145631849765778,
            -0.15454186499118805,
            0.03223779425024986,
            -0.013893431052565575,
            0.04619412124156952,
            0.10473933070898056,
            0.014878123998641968,
            -0.08725032210350037,
            0.052575211971998215,
            0.07042092829942703,
            0.0638865977525711,
            0.06640665978193283,
            -0.018391307443380356,
            -0.1436617225408554,
            -0.11527042835950851,
            -0.14141583442687988,
            -0.10578600317239761,
            0.0644225925207138,
            -0.029285434633493423,
            0.06827596575021744,
            0.08406372368335724,
            -0.0837109386920929,
            -0.031649816781282425,
            -0.10125143080949783,
            -0.07814612984657288,
            -0.03239230066537857,
            -0.1251528561115265,
            0.047103699296712875,
            0.07134370505809784,
            -0.1272590160369873,
            0.04306953772902489,
            -0.11319626122713089,
            -0.06978563219308853,
            0.105206698179245,
            -0.06794742494821548,
            0.08044285327196121,
            0.08461202681064606,
            0.04030851274728775,
            0.10001121461391449,
            0.03888542577624321,
            -0.16233013570308685,
            -0.1199149340391159,
            -0.004338387865573168,
            0.08899606019258499,
            0.003219287609681487,
            0.11439153552055359,
            -0.09786620736122131,
            -0.04628090560436249,
            0.0060331993736326694,
            0.0503043495118618,
            -0.020839957520365715,
            0.00798194669187069,
            -0.16813939809799194,
            -0.0669996365904808,
            0.10658737272024155,
            0.060774464160203934,
            0.1486789584159851,
            -0.06463494151830673,
            0.01017693430185318,
            -0.1303565800189972,
            0.05167349800467491,
            -0.11198007315397263,
            0.12269692122936249,
            -0.04159010946750641,
            -0.005488228052854538,
            0.06577876210212708,
            0.0464053712785244,
            -0.013942095451056957,
            0.11290834844112396,
            0.03235342353582382,
            0.08590700477361679,
            0.07407622784376144,
            -0.010959228500723839,
            0.11094456911087036,
            -0.11314026266336441,
            -0.04896293208003044,
            -0.13868401944637299,
            -0.02598765678703785,
            0.1431821882724762,
            -0.11383869498968124,
            -0.15103256702423096,
            -0.021037055179476738,
            0.04927155002951622,
            0.07389506697654724,
            0.0677613615989685,
            -0.06289700418710709,
            -0.11064772307872772,
            -0.1324782371520996,
            -0.039203282445669174,
            -0.05230581760406494,
            -0.07948144525289536,
            0.1323203295469284,
            0.08191991597414017,
            -0.017305316403508186,
            -0.017374388873577118,
            -0.05215075984597206,
            -0.08397232741117477,
            0.057917751371860504,
            -0.03653699532151222,
            0.08723290264606476,
            0.0911480188369751,
            -0.06644993275403976,
            -0.09200993925333023
          ]
        ]
      }
    ],
    "trunk_layers": [
      {
        "activation": "gelu",
        "bias": [
          -0.1418726146221161,
          -0.06718751788139343,
          -0.13347746431827545,
          -0.07588580995798111,
          0.12261657416820526,
          0.08698515594005585,
          0.0744553655385971,
          0.11399086564779282,
          -0.12345591932535172,
          0.12002093344926834,
          -0.04270050302147865,
          0.058824632316827774,
          0.0951671451330185,
          -0.09962945431470871,
          -0.052713435143232346,
          -0.09937058389186859,
          0.0886412113904953,
          -0.028640316799283028,
          -0.002238488756120205,
          0.0027566966600716114,
          0.0925036296248436,
          -0.0965663269162178,
          0.0674736425280571,
          0.037010498344898224,
          0.04248021915555,
          0.027286164462566376,
          0.07260308414697647,
          -0.16204841434955597,
          0.023083863779902458,
          -0.019843295216560364,
          -0.07496661692857742,
          -0.1086348444223404,
          0.0843331441283226,
          0.0522625632584095,
          0.03115285187959671,
          -0.12173708528280258,
          -0.053830668330192566,
          -0.15233579277992249,
          0.1386372447013855,
          0.010224531404674053,
          0.09503953158855438,
          -0.05528167262673378,
          -0.11662555485963821,
          -0.03899034485220909,
          -0.008167510852217674,
          0.1038944199681282,
          0.009025873616337776,
          -0.09527576714754105,
          0.0685829296708107,
          -0.032717954367399216,
          -0.1413368582725525,
          0.0008941888227127492,
          -9.294020128436387e-05,
          -0.11201426386833191,
          -0.1421777456998825,
          -0.010256499983370304,
          -0.07868961989879608,
          -0.018055284395813942,
          0.03438388183712959,
          0.0031265458092093468,
          -0.07777763158082962,
          0.09054002165794373,
          0.019300589337944984,
          -0.11404836177825928,
          -0.10667687654495239,
          0.07039912045001984,
          0.00418278481811285,
          -0.05712776258587837,
          0.012454432435333729,
          0.12860345840454102,
          -0.08576339483261108,
          -0.1343076229095459,
          0.14977912604808807,
          0.042414844036102295,
          0.13820897042751312,
          0.06773768365383148,
          0.1391177922487259,
          -0.022420203313231468,
          -0.03549417853355408,
          -0.08495614677667618,
          -0.10801269114017487,
          0.06482302397489548,
          -0.16035884618759155,
          0.05513806268572807,
          -0.06809122860431671,
          -0.11100064963102341,
          0.010459845885634422,
          0.01209227554500103,
          -0.043776560574769974,
          0.10537692159414291,
          0.010284880176186562,
          -0.07159410417079926,
          -0.09913612902164459,
          0.05308740213513374,
          0.03286140039563179,
          -0.015989912673830986,
          -0.10691051185131073,
          -0.11275795102119446,
          -0.012543278746306896,
          -0.06111224368214607,
          -0.10169632732868195,
          0.03722097724676132,
          0.10520745813846588,
          -0.14133428037166595,
          -0.056591879576444626,
          0.0743778795003891,
          0.08833979070186615,
          0.13241256773471832,
          -0.062495820224285126,
          0.11942493170499802,
          -0.09063037484884262,
          -0.08471803367137909,
          -0.059399209916591644,
          0.1451869010925293,
          0.012453829869627953,
          -0.08261435478925705,
          0.09609277546405792,
          0.009714887477457523,
          0.08135824650526047,
          0.1526721566915512,
          -0.07080411165952682,
          0.11743967235088348,
          0.03790133818984032,
          -0.05687751993536949,
          -0.04992429539561272,
          -0.08901844173669815,
          0.0029925303533673286,
          0.03195013105869293,
          0.012415935285389423,
          -0.010034522041678429,
          -0.13199767470359802,
          0.05113424360752106,
          0.13854464888572693,
          -0.12150397896766663,
          -0.08581949025392532,
          0.02585642971098423,
          0.07744971662759781,
          -0.0008925419533625245,
          -0.14880283176898956,
          0.03745337575674057,
          0.13116616010665894,
          -0.12280008941888809,
          -0.08421329408884048,
          -0.0353529118001461,
          -0.02053970657289028,
          -0.11090019345283508,
          -0.05914222076535225,
          0.04285205900669098,
          0.05100454390048981,
          0.09856605529785156,
          -0.08022760599851608,
          0.1040896624326706,
          -0.026985475793480873,
          -0.0334867388010025,
          -0.028713267296552658,
          -0.0922936350107193,
          0.045039255172014236,
          -0.09045164287090302,
          -0.11315981298685074,
          -0.13694654405117035,
          0.06404796987771988,
          -0.1355377435684204,
          -0.01679077371954918,
          -0.023802394047379494,
          -0.13257084786891937,
          -0.0879942998290062,
          -0.07975674420595169,
          0.09831167757511139,
          -0.09691694378852844,
          -0.11290348321199417,
          -0.0716434195637703,
          0.06087647005915642,
          0.1067272424697876,
          -0.01749527081847191,
          0.04699097201228142,
          -0.05438365042209625,
          0.03238535299897194,
          0.09313951432704926,
          -1.287290797336027e-05,
          0.028657596558332443,
          0.048305757343769073,
          -0.02590719610452652,
          0.10273760557174683,
          -0.08238819241523743,
          0.13721343874931335,
          0.050974611192941666,
          -0.015874413773417473,
          -0.04704214632511139,
          -0.06009636074304581,
          0.13124021887779236,
          0.025640109553933144,
          0.004239536821842194,
          -0.011478994973003864,
          0.028805764392018318,
          0.16129828989505768,
          0.014326869510114193,
          -0.07303857803344727,
          -0.00018601752526592463,
          0.007139243185520172,
          0.11452508717775345,
          0.12011215835809708,
          -0.1244267001748085,
          0.1545991450548172,
          0.008555544540286064,
          -0.1262979805469513,
          -0.07576596736907959,
          -0.082450732588768,
          -0.16384612023830414,
          -0.00159905303735286,
          -0.053038258105516434,
          0.07333775609731674,
          -0.14098426699638367,
          0.024950256571173668,
          -0.0884244292974472,
          -0.1285906881093979,
          0.09532139450311661,
          -0.05093223974108696,
          0.12479422986507416,
          0.020326917991042137,
          -0.14644072949886322,
          0.00874076783657074,
          -0.09508915990591049,
          -0.08589079976081848,
          0.12287107855081558,
          0.0949186161160469,
          -0.13382671773433685,
          -0.03793655335903168,
          0.08050955086946487,
          -0.03758910298347473,
          0.1458417773246765,
          0.15616475045681,
          -0.1006828099489212,
          0.10528069734573364,
          0.10775839537382126,
          0.0712922140955925,
          0.05284861847758293,
          -0.1172720342874527,
          0.07293903082609177,
          0.10510231554508209,
          -0.14568744599819183,
          0.05341063439846039,
          0.11957444250583649,
          0.12336529046297073,
          -0.13256561756134033,
          -0.029520411044359207,
          0.03308234363794327,
          -0.11375778913497925,
          -0.10554703325033188,
          -0.0813073068857193,
          0.10778921097517014,
          -0.1085677444934845,
          0.04242204502224922,
          -0.12109185010194778,
          -0.10499638319015503,
          0.07346852123737335,
          -0.12459037452936172
        ],
        "weight": [
          [
            0.05388779938220978,
            -0.08327023684978485,
            0.06131746992468834,
            0.04228829964995384,
            -0.07108521461486816,
            -0.011633547022938728,
            -0.06224863603711128,
            0.03608005493879318,
            -0.0171981118619442,
            0.11384686827659607,
            0.09549611061811447,
            0.03703560680150986,
            -0.04822354018688202,
            -0.06389043480157852,
            -0.008490101434290409,
            -0.029174642637372017,
            0.05878029391169548,
            -0.11970927566289902,
            0.11521049588918686,
            -0.09826384484767914,
            0.09152679145336151,
            -0.016760047525167465,
            0.060087937861680984,
            0.06291566789150238,
            0.014776446856558323,
            0.012048957869410515,
            0.08354109525680542,
            0.01285623200237751,
            0.08283132314682007,
            -0.13721239566802979,
            0.08808452636003494,
            0.05400094389915466,
            0.03594546392560005,
            0.011566676199436188,
            0.052577998489141464,
            0.1277308464050293,
            -0.03354507312178612,
            -0.05414256826043129,
            -0.0670953318476677,
            -0.06870517134666443,
            0.10261212289333344,
            -0.1275249421596527,
            -0.12467893213033676,
            0.17125679552555084
          ],
          [
            0.1416093111038208,
            0.012872686609625816,
            -0.03424476087093353,
            -0.007686051540076733,
            0.07690028101205826,
            -0.14117804169654846,
            -0.10820160061120987,
            0.13421030342578888,
            0.15069381892681122,
            -0.004324406385421753,
            -0.10786132514476776,
            -0.0070515344850718975,
            -0.07435941696166992,
            0.002188759623095393,
            0.07505998015403748,
            0.05813250690698624,
            -0.012775118462741375,
            0.016061920672655106,
            0.013076591305434704,
            -0.11961738765239716,
            -0.06156250089406967,
            -0.008903451263904572,
            -0.08989033848047256,
            -0.06583217531442642,
            0.04592503607273102,
            0.09326708316802979,
            -0.0006942918989807367,
            -0.06892849504947662,
            0.09340780973434448,
            -0.0812772661447525,
            -0.031041936948895454,
            0.12780803442001343,
            0.02996951900422573,
            0.01871330291032791,
            0.04379487410187721,
            -0.040882036089897156,
            0.1289815604686737,
            -0.11467593908309937,
            -0.060693562030792236,
            0.0018718577921390533,
            -0.05095367878675461,
            -0.0677502378821373,
            0.059233829379081726,
            0.10384595394134521
          ],
          [
            0.05336243659257889,
            0.11510483175516129,
            -0.08390471339225769,
            -0.09391229599714279,
            0.044363491237163544,
            -0.037139520049095154,
            -0.11301113665103912,
            -0.12053993344306946,
            -0.08842015266418457,
            0.11744566261768341,
            0.059096746146678925,
            0.1147226020693779,
            -0.1257973313331604,
            -0.12311023473739624,
            -0.09959238767623901,
            0.021982628852128983,
            -0.039556797593832016,
            -0.10793644189834595,
            0.11482734978199005,
            -0.04004041478037834,
            -0.09107586741447449,
            0.06764564663171768,
            -0.0347122997045517,
            0.08130408823490143,
            0.03430981561541557,
            0.012360895052552223,
            0.05271078646183014,
            -0.13542291522026062,
            -0.06212753430008888,
            -0.060379087924957275,
            -0.10114740580320358,
            0.03988884761929512,
            0.04816126078367233,
            -0.04096442461013794,
            0.07337398082017899,
            -0.07678964734077454,
            0.030435703694820404,
            -0.001264606136828661,
            -0.14400707185268402,
            -0.05274924263358116,
            0.10078456252813339,
            0.0016589012229815125,
            -0.1362716555595398,
            -0.04673674702644348
          ],
          [
            -0.11284898221492767,
            0.05514467880129814,
            0.1248524859547615,
            0.04412423446774483,
            -0.07708879560232162,
            0.07514024525880814,
            0.12465579807758331,
            -0.028649194166064262,
            -0.018636591732501984,
            0.043449774384498596,
            0.007989608682692051,
            -0.0368858203291893,
            -0.13148050010204315,
            -0.0999135673046112,
            0.0029427187982946634,
            -0.0010927272960543633,
            0.11392466723918915,
            -0.0033534772228449583,
            -0.030628036707639694,
            -0.12900249660015106,
            -0.1413322240114212,
            0.05561298877000809,
            0.1542191058397293,
            0.004802079871296883,
            -0.12852896749973297,
            0.035458680242300034,
            0.1137763261795044,
            -0.10162746161222458,
            -0.032787423580884933,
            0.02461068332195282,
            -0.07737933099269867,
            -0.13066206872463226,
            0.04998704418540001,
            -0.13305561244487762,
            -0.03875258192420006,
            -0.08375872671604156,
            0.1133723109960556,
            0.04599643126130104,
            0.05729818716645241,
            -0.09615280479192734,
            0.15296684205532074,
            -0.00044348565279506147,
            -0.11044859886169434,
            -0.0024670246057212353
          ],
          [
            -0.1086808294057846,
            -0.014419456012547016,
            0.0905408039689064,
            -0.06375256180763245,
            0.14047420024871826,
            0.03857320919632912,
            -0.024001067504286766,
            0.06769878417253494,
            -0.03012026660144329,
            -0.04450143501162529,
            -0.08941207081079483,
            0.0841585174202919,
            0.08534781634807587,
            0.05265112966299057,
            0.09226124733686447,
            0.15079458057880402,
            0.12905752658843994,
            -0.14191210269927979,
            0.03291240707039833,
            -0.0026281902100890875,
            0.02844473347067833,
            -0.023753441870212555,
            0.051320843398571014,
            -0.13438042998313904,
            0.05984192341566086,
            0.13419672846794128,
            -0.013184272684156895,
            -0.12260415405035019,
            -0.1328418254852295,
            -0.023531721904873848,
            -0.0006527305231429636,
            0.012971530668437481,
            0.018528437241911888,
            0.10989434272050858,
            -0.022328371182084084,
            0.01785581186413765,
            -0.08012034744024277,
            0.1408371925354004,
            0.034612029790878296,
            -0.00654115155339241,
            0.12282519787549973,
            0.0335567444562912,
            -0.0035594955552369356,
            -0.053070615977048874
          ],
          [
            0.015560973435640335,
            0.027968108654022217,
            -0.11570146679878235,
            0.02870754338800907,
            0.06618665158748627,
            -0.08504636585712433,
            -0.0048350379802286625,
            -0.03691229596734047,
            -0.11414146423339844,
            -0.09272102266550064,
            -0.10011406987905502,
            0.048451874405145645,
            0.08957190066576004,
            0.11023201048374176,
            0.14284555613994598,
            0.06138785183429718,
            0.09288109093904495,
            -0.044110607355833054,
            0.07565249502658844,
            -0.04519528150558472,
            -0.023663198575377464,
            -0.04965262487530708,
            -0.11418989300727844,
            -0.09574534744024277,
            -0.052691590040922165,
            0.09102151542901993,
            -0.08325967192649841,
            -0.11265864223241806,
            -0.051263000816106796,
            0.11832573264837265,
            0.04798335209488869,
            -0.03137604147195816,
            -0.05147869884967804,
            0.127448171377182,
            -0.11473429203033447,
            0.08389241248369217,
            0.04093215987086296,
            0.08718562871217728,
            -0.09480687975883484,
            -0.06627572327852249,
            -0.09463465213775635,
            0.16544748842716217,
            0.002634681761264801,
            -0.1408010870218277
          ],
          [
            0.07409176230430603,
            0.03965895250439644,
            0.006080135703086853,
            -0.07078088819980621,
            -0.13422009348869324,
            0.13115596771240234,
            -0.12213960289955139,
            -0.02782057411968708,
            -0.02024225704371929,
            0.04594402760267258,
            -0.1046980693936348,
            -0.06998436152935028,
            -0.07580091059207916,
            -0.06635240465402603,
            0.08836900442838669,
            0.07755386829376221,
            0.056841712445020676,
            0.09718316793441772,
            -0.08904949575662613,
            0.014544680714607239,
            -0.12607549130916595,
            0.006412416230887175,
            -0.13976691663265228,
            -0.11803603917360306,
            0.057203058153390884,
            -0.08111463487148285,
            -0.01651238277554512,
            -0.03885277733206749,
            -0.1274113953113556,
            -0.015289721079170704,
            0.048591576516628265,
            0.10298715531826019,
            -0.0724562555551529,
            0.13982678949832916,
            -0.07083800435066223,
            0.09385252743959427,
            0.13167808949947357,
            0.006144746672362089,
            -0.0939694195985794,
            0.13713307678699493,
            0.003617927199229598,
            -0.11747855693101883,
            -0.0966058149933815,
            -0.09741435199975967
          ],
          [
            -0.02294781245291233,
            -0.09450961649417877,
            0.0901174396276474,
            -0.15270569920539856,
            -0.10663828253746033,
            0.029311222955584526,
            0.07671954482793808,
            0.1371365785598755,
            -0.11309940367937088,
            0.13882015645503998,
            0.1005316823720932,
            -0.09985262900590897,
            0.054829198867082596,
            -0.04279213026165962,
            0.047621265053749084,
            -0.1370675414800644,
            -0.08148037642240524,
            -0.10531549900770187,
            -0.026076484471559525,
            -0.0015422587748616934,
            0.022020945325493813,
            -0.09549682587385178,
            0.05661630630493164,
            0.08205204457044601,
            -0.12241861969232559,
            -0.14443901181221008,
            -0.022219648584723473,
            0.05697916820645332,
            -0.11067270487546921,
            -0.03521687164902687,
            0.007955989800393581,
            -0.10907217115163803,
            0.13825814425945282,
            0.10327916592359543,
            0.11308834701776505,
            -0.05600200220942497,
            -0.1077452078461647,
            0.02904670499265194,
            0.09547000378370285,
            0.08166985958814621,
            -0.11168649047613144,
            0.12512637674808502,
            -0.06653621047735214,
            -0.034593697637319565
          ],
          [
            -0.017458433285355568,
            0.042467232793569565,
            -0.15067054331302643,
            -0.10768041014671326,
            -0.0045896898955106735,
            0.056724049150943756,
            -0.02450079843401909,
            0.13075901567935944,
            0.128094881772995,
            -0.005096426699310541,
            -0.09654426574707031,
            0.010619900189340115,
            0.04174470528960228,
            -0.038695916533470154,
            -0.16446156799793243,
            0.09450797736644745,
            -0.049426402896642685,
            -0.09793204069137573,
            0.06792208552360535,
            0.06615502387285233,
            0.10080825537443161,
            -0.04327496141195297,
            0.12037959694862366,
            -0.02646961621940136,
            -0.0808933675289154,
            0.13555952906608582,
            0.18939414620399475,
            0.10360465943813324,
            -0.05604301765561104,
            -0.04807601496577263,
            0.032517895102500916,
            0.0736934170126915,
            0.004894878715276718,
            0.09140332788228989,
            -0.016226669773459435,
            0.0814494639635086,
            0.0715172067284584,
            0.1141667366027832,
            -0.04097612574696541,
            -0.14482280611991882,
            -0.12832710146903992,
            -0.013502836227416992,
            0.1595633327960968,
            -0.04218989238142967
          ],
          [
            -0.009728118777275085,
            -0.05824033543467522,
            0.0021723706740885973,
            0.10890742391347885,
            -0.00045869339373894036,
            0.056949883699417114,
            0.08185745030641556,
            -0.13715513050556183,
            0.057797133922576904,
            0.1520504653453827,
            -0.06699243187904358,
            0.01955176703631878,
            -0.0009139675530605018,
            0.07345663756132126,
            0.03593376651406288,
            -0.11452511698007584,
            -0.10565748065710068,
            0.123870350420475,
            -0.06788067519664764,
            -0.119090735912323,
            -0.14411517977714539,
            -0.12228541821241379,
            0.033550284802913666,
            0.01588505506515503,
            -0.0993662178516388,
            -0.03704969957470894,
            0.030475517734885216,
            0.06004565209150314,
            0.05057920143008232,
            -0.08340272307395935,
            0.12985679507255554,
            0.1363234519958496,
            -0.10228162258863449,
            0.14186513423919678,
            -0.11529526859521866,
            -0.10638820379972458,
            0.02976376749575138,
            0.033184558153152466,
            0.09965847432613373,
            -0.007885449565947056,
            0.1254274547100067,
            -0.06816036999225616,
            -0.12446685135364532,
            -0.017476676031947136
          ],
          [
            0.08469550311565399,
            -0.06589937955141068,
            -0.12360242009162903,
            -0.08469881862401962,
            0.01865648850798607,
            0.12653402984142303,
            0.011157535947859287,
            -0.11062025278806686,
            -0.06335071474313736,
            0.07225444912910461,
            -0.034170620143413544,
            -0.03489936515688896,
            0.11095692962408066,
            0.06216108798980713,
            0.09532031416893005,
            0.1291278749704361,
            -0.05170149728655815,
            0.022166913375258446,
            -0.09928067773580551,
            0.15677805244922638,
            -0.10597232729196548,
            0.12937170267105103,
            0.14151716232299805,
            0.028272442519664764,
            -0.1392413079738617,
            -0.0024557672441005707,
            -0.04235296696424484,
            0.0395374558866024,
            0.09500482678413391,
            0.09160103648900986,
            0.04822804406285286,
            -0.12436840683221817,
            -0.11568212509155273,
            0.044920939952135086,
            -0.033100396394729614,
            0.05867399275302887,
            0.14652012288570404,
            0.04512515664100647,
            -0.11378692835569382,
            -0.008045658469200134,
            0.12795552611351013,
            -0.023631872609257698,
            0.06451237201690674,
            -0.14913475513458252
          ],
          [
            -0.019304024055600166,
            -0.07025033235549927,
            0.10561656951904297,
            0.06168477237224579,
            -0.024417655542492867,
            -0.14622320234775543,
            -0.026175616309046745,
            0.10462892055511475,
            -0.010338665917515755,
            0.015861904248595238,
            -0.1275244504213333,
            0.0980563834309578,
            0.10602569580078125,
            -0.1211511492729187,
            -0.10074345767498016,
            0.0016400747699663043,
            -0.06755094975233078,
            -0.09104384481906891,
            0.03785422071814537,
            -0.04027457535266876,
            0.0447930283844471,
            0.04382788762450218,
            0.135756716132164,
            0.07027476280927658,
            -0.13986071944236755,
            -0.10001567751169205,
            0.1303958147764206,
            -0.1204545721411705,
            0.09472477436065674,
            -0.0917908102273941,
            0.11580528318881989,
            0.07711843401193619,
            -0.09006036072969437,
            -0.10808753222227097,
            -0.0610378161072731,
            -0.054778438061475754,
            -0.08555855602025986,
            0.10799690335988998,
            0.029132334515452385,
            -0.026267124339938164,
            -0.029871877282857895,
            0.0944967046380043,
            0.032208047807216644,
            -0.034940436482429504
          ],
          [
            0.1388830840587616,
            0.08764448016881943,
            -0.0029842474032193422,
            0.09998010098934174,
            -0.009827274829149246,
            -0.09999189525842667,
            0.08023414015769958,
            0.07268443703651428,
            0.016198648139834404,
            -0.15331315994262695,
            0.09147455543279648,
            0.02480398677289486,
            -0.07295159250497818,
            -0.13473497331142426,
            -0.080833300948143,
            0.13326533138751984,
            0.07979819923639297,
            -0.07794608920812607,
            0.11798680573701859,
            0.1006915420293808,
            0.06532962620258331,
            -0.011322193779051304,
            0.15499112010002136,
            -0.015503560192883015,
            -0.05135495215654373,
            0.051035091280937195,
            -0.0685606449842453,
            0.11908873915672302,
            -0.05919410660862923,
            0.07035508751869202,
            -0.09433367848396301,
            -0.0896986648440361,
            -0.009432809427380562,
            0.11298215389251709,
            -0.1107509657740593,
            -0.040111228823661804,
            0.0701243057847023,
            -0.032797008752822876,
            -0.14767342805862427,
            0.03736626356840134,
            -0.03740554302930832,
            0.027856245636940002,
            0.027220362797379494,
            -0.06521539390087128
          ],
          [
            -0.09271396696567535,
            0.07695401459932327,
            -0.11956048011779785,
            0.10037223994731903,
            0.03002011962234974,
            0.01888894848525524,
            -0.10855496674776077,
            0.06174289807677269,
            -0.1038520410656929,
            0.05588708817958832,
            -0.04694386199116707,
            0.007796735502779484,
            -0.036537155508995056,
            -0.08822178095579147,
            -0.12459224462509155,
            -0.03980569913983345,
            0.057860467582941055,
            -0.02834891900420189,
            -0.01596851274371147,
            -0.0696314200758934,
            -0.08839128911495209,
            -0.017832836136221886,
            -0.028952600434422493,
            0.0460464283823967,
            0.1267010122537613,
            -0.07473739981651306,
            -0.0030011467169970274,
            0.06593497842550278,
            -0.10217209905385971,
            -0.00030383243574760854,
            -0.05452229082584381,
            0.06374320387840271,
            0.0058122966438531876,
            0.040641944855451584,
            0.0703108087182045,
            -0.11683037877082825,
            -0.0814243033528328,
            0.10646267235279083,
            0.0820048525929451,
            0.04425676912069321,
            0.1735491156578064,
            0.07310251146554947,
            -0.10305353999137878,
            0.00443409476429224
          ],
          [
            0.07181855291128159,
            -0.08725761622190475,
            -0.16952548921108246,
            -0.05621810257434845,
            -0.13425593078136444,
            0.10024867951869965,
            0.006274030543863773,
            -0.12183718383312225,
            -0.0041197617538273335,
            0.11852286010980606,
            -0.08066675812005997,
            -0.0830177441239357,
            0.060992833226919174,
            -0.11406020820140839,
            -0.1395244002342224,
            0.0758528932929039,
            -0.01582169719040394,
            0.04829803481698036,
            -0.027248764410614967,
            0.1350470334291458,
            -0.04492156580090523,
            0.11230546236038208,
            -0.08740647882223129,
            -0.027538171038031578,
            0.09381791204214096,
            0.04875529929995537,
            -0.10980711877346039,
            0.00929046981036663,
            0.0802600160241127,
            -0.11640508472919464,
            0.026231413707137108,
            0.08735956251621246,
            -0.11948757618665695,
            0.05866076424717903,
            -0.12902683019638062,
            -0.1443329006433487,
            0.003315569134429097,
            -0.13618285953998566,
            -0.09871291369199753,
            0.10000450164079666,
            -0.015678735449910164,
            -0.10157773643732071,
            0.11098366230726242,
            -0.15422306954860687
          ],
          [
            0.04541977122426033,
            -0.0822746679186821,
            -0.04206515848636627,
            0.018530473113059998,
            0.1258930265903473,
            -0.03916449472308159,
            -0.11809033900499344,
            0.050791408866643906,
            -0.02314166910946369,
            -0.09620514512062073,
            0.05073119327425957,
            0.0490589402616024,
            -0.06596632301807404,
            0.030415568500757217,
            0.013347777538001537,
            0.007377614267170429,
            -0.03643721714615822,
            -0.08430596441030502,
            0.08841359615325928,
            0.12148334085941315,
            0.09413569420576096,
            0.12772969901561737,
            -0.04841093346476555,
            -0.0024300608783960342,
            -0.06521323323249817,
            -0.03401544690132141,
            0.017957590520381927,
            -0.026160109788179398,
            -0.09116369485855103,
            -0.1229509562253952,
            0.04027945548295975,
            0.11675652861595154,
            0.16428861021995544,
            0.09622963517904282,
            0.0698975920677185,
            0.038370776921510696,
            0.1016184613108635,
            -0.038464415818452835,
            -0.039587073028087616,
            0.09770788997411728,
            0.05813588574528694,
            -0.08550652861595154,
            -0.1344532072544098,
            -0.04952441528439522
          ],
          [
            -0.07049687206745148,
            0.012071456760168076,
            0.13263393938541412,
            -0.04304134473204613,
            -0.10828625410795212,
            -0.1315300166606903,
            0.04633880406618118,
            0.07679542899131775,
            -0.06768223643302917,
            -0.06667795777320862,
            0.12266352027654648,
            -0.12340071052312851,
            0.09316127747297287,
            0.003735813545063138,
            -0.07091518491506577,
            0.14278604090213776,
            -0.08957783877849579,
            0.1227102279663086,
            0.12160051614046097,
            0.053651366382837296,
            0.07398664951324463,
            0.04437589645385742,
            0.12211395055055618,
            0.043607402592897415,
            -0.16837261617183685,
            -0.0783967673778534,
            0.026371698826551437,
            0.11697234958410263,
            -0.041692718863487244,
            0.05476458743214607,
            0.056159090250730515,
            0.010417192243039608,
            -0.13273344933986664,
            0.13970166444778442,
            -0.05275038629770279,
            -0.00043801526771858335,
            -0.05864788591861725,
            0.04109910503029823,
            0.0864855945110321,
            0.04849100857973099,
            -0.049150869250297546,
            0.006352546159178019,
            -0.1394590586423874,
            0.1200098991394043
          ],
          [
            0.09497430920600891,
            0.0972258523106575,
            0.04213212430477142,
            -0.1327887624502182,
            -0.08249726891517639,
            -0.1446567326784134,
            0.08191757649183273,
            0.12336134910583496,
            0.08906623721122742,
            -0.0736672431230545,
            -0.08503714203834534,
            -0.06199774891138077,
            0.1269352287054062,
            -0.13843941688537598,
            -0.12190306186676025,
            0.06084606796503067,
            0.002161978976801038,
            -0.07769560813903809,
            -0.08746792376041412,
            -0.13060081005096436,
            0.0407283715903759,
            -0.06589153409004211,
            -0.03036617673933506,
            0.0854986384510994,
            -0.1336074322462082,
            0.11986692994832993,
            -0.046399861574172974,
            0.09588448703289032,
            -0.021800529211759567,
            0.11656691879034042,
            -0.08050122112035751,
            -0.04875417426228523,
            -0.09614907205104828,
            0.10027674585580826,
            -0.13949823379516602,
            0.09154718369245529,
            0.00013961851072963327,
            -0.0980013757944107,
            -0.08632015436887741,
            0.02076723240315914,
            -0.016156719997525215,
            -0.111390121281147,
            -0.08195530623197556,
            0.026026660576462746
          ],
          [
            0.09795104712247849,
            0.025318879634141922,
            0.10311099141836166,
            -0.012970981188118458,
            0.13425372540950775,
            0.042587630450725555,
            -0.0964246317744255,
            0.0971812754869461,
            0.05388414487242699,
            0.07314412295818329,
            -0.12178375571966171,
            -0.005467208102345467,
            -0.13415150344371796,
            -0.0147712929174304,
            -0.03568728640675545,
            -0.07067415118217468,
            -0.09448231011629105,
            0.11492078751325607,
            0.05807442218065262,
            0.05736870318651199,
            0.014386997558176517,
            0.0448022335767746,
            0.005815895274281502,
            -0.1274067759513855,
            -0.037073634564876556,
            0.08661463856697083,
            -0.019328152760863304,
            0.016689719632267952,
            0.08616848289966583,
            0.07178434729576111,
            -0.0186021588742733,
            0.11049851030111313,
            -0.05629800632596016,
            -0.0013015579897910357,
            0.11145243793725967,
            -0.08781398832798004,
            0.1493418663740158,
            -0.06496112793684006,
            -0.13816365599632263,
            0.1475401222705841,
            0.15223300457000732,
            -0.1585252583026886,
            0.03586914762854576,
            0.005446297582238913
          ],
          [
            -0.11020493507385254,
            -0.05023423582315445,
            0.004481703042984009,
            -0.12232451885938644,
            -0.0008884193957783282,
            0.048919450491666794,
            0.10618646442890167,
            0.11274197697639465,
            -0.06132063269615173,
            0.0511728934943676,
            0.020799545571208,
            0.0074621401727199554,
            -0.10993160307407379,
            0.04046640172600746,
            0.13334734737873077,
            -0.12127421051263809,
            -0.01657007820904255,
            0.06996390968561172,
            -0.005042798351496458,
            0.10720083117485046,
            -0.011325911618769169,
            -0.07776176929473877,
            -0.11991182714700699,
            -0.07737265527248383,
            -0.029139196500182152,
            0.08149756491184235,
            0.001181436819024384,
            0.02052242122590542,
            0.10388584434986115,
            0.04169630631804466,
            -0.04513723775744438,
            -0.04100928455591202,
            0.07682916522026062,
            -0.0676155611872673,
            0.050429947674274445,
            0.06160340458154678,
            0.0063248141668736935,
            -0.09814213216304779,
            -0.06749870628118515,
            -0.13781766593456268,
            0.04395465552806854,
            -0.14471495151519775,
            -0.08430705219507217,
            0.17007000744342804
          ],
          [
            -0.0007060098578222096,
            0.042858581990003586,
            -0.09865979105234146,
            -0.05128519982099533,
            -0.04082522541284561,
            0.05107029527425766,
            -0.10123905539512634,
            -0.07995294779539108,
            0.005297216586768627,
            0.02094627544283867,
            -0.0839536115527153,
            0.019495539367198944,
            -0.031545523554086685,
            -0.15204797685146332,
            0.16750620305538177,
            -0.11423995345830917,
            0.078122578561306,
            0.08136818557977676,
            -0.04077497124671936,
            -0.05314146354794502,
            0.13878494501113892,
            0.14349807798862457,
            0.00865136831998825,
            -0.0471482053399086,
            -0.05866466462612152,
            0.10963204503059387,
            -0.06399200856685638,
            0.06100788339972496,
            0.027587955817580223,
            0.13370776176452637,
            -0.005171275231987238,
            0.09303473681211472,
            -0.10677407681941986,
            -0.0606285035610199,
            -0.054397258907556534,
            -0.16078661382198334,
            -0.13546518981456757,
            0.08661197870969772,
            0.03926028683781624,
            -0.051655806601047516,
            -0.15184339880943298,
            0.15230359137058258,
            0.17292359471321106,
            0.08209331333637238
          ],
          [
            -0.08989889174699783,
            -0.14036130905151367,
            0.11509162187576294,
            0.06270737946033478,
            0.12966197729110718,
            0.03165897727012634,
            0.10329756140708923,
            -0.08088693022727966,
            -0.14384374022483826,
            0.05559943616390228,
            0.12454783916473389,
            -0.1142071932554245,
            0.05502999201416969,
            -0.06655395776033401,
            -0.11260170489549637,
            -0.037823598831892014,
            0.12445329874753952,
            0.11014555394649506,
            0.10045585036277771,
            0.1319418102502823,
            0.002014918951317668,
            0.07067528367042542,
            0.07082387059926987,
            -0.08754533529281616,
            0.10669898986816406,
            -0.018563317134976387,
            -0.045510269701480865,
            0.07779933512210846,
            0.17428500950336456,
            0.12520088255405426,
            -0.0026069937739521265,
            -0.07885899394750595,
            0.14207856357097626,
            0.0802609920501709,
            0.1310298889875412,
            -0.04849665239453316,
            0.08956040441989899,
            0.0051128375343978405,
            0.11483680456876755,
            0.04436159133911133,
            -0.10325297713279724,
            0.12167249619960785,
            0.16626514494419098,
            -0.17596188187599182
          ],
          [
            0.13642746210098267,
            0.1072707250714302,
            0.10203313827514648,
            0.045286670327186584,
            -0.017381541430950165,
            -0.0369848906993866,
            -0.043875083327293396,
            -0.07399871945381165,
            0.03391571342945099,
            0.05358608812093735,
            -0.017712198197841644,
            0.14503709971904755,
            0.0471777506172657,
            0.13854625821113586,
            0.12412048131227493,
            -0.026389697566628456,
            -0.11680473387241364,
            -0.09116779267787933,
            0.12477447837591171,
            -0.09628346562385559,
            0.033653341233730316,
            0.07255909591913223,
            -0.028703739866614342,
            0.11164785921573639,
            -0.10831137746572495,
            0.005741606466472149,
            0.04303105175495148,
            -0.1098763644695282,
            -0.06569402664899826,
            -0.05909593403339386,
            -0.00703833345323801,
            0.12664765119552612,
            0.12083219736814499,
            0.07893601804971695,
            -0.05783712863922119,
            -0.028676923364400864,
            0.014129813760519028,
            0.13045047223567963,
            -0.16500091552734375,
            0.025147389620542526,
            -0.09818942844867706,
            -0.0037453668192029,
            -0.08164999634027481,
            -0.01234471146017313
          ],
          [
            -0.14462298154830933,
            -0.03709105774760246,
            -0.1324305683374405,
            0.05544274300336838,
            -0.13782541453838348,
            -0.059128280729055405,
            0.12713997066020966,
            -0.13810060918331146,
            -0.11953873932361603,
            -0.10627570748329163,
            -0.10299941152334213,
            0.12219022214412689,
            -0.05122991278767586,
            -0.13317400217056274,
            0.06975432485342026,
            0.12246759980916977,
            0.08043316751718521,
            0.010086704045534134,
            0.02953375317156315,
            0.04217774420976639,
            0.1422720104455948,
            0.06952502578496933,
            -0.12576636672019958,
            -0.11416610330343246,
            -0.09530982375144958,
            -0.06325677782297134,
            0.11992216110229492,
            -0.12804247438907623,
            -0.02679099142551422,
            0.10461792349815369,
            0.04918034002184868,
            -0.07715367525815964,
            -0.006781577132642269,
            -0.12122030556201935,
            -0.0797450989484787,
            -0.10634934902191162,
            -0.11014591157436371,
            0.13884660601615906,
            -0.01427276711910963,
            -0.08845831453800201,
            -0.08482047915458679,
            -0.1111353188753128,
            -0.07717544585466385,
            0.03247499838471413
          ],
          [
            -0.11837302893400192,
            0.036510951817035675,
            0.07419273257255554,
            0.10346991568803787,
            -0.0765671655535698,
            -0.034276098012924194,
            0.14838387072086334,
            -0.006935067009180784,
            -0.12548598647117615,
            -0.031541649252176285,
            0.04796581715345383,
            -0.015321309678256512,
            0.046245817095041275,
            -0.1272052824497223,
            0.06485665589570999,
            -0.06191982328891754,
            -0.03977623209357262,
            -0.02346799522638321,
            0.14156757295131683,
            0.10773741453886032,
            0.12437582015991211,
            -0.011419703252613544,
            0.09282048046588898,
            -0.022688517346978188,
            0.10603474825620651,
            -0.056810151785612106,
            -0.07275805622339249,
            -0.10512513667345047,
            -0.019274184480309486,
            -0.07760797441005707,
            0.09588035941123962,
            -0.07382243126630783,
            0.06784519553184509,
            -0.07038401812314987,
            0.08955800533294678,
            0.0097611453384161,
            -0.08997966349124908,
            0.001684881281107664,
            -0.1422843486070633,
            -0.05124032124876976,
            -0.12133003026247025,
            -0.08268965780735016,
            0.17336155474185944,
            0.0840538889169693
          ],
          [
            0.045174770057201385,
            0.09308238327503204,
            -0.127169668674469,
            -0.07271777093410492,
            -0.08844899386167526,
            -0.09401346743106842,
            -0.03766464814543724,
            0.0991128459572792,
            -0.09332915395498276,
            0.013404986821115017,
            0.06680697947740555,
            -0.0749715268611908,
            0.04782628268003464,
            -0.03887418285012245,
            0.06439108401536942,
            0.11906595528125763,
            0.024864668026566505,
            -0.09581161290407181,
            -0.0844670981168747,
            0.11027150601148605,
            -0.042279407382011414,
            0.12768341600894928,
            -0.11676531285047531,
            -0.07788947224617004,
            0.13519711792469025,
            0.008230087347328663,
            -0.06743329018354416,
            0.008784047327935696,
            0.0038456027396023273,
            -0.13206501305103302,
            0.06518451869487762,
            0.08066141605377197,
            0.015353772789239883,
            -0.11496544629335403,
            -0.03871900215744972,
            0.06641112267971039,
            -0.050420667976140976,
            0.12014246731996536,
            -0.08384822309017181,
            -0.0038718441501259804,
            0.1264858990907669,
            -0.015477731823921204,
            0.04411179572343826,
            -0.10071549564599991
          ],
          [
            0.12166253477334976,
            -0.04520391300320625,
            -0.0115656154230237,
            0.08005461096763611,
            0.053692255169153214,
            -0.08302724361419678,
            0.07079587131738663,
            0.002822364680469036,
            0.09229554980993271,
            -0.08462916314601898,
            0.017764102667570114,
            -0.017469806596636772,
            0.06192593276500702,
            0.0706794410943985,
            0.030067602172493935,
            0.1323656141757965,
            0.04791055619716644,
            -0.11199581623077393,
            -0.08381783217191696,
            -0.0015422642463818192,
            -0.14620234072208405,
            0.0740402489900589,
            0.12492581456899643,
            -0.06368622928857803,
            -0.05637427419424057,
            -0.1490158587694168,
            0.06045472249388695,
            0.020920773968100548,
            0.07191333919763565,
            -0.06642737239599228,
            -0.10640524327754974,
            0.12920813262462616,
            0.12830570340156555,
            -0.07494516670703888,
            -0.006538621615618467,
            -0.034862738102674484,
            -0.09700890630483627,
            -0.1468653529882431,
            0.057410914450883865,
            0.09064675867557526,
            0.10765167325735092,
            -0.18010163307189941,
            -0.08829236030578613,
            0.14304091036319733
          ],
          [
            0.06777425110340118,
            -0.01939593441784382,
            0.002687576925382018,
            0.07393687218427658,
            0.14461348950862885,
            0.13013355433940887,
            0.13513201475143433,
            0.13776248693466187,
            -0.058683767914772034,
            0.13851237297058105,
            4.043269655085169e-05,
            -0.023338016122579575,
            0.10466530174016953,
            -0.025042006745934486,
            0.016878262162208557,
            -0.01859910413622856,
            -0.09759772568941116,
            -0.11507365107536316,
            0.111733078956604,
            0.1539974808692932,
            -0.015192749910056591,
            -0.07166291773319244,
            0.1325196772813797,
            0.03213757276535034,
            0.07596128433942795,
            -0.14304959774017334,
            0.06843198835849762,
            0.02295173518359661,
            0.11482881754636765,
            0.10193190723657608,
            0.08730863779783249,
            0.03111811727285385,
            0.05874286964535713,
            0.062363866716623306,
            0.1492525190114975,
            0.0780932754278183,
            -0.0036449863109737635,
            0.031114691868424416,
            -0.07387644797563553,
            0.131023570895195,
            -0.07934387028217316,
            0.12815888226032257,
            0.10936225205659866,
            -0.11986830830574036
          ],
          [
            -0.17904047667980194,
            0.0030628121457993984,
            0.05873141810297966,
            0.14708483219146729,
            -0.1294206827878952,
            -0.03163008391857147,
            0.04202510416507721,
            -0.04427005350589752,
            -0.12048854678869247,
            0.052981797605752945,
            0.08853323012590408,
            -0.03393279388546944,
            0.06820270419120789,
            0.030681945383548737,
            0.1315993219614029,
            0.04451384022831917,
            0.0532902330160141,
            -0.0297390129417181,
            -0.07935421168804169,
            0.045723505318164825,
            0.11929064244031906,
            0.05288716405630112,
            -0.1330796331167221,
            0.10316374152898788,
            0.11489206552505493,
            0.007519248872995377,
            -0.08593419939279556,
            -0.04376283288002014,
            0.09673906862735748,
            0.0715915709733963,
            -0.016177015379071236,
            0.003907188773155212,
            1.641525886952877e-05,
            -0.1404738575220108,
            0.10797907412052155,
            -0.020967477932572365,
            -0.12488146126270294,
            0.002111941110342741,
            0.08505605161190033,
            -0.1131644994020462,
            -0.019305553287267685,
            -0.10303962975740433,
            0.049929436296224594,
            -0.034407325088977814
          ],
          [
            0.08192232251167297,
            -0.037095364183187485,
            0.1399184912443161,
            -0.13013309240341187,
            -0.02881302498281002,
            -0.1158878356218338,
            -0.10984780639410019,
            0.118424192070961,
            0.08854164183139801,
            0.10764563083648682,
            0.07296004891395569,
            -0.07371226698160172,
            -0.026055488735437393,
            -0.12007591873407364,
            0.1408020406961441,
            -0.012041316367685795,
            -0.017321238294243813,
            0.053979743272066116,
            -0.014786817133426666,
            -0.09548384696245193,
            -0.012826710939407349,
            0.0943564772605896,
            0.10068616271018982,
            -0.1329604983329773,
            0.11747098714113235,
            0.055069711059331894,
            -0.13826583325862885,
            -0.024780109524726868,
            -0.0901515856385231,
            0.012715306133031845,
            -0.12418071925640106,
            -0.04065626114606857,
            0.10858912020921707,
            -0.028665121644735336,
            0.03390158340334892,
            -0.07493598014116287,
            0.10533343255519867,
            0.10893304646015167,
            -0.03971537947654724,
            0.021217448636889458,
            0.18037936091423035,
            -0.1817949414253235,
            0.030908890068531036,
            -0.1066630631685257
          ],
          [
            -0.05628807470202446,
            -0.14245212078094482,
            0.02151179499924183,
            0.10569832473993301,
            -0.011469165794551373,
            0.06262525171041489,
            -0.0355270653963089,
            -0.10936889797449112,
            -0.10702255368232727,
            0.0009643746889196336,
            0.09081988781690598,
            0.10530853271484375,
            -0.045518044382333755,
            0.031004196032881737,
            0.12320193648338318,
            -0.10250906646251678,
            -0.11934301257133484,
            -0.1406058818101883,
            0.07464291900396347,
            -0.09732090681791306,
            -0.11997206509113312,
            0.051764581352472305,
            0.07299114763736725,
            0.0813402533531189,
            -0.12012014538049698,
            0.12597422301769257,
            0.10038381814956665,
            -0.04234876483678818,
            -0.08853736519813538,
            -0.103522889316082,
            -0.08905405551195145,
            -0.10976822674274445,
            0.06941380351781845,
            0.09048634767532349,
            0.0632862001657486,
            0.05981585383415222,
            -0.08682157099246979,
            0.09112579375505447,
            0.12088824063539505,
            0.08782132714986801,
            0.11627544462680817,
            -0.0678410530090332,
            0.0524023175239563,
            -0.030741821974515915
          ],
          [
            -0.008056768216192722,
            0.1329057365655899,
            -0.003507825545966625,
            0.007844132371246815,
            0.01716037280857563,
            -0.00250520883128047,
            -0.07395104318857193,
            0.10217516124248505,
            0.12154354155063629,
            -0.07905814051628113,
            -0.14346884191036224,
            -0.023255672305822372,
            -0.1050168126821518,
            0.09510266035795212,
            -0.059459105134010315,
            0.11156564950942993,
            0.017281530424952507,
            -0.04719201475381851,
            -0.08108735829591751,
            0.03991261497139931,
            -0.1233028993010521,
            -0.0031226177234202623,
            -0.13625751435756683,
            -0.14066432416439056,
            -0.0998367965221405,
            0.07264740020036697,
            -0.10057704895734787,
            0.14712941646575928,
            -0.15231205523014069,
            -0.12526936829090118,
            0.06718666106462479,
            0.007886643521487713,
            0.10806220769882202,
            -0.008804992772638798,
            0.07019157707691193,
            0.13036076724529266,
            -0.10389408469200134,
            -0.08487696200609207,
            0.11591910570859909,
            0.1362186223268509,
            0.015145989134907722,
            0.05334920436143875,
            -0.13208343088626862,
            0.13563618063926697
          ],
          [
            -0.05501179024577141,
            0.08044405281543732,
            -0.0438409298658371,
            -0.10098356753587723,
            -0.042317673563957214,
            -0.025311600416898727,
            0.001088807126507163,
            0.05785071477293968,
            -0.1241932362318039,
            -0.08306942135095596,
            -0.042845532298088074,
            0.03986968845129013,
            -0.10383298248052597,
            0.12748706340789795,
            -0.08204571902751923,
            0.12276247888803482,
            0.03532638028264046,
            0.04311393201351166,
            -0.05144679173827171,
            0.06151510775089264,
            -0.07397107034921646,
            0.018492059782147408,
            0.09532471746206284,
            -0.016360385343432426,
            -0.033244092017412186,
            -0.0034010051749646664,
            -0.07965812087059021,
            -0.10435805469751358,
            -0.04018266126513481,
            0.016172485426068306,
            0.13133123517036438,
            -0.01937088929116726,
            -0.024668913334608078,
            0.031155133619904518,
            0.04341943934559822,
            -0.02670978754758835,
            0.06578218191862106,
            0.13376282155513763,
            -0.08114231377840042,
            -0.058822907507419586,
            -0.006110721733421087,
            0.14978519082069397,
            0.05072677135467529,
            -0.15809141099452972
          ],
          [
            0.11004821211099625,
            0.10628104954957962,
            0.12143612653017044,
            0.044143714010715485,
            -0.13074913620948792,
            0.01764676719903946,
            -0.027853555977344513,
            -0.06712980568408966,
            -0.10041625797748566,
            -0.031608570367097855,
            0.10815116763114929,
            0.05826013907790184,
            0.0022638682276010513,
            0.04011936113238335,
            -0.1186928078532219,
            0.06283673644065857,
            0.02236240543425083,
            -0.1021505668759346,
            -0.11170806735754013,
            -0.06928088515996933,
            0.044347696006298065,
            0.032334573566913605,
            0.028959283605217934,
            -0.00904745701700449,
            0.08234216272830963,
            -0.10758616030216217,
            0.07279597222805023,
            -0.056972675025463104,
            -0.06537958979606628,
            -0.09121973067522049,
            0.057257797569036484,
            -0.06161117926239967,
            0.07605805993080139,
            0.08153104782104492,
            0.017566988244652748,
            0.04720846563577652,
            0.08779400587081909,
            0.04406590759754181,
            -0.12329725176095963,
            0.010177169926464558,
            -0.007018468342721462,
            0.02949407324194908,
            -0.10432369261980057,
            0.08569766581058502
          ],
          [
            0.07844826579093933,
            0.09264889359474182,
            0.1356411576271057,
            -0.02587500587105751,
            -0.10146929323673248,
            -0.12493883073329926,
            -0.03373468294739723,
            0.09336020052433014,
            -0.030513828620314598,
            -0.1153939738869667,
            -0.09075213968753815,
            -0.08806630223989487,
            -0.09171756356954575,
            6.25928514637053e-05,
            -0.02202235348522663,
            -0.0595310777425766,
            -0.01831834390759468,
            -0.06360164284706116,
            -0.026450058445334435,
            0.0806438997387886,
            -0.021686110645532608,
            -0.04428544640541077,
            0.04215812683105469,
            0.09325968474149704,
            0.12744437158107758,
            -0.06947419047355652,
            -0.12373830378055573,
            0.023173870518803596,
            0.0640442967414856,
            0.014806482009589672,
            0.14592373371124268,
            0.0621161125600338,
            0.005811053793877363,
            0.09898559749126434,
            0.12457547336816788,
            -0.07596930116415024,
            -0.1121513620018959,
            0.010182603262364864,
            -0.08489589393138885,
            -0.10382527858018875,
            -0.10868553817272186,
            0.10473043471574783,
            -0.04924115911126137,
            -0.1170133575797081
          ],
          [
            0.11846884340047836,
            0.010674363002181053,
            0.027100782841444016,
            -0.04820835217833519,
            0.03872193768620491,
            0.07669048011302948,
            -0.08051797747612,
            -0.023858651518821716,
            0.0005563875311054289,
            0.11768123507499695,
            0.11976474523544312,
            0.10612332820892334,
            -0.04865845665335655,
            0.00979677215218544,
            -0.002002761233597994,
            -0.10599876195192337,
            -0.10254648327827454,
            -0.0097227543592453,
            -0.03786669671535492,
            0.061457160860300064,
            -0.13868780434131622,
            -0.055662911385297775,
            0.1190822646021843,
            0.021011119708418846,
            -0.10279782861471176,
            0.07133342325687408,
            -0.059884387999773026,
            -0.10527952015399933,
            -0.07878983020782471,
            -0.07320460677146912,
            -0.07620368897914886,
            0.024019794538617134,
            0.07627739757299423,
            0.09777355194091797,
            0.13577036559581757,
            0.11792639642953873,
            -0.07975322753190994,
            0.13874158263206482,
            -0.07589058578014374,
            0.11214356869459152,
            -0.058192089200019836,
            0.08685842156410217,
            -0.029575424268841743,
            0.06767505407333374
          ],
          [
            0.13131459057331085,
            -0.029651911929249763,
            0.06222302094101906,
            0.03665909916162491,
            -0.054837312549352646,
            -0.02969907969236374,
            0.16936835646629333,
            0.052227530628442764,
            0.12049175798892975,
            0.08845539391040802,
            0.08834701031446457,
            -0.06826367229223251,
            -0.04423416033387184,
            0.12067265808582306,
            0.027314597740769386,
            0.09004911780357361,
            0.12850481271743774,
            0.07839799672365189,
            0.042436063289642334,
            -0.05841795727610588,
            0.03419847413897514,
            -0.011813213117420673,
            0.09413938969373703,
            0.05467575415968895,
            -0.09000620245933533,
            0.09895429015159607,
            0.00583862466737628,
            0.02094321884214878,
            -0.07913319766521454,
            -0.14249886572360992,
            0.047281865030527115,
            0.06829249858856201,
            0.12304456532001495,
            0.11686553061008453,
            0.03229096904397011,
            0.08155515044927597,
            0.04022888094186783,
            -0.06334872543811798,
            -0.0011212000390514731,
            -0.14892438054084778,
            -0.13280950486660004,
            0.1902359127998352,
            0.10946688055992126,
            0.02028150111436844
          ],
          [
            -0.013644733466207981,
            -0.14276215434074402,
            -0.022529972717165947,
            -0.042515527456998825,
            -0.08140163123607635,
            0.026678575202822685,
            -0.060959670692682266,
            -0.07416850328445435,
            -0.0572407990694046,
            -0.1253955364227295,
            -0.023112965747714043,
            -0.00792028196156025,
            -0.029498551040887833,
            -0.02163645811378956,
            -0.04247105494141579,
            0.10460449755191803,
            0.05004425719380379,
            0.03555937111377716,
            -0.09967399388551712,
            -0.10716535896062851,
            0.05969862639904022,
            0.0021932036615908146,
            -0.003419811138883233,
            -0.06929109990596771,
            -0.10948829352855682,
            -0.05599780008196831,
            0.09903298318386078,
            0.0892956405878067,
            0.07651559263467789,
            -0.0824817642569542,
            -0.0033612758852541447,
            -0.1387357860803604,
            -0.07302428781986237,
            -0.09539913386106491,
            0.0016451741103082895,
            -0.1408582478761673,
            0.10967525094747543,
            0.12315093725919724,
            -0.02818688564002514,
            0.07198330014944077,
            0.0855739563703537,
            0.07292445003986359,
            -0.03039698302745819,
            0.16790682077407837
          ],
          [
            0.06731296330690384,
            -0.049886979162693024,
            0.10893628001213074,
            0.049231383949518204,
            0.07128215581178665,
            0.011782793328166008,
            -0.08060076832771301,
            0.13055439293384552,
            0.03946124017238617,
            -0.03291884437203407,
            0.03507089614868164,
            -0.07596693187952042,
            0.03558000177145004,
            -0.14316360652446747,
            0.0859464555978775,
            0.09587245434522629,
            -0.08019596338272095,
            0.0607890859246254,
            0.004450470209121704,
            -0.04427068307995796,
            0.14551715552806854,
            0.009086767211556435,
            -0.09448042511940002,
            -0.13945549726486206,
            -0.0014625261537730694,
            -0.07391718775033951,
            -0.12980514764785767,
            -0.11187214404344559,
            0.1177276223897934,
            -0.08166205883026123,
            -0.08893157541751862,
            -0.08164237439632416,
            0.005771667696535587,
            -0.029890529811382294,
            -0.11751481145620346,
            -0.09411700814962387,
            -0.1043601930141449,
            0.02863117679953575,
            -0.04244285076856613,
            0.14858268201351166,
            0.09176855534315109,
            0.004853561986237764,
            0.09610746800899506,
            0.021398646757006645
          ],
          [
            -0.08405385911464691,
            0.14379945397377014,
            -0.07504396140575409,
            -0.09649484604597092,
            0.11606866121292114,
            0.15922287106513977,
            0.0903470441699028,
            -0.02434818260371685,
            0.16307136416435242,
            0.08252408355474472,
            0.03415791690349579,
            -0.02075040526688099,
            0.09651681780815125,
            -0.06472732126712799,
            -0.047144778072834015,
            0.08735428750514984,
            0.03673350438475609,
            0.011127994395792484,
            -0.022976504638791084,
            -0.014427176676690578,
            0.1447995901107788,
            0.14214104413986206,
            -0.15981778502464294,
            -0.12133797258138657,
            -0.11549925059080124,
            0.011335847899317741,
            0.027997760102152824,
            -0.08454738557338715,
            0.07429647445678711,
            -0.16746772825717926,
            0.10635600239038467,
            -0.020614441484212875,
            0.06322827935218811,
            0.08046509325504303,
            0.011078325100243092,
            -0.09911488741636276,
            -0.04211919382214546,
            0.12522457540035248,
            -0.009964392520487309,
            -0.01668284647166729,
            -0.14196275174617767,
            -0.06610210239887238,
            0.008542899042367935,
            -0.00466496404260397
          ],
          [
            -0.11802367120981216,
            0.013182508759200573,
            0.14764586091041565,
            0.15638089179992676,
            -0.00878999475389719,
            0.13169072568416595,
            0.16626597940921783,
            0.0860227420926094,
            0.12901441752910614,
            0.044608257710933685,
            -0.02265964075922966,
            0.11337050050497055,
            0.052589770406484604,
            0.017541302368044853,
            0.011264965869486332,
            -0.004451436456292868,
            -0.12491454929113388,
            -0.05594881996512413,
            -0.11676261574029922,
            -0.006862951442599297,
            0.05361611768603325,
            -0.09320085495710373,
            0.004743748344480991,
            -0.06917882710695267,
            -0.07326709479093552,
            0.05108620226383209,
            0.0729386955499649,
            0.12243399769067764,
            -0.041090548038482666,
            0.10513675957918167,
            -0.12694557011127472,
            -0.01188002061098814,
            0.027600178495049477,
            0.14365755021572113,
            0.08392082899808884,
            -0.0840325877070427,
            0.0743255540728569,
            -0.02373523637652397,
            -0.15711051225662231,
            -0.13381297886371613,
            -0.13929420709609985,
            0.17574414610862732,
            0.1682703197002411,
            -0.1730300933122635
          ],
          [
            0.1031869649887085,
            0.119230255484581,
            0.013735923916101456,
            0.0990901067852974,
            0.1075216680765152,
            0.03570956736803055,
            -0.03607373312115669,
            0.0970282182097435,
            0.030204351991415024,
            0.06323851644992828,
            -0.14251942932605743,
            0.03922399878501892,
            0.0570833683013916,
            -0.06542731821537018,
            -0.10993580520153046,
            -0.04295680299401283,
            0.043522633612155914,
            -0.05716367065906525,
            -0.02728378213942051,
            -0.11568865180015564,
            -0.03613722324371338,
            -0.046580154448747635,
            -0.13037416338920593,
            0.05954558402299881,
            0.010149110108613968,
            -0.12753742933273315,
            0.08822642266750336,
            0.06559828668832779,
            -0.07901930063962936,
            -0.03848504647612572,
            -0.08115331828594208,
            -0.03825639188289642,
            0.044447243213653564,
            0.14049814641475677,
            0.08034926652908325,
            -0.09784238040447235,
            0.13970395922660828,
            0.011786260642111301,
            -0.17410270869731903,
            0.13513712584972382,
            0.16953018307685852,
            -0.09395109862089157,
            -0.1978338062763214,
            0.1306929737329483
          ],
          [
            -0.04805776849389076,
            -0.11186482012271881,
            -0.0394911989569664,
            -0.009254362434148788,
            0.024611981585621834,
            0.04991138353943825,
            0.059376880526542664,
            -0.0037961953785270452,
            -0.07281623780727386,
            -0.06868808716535568,
            0.0914309024810791,
            0.03799838572740555,
            0.09142610430717468,
            0.01175637636333704,
            -0.006295459344983101,
            -0.1299595981836319,
            -0.05134538188576698,
            -0.07151006907224655,
            -0.12418179959058762,
            0.11021463572978973,
            0.06127149984240532,
            0.1337907314300537,
            0.10144743323326111,
            0.10176298022270203,
            -0.07927962392568588,
            0.10998301208019257,
            -0.12492790818214417,
            0.024020463228225708,
            -0.09170903265476227,
            0.08211386203765869,
            -0.018921973183751106,
            0.12063303589820862,
            0.030491048470139503,
            0.10969889909029007,
            -0.021511763334274292,
            -0.13128900527954102,
            -0.14480674266815186,
            -0.11608345806598663,
            -0.11316998302936554,
            0.17531268298625946,
            0.08582553267478943,
            -0.03733673319220543,
            0.05044068396091461,
            -0.0900191143155098
          ],
          [
            -0.024236289784312248,
            0.09767983108758926,
            -0.14938895404338837,
            -0.13839419186115265,
            0.16538962721824646,
            -0.0012254255125299096,
            -0.11711274087429047,
            0.1579151600599289,
            0.02122289314866066,
            0.08153001964092255,
            0.04296056926250458,
            0.05428414046764374,
            0.12897178530693054,
            0.04714183509349823,
            -0.1562420129776001,
            0.10328743606805801,
            -0.1368912011384964,
            0.07752125710248947,
            -0.1297995150089264,
            -0.07095468789339066,
            -0.06480483710765839,
            0.015219040215015411,
            0.07281071692705154,
            -0.09563351422548294,
            -0.13101184368133545,
            0.07209020107984543,
            -0.12152203172445297,
            -0.134670227766037,
            -0.0232399832457304,
            -0.07420402765274048,
            -0.11609827727079391,
            -0.026743892580270767,
            0.04369334504008293,
            0.11046729236841202,
            0.0608370266854763,
            0.039028119295835495,
            0.021664192900061607,
            -0.13773363828659058,
            -0.03051108680665493,
            -0.08556585013866425,
            -0.0034300198312848806,
            0.16182084381580353,
            0.19878219068050385,
            -0.14355653524398804
          ],
          [
            0.037577372044324875,
            0.019801940768957138,
            -0.06355537474155426,
            0.09899440407752991,
            0.11211248487234116,
            0.028301600366830826,
            -0.08091160655021667,
            0.11849793046712875,
            0.11841098964214325,
            -0.07019251585006714,
            -0.07818026840686798,
            0.11772836744785309,
            -0.1344057321548462,
            0.007039919495582581,
            -0.03618345409631729,
            -0.03998401388525963,
            -0.11138776689767838,
            -0.04963172599673271,
            -0.08712251484394073,
            0.00414388719946146,
            0.08545495569705963,
            -0.08543232828378677,
            0.13158832490444183,
            0.055415526032447815,
            -0.041615307331085205,
            0.10187483578920364,
            -0.03872484713792801,
            -0.06528628617525101,
            -0.12387415766716003,
            -0.05238007381558418,
            -0.0627615675330162,
            0.059169456362724304,
            -0.12520314753055573,
            0.14521552622318268,
            -0.014658340252935886,
            0.0339464470744133,
            -0.03797896206378937,
            -0.03604931756854057,
            -0.13172279298305511,
            0.041010499000549316,
            0.13083355128765106,
            -0.006180860567837954,
            0.01406017318367958,
            -0.1172325387597084
          ],
          [
            0.06859759986400604,
            -0.0335838757455349,
            -0.1252909153699875,
            -0.05546698719263077,
            -0.09916872531175613,
            -0.013829107396304607,
            0.11826732754707336,
            -0.04898250102996826,
            -0.04502854123711586,
            0.10681682080030441,
            -0.040167186409235,
            0.0671391561627388,
            0.11264012008905411,
            0.07382061332464218,
            0.07893526554107666,
            0.09796135872602463,
            0.0013154580956324935,
            -0.14053235948085785,
            -0.09174291044473648,
            -0.01080185268074274,
            -0.0031372355297207832,
            0.0304422527551651,
            0.049768444150686264,
            -0.010169457644224167,
            0.04736822471022606,
            -0.15785996615886688,
            -0.02868766523897648,
            -0.11338360607624054,
            0.03739004582166672,
            0.09745384007692337,
            -0.045572660863399506,
            -0.03911004588007927,
            0.058974821120500565,
            -0.06459758430719376,
            0.0822673961520195,
            -0.1111881360411644,
            -0.00436501344665885,
            -0.01033267006278038,
            -0.1214287206530571,
            -0.029117168858647346,
            -0.03121114894747734,
            0.024624904617667198,
            0.16511571407318115,
            -0.029473891481757164
          ],
          [
            0.057396791875362396,
            -0.029280904680490494,
            -0.06999289244413376,
            -0.023076731711626053,
            -0.0944027453660965,
            -0.07317336648702621,
            -0.02524261549115181,
            0.0031584769021719694,
            -0.08076012879610062,
            -0.056170910596847534,
            -0.10678044706583023,
            -0.09594856947660446,
            -0.13028079271316528,
            -0.10382114350795746,
            -0.04549083858728409,
            -0.021123580634593964,
            0.12350378185510635,
            0.0060911355540156364,
            -0.09442999958992004,
            -0.1320301592350006,
            -0.05986848846077919,
            -0.005613935645669699,
            -0.12595660984516144,
            -0.07390812784433365,
            0.02032467909157276,
            0.15202073752880096,
            0.011167905293405056,
            -0.1546388864517212,
            -0.10616664588451385,
            -0.12390487641096115,
            0.07518632709980011,
            0.0882924273610115,
            0.0077441781759262085,
            -0.08461931347846985,
            -0.0735640823841095,
            -0.06680811941623688,
            0.1396155059337616,
            -0.13791334629058838,
            0.030132638290524483,
            0.04198895022273064,
            -0.16795101761817932,
            0.11477138847112656,
            0.11926386505365372,
            0.008095133118331432
          ],
          [
            0.14855864644050598,
            -0.07073426246643066,
            -0.14712083339691162,
            -0.09136386960744858,
            -0.13327674567699432,
            0.047587327659130096,
            0.019330747425556183,
            -0.05191114917397499,
            -0.05433027446269989,
            0.08722459524869919,
            0.006266192998737097,
            0.114894337952137,
            -0.053248707205057144,
            0.02771095559000969,
            0.04007105156779289,
            -0.04519430920481682,
            0.10120009630918503,
            -0.04157400131225586,
            0.04625853896141052,
            -0.11353816092014313,
            0.046233564615249634,
            0.09371891617774963,
            -0.14043094217777252,
            0.150514155626297,
            0.010251439176499844,
            0.1397780030965805,
            0.09455180913209915,
            0.08817785233259201,
            0.0024969258811324835,
            0.04984372481703758,
            0.06204795092344284,
            -0.10215453058481216,
            0.07177241891622543,
            0.1266775131225586,
            -0.04119597375392914,
            -0.11278151720762253,
            0.12774351239204407,
            0.14447994530200958,
            0.0004896389436908066,
            -0.08411866426467896,
            0.011267917230725288,
            -0.022328445687890053,
            0.0809623971581459,
            -0.14955207705497742
          ],
          [
            -0.09829243272542953,
            -0.01994987390935421,
            -0.06558763235807419,
            0.029856998473405838,
            0.17259566485881805,
            0.1149064227938652,
            0.15722136199474335,
            -0.15740834176540375,
            0.11787647008895874,
            -0.13676929473876953,
            -0.008299051783978939,
            0.11510966718196869,
            -0.02980833128094673,
            -0.06203202158212662,
            0.02598104253411293,
            0.15114951133728027,
            -0.01573789305984974,
            -0.14630667865276337,
            -0.06109295412898064,
            -0.12852118909358978,
            0.008375350385904312,
            0.09855570644140244,
            0.13321752846240997,
            0.05036138370633125,
            -0.1217678114771843,
            -0.10724417865276337,
            0.0755692571401596,
            0.05924597010016441,
            -0.09118854254484177,
            0.0462205745279789,
            -0.008873709477484226,
